res_net18_1/conv2d_20/kernel:0
(3, 3, 1, 64)
[[[[ 1.03916556e-01  1.38927743e-01 -7.77598321e-02  4.43961509e-02
    -1.29611999e-01 -7.06302449e-02 -9.42849815e-02  8.60391185e-02
    -1.05262883e-01 -1.36254415e-01  3.01485397e-02 -1.26699001e-01
    -2.13269684e-02  1.60654727e-02  8.02961141e-02  3.79161611e-02
     1.23892285e-01  3.76291424e-02  7.54389241e-02 -1.38051465e-01
    -2.10756231e-02 -1.00875422e-01  6.91950694e-02  7.76649341e-02
    -2.02812850e-02 -1.21521942e-01 -1.04686774e-01 -4.58959378e-02
     3.49654369e-02 -7.66813904e-02 -1.82910889e-01 -7.36957937e-02
    -6.55904263e-02  8.42514709e-02  3.77197489e-02 -3.62368003e-02
    -1.68018211e-02  9.60654989e-02  1.18176244e-01 -5.32925129e-02
    -8.90282914e-02  1.29902698e-02 -1.47116454e-02 -1.36738613e-01
     5.38438894e-02  2.07096082e-03 -3.18191573e-02  2.59590112e-02
     1.02091759e-01 -8.78598019e-02  3.67898345e-02  2.33635493e-03
     1.25490114e-01  1.23580061e-01 -4.40029725e-02 -2.80077402e-02
     1.15415439e-01 -1.25972524e-01 -1.39968202e-03  1.41339225e-03
     4.13699783e-02  1.16352715e-01  8.92753154e-03  8.42913315e-02]]

  [[ 7.58220488e-03 -1.05964262e-02 -1.20282307e-01 -1.49932534e-01
    -9.12184492e-02 -6.51121810e-02 -4.66059968e-02  8.77320617e-02
    -4.13603820e-02 -5.94560280e-02 -5.12385555e-02 -4.13505360e-02
    -6.25035614e-02 -3.69238295e-02  1.19300950e-02  4.42079976e-02
     3.67847197e-02 -3.98570821e-02  8.23610872e-02  1.11260615e-01
     1.24931678e-01  4.04556207e-02  1.10589854e-01  5.99240176e-02
     9.23122019e-02 -4.39290963e-02 -1.15754679e-01  6.47518039e-02
    -2.01955244e-01 -1.08206540e-01  9.05003026e-02 -5.49588799e-02
     1.00563560e-03  1.00272246e-01  7.83521011e-02  2.98601517e-05
    -6.98450580e-02  1.63597062e-01 -3.64208184e-02  6.86448887e-02
    -1.03740543e-01 -1.21809132e-01 -4.34116311e-02 -5.95270805e-02
     2.81551946e-02 -4.90426272e-03  2.61963997e-02  4.63356003e-02
    -1.97750166e-01 -5.86487129e-02 -6.25542626e-02  1.22209348e-01
     5.07540666e-02 -9.23177153e-02 -8.12981650e-03 -2.43141595e-02
    -9.16251764e-02  6.46298006e-02 -5.55447442e-03  1.66902557e-01
    -8.54885876e-02 -9.89736095e-02 -1.23119891e-01 -1.25224665e-01]]

  [[-1.12024412e-01 -1.37014687e-01  9.37944204e-02  9.94909704e-02
     8.45660344e-02 -3.68766040e-02 -6.31097034e-02 -2.79935114e-02
     7.18068630e-02  1.46169588e-01  9.87986997e-02 -3.02438978e-02
    -1.52885187e-02  6.71147928e-02 -5.82717136e-02  1.17253028e-01
     4.25272398e-02  1.05740719e-01 -3.75295393e-02  1.08523974e-02
    -1.15717880e-01  7.40807503e-02  2.25418322e-02 -1.54536858e-01
     4.06871513e-02  6.73583150e-02  6.26802966e-02  1.21411838e-01
     7.93401897e-02 -1.96727533e-02  1.43756131e-02  7.34902024e-02
     6.34198710e-02 -5.45329377e-02 -4.89051677e-02 -5.25310710e-02
     1.29899368e-01 -1.07770666e-01 -6.55286387e-02  5.42121641e-02
     9.28646028e-02 -2.96022538e-02 -7.10414276e-02  1.46864980e-01
     1.53356441e-03 -4.31521051e-02 -2.34705266e-02  5.02135605e-03
     3.32540758e-02  6.34758174e-02  1.44322999e-02  5.68171255e-02
    -1.16105471e-02 -4.83155213e-02 -1.19433761e-01 -1.39627025e-01
    -7.87623599e-02  2.47746892e-02  2.51483526e-02 -1.03290617e-01
     5.08562513e-02  1.29427761e-01 -8.25880021e-02  4.01266553e-02]]]


 [[[ 3.50572206e-02  1.20668493e-01  1.80825517e-02  7.16150701e-02
    -1.17836215e-01 -9.52587575e-02  1.44847393e-01 -1.17651738e-01
    -3.49511839e-02  2.36256644e-02 -8.54620039e-02 -9.88266990e-02
     4.38983664e-02  1.06988989e-01  8.32165480e-02 -5.63668422e-02
     6.88272342e-02 -2.75322068e-02 -1.25566684e-02  1.16660967e-01
     2.89622340e-02 -1.23620398e-01 -1.08740637e-02  5.03634140e-02
     6.82002455e-02 -3.72926779e-02  1.98267307e-02 -1.98592171e-02
    -7.62772560e-02 -7.42969438e-02  1.37569979e-01 -1.01324655e-01
     4.85095493e-02 -5.35257272e-02 -4.70869094e-02  6.23621233e-02
    -1.04851723e-01 -1.40872359e-01 -8.04954469e-02 -6.94968104e-02
    -9.78856757e-02  3.26839425e-02  3.40333544e-02  1.72539532e-01
     2.86246557e-02  1.36867195e-01 -9.78721157e-02  3.43875736e-02
    -4.59224768e-02 -6.77609369e-02  9.90116373e-02 -5.12226894e-02
    -1.52701542e-01  8.92119929e-02 -8.74442086e-02  4.45435792e-02
     1.42207807e-02  2.59079225e-02 -3.86326052e-02  1.16638625e-02
    -4.39101197e-02 -4.47615050e-02  8.66211206e-02 -2.91927811e-03]]

  [[-9.34594031e-03 -6.41043112e-02 -1.14086412e-01  4.19057049e-02
     2.69801151e-02  8.43039006e-02 -6.42406791e-02 -8.37981254e-02
     1.09646350e-01  1.35294214e-01 -4.20255959e-02 -3.88938300e-02
    -9.77844466e-03  9.13768858e-02 -4.08606930e-03  1.74036756e-01
    -1.23481065e-01 -1.21879123e-01 -4.94302670e-03 -2.55886596e-02
    -1.54691473e-01  1.97233427e-02  2.05331873e-02  3.60896923e-02
     9.98865739e-02 -6.83454052e-02  2.17893682e-02  2.34725815e-03
    -1.51348457e-01  5.06881550e-02  2.77317446e-02 -9.39279348e-02
     7.81659484e-02  2.80930828e-02  3.83216254e-02 -1.91202611e-02
     1.50454849e-01 -6.41269460e-02  5.50050735e-02 -2.79009473e-02
    -7.42110908e-02 -2.32174769e-01  7.88472742e-02  2.75444500e-02
     2.10624710e-02 -1.52868912e-01  7.66942650e-03  7.73579553e-02
     1.24319106e-01  6.97380155e-02 -6.37766123e-02  1.77653953e-01
     8.64563659e-02 -1.25628188e-01  6.84842095e-02 -7.89213553e-02
     8.29869807e-02  8.12470540e-02  4.20906814e-03 -8.42922330e-02
     7.68024474e-02 -1.37903720e-01  4.93524149e-02  6.59829304e-02]]

  [[-1.30837157e-01 -1.86535940e-02  1.20618334e-02 -8.08504671e-02
     4.24942886e-03  6.10511266e-02 -1.00934794e-02  7.36234933e-02
     1.35973439e-01 -1.16621286e-01 -8.81216489e-03  1.02126427e-01
     4.56954427e-02  2.19640117e-02 -9.36533287e-02  1.45444393e-01
    -5.12314439e-02 -3.98963243e-02  3.40906270e-02 -8.85857418e-02
     1.13986410e-01  1.11177079e-01 -1.09053224e-01 -4.42828909e-02
    -7.92765096e-02  3.56481448e-02 -1.20066404e-02 -1.56054452e-01
    -8.19055289e-02  2.08898960e-03 -8.71006213e-03  1.05135180e-01
     4.72652689e-02 -1.31432995e-01 -1.81694612e-01 -1.16528124e-01
     1.31175984e-04  6.00270368e-03 -7.96757266e-02  7.23563060e-02
     1.02874152e-01 -1.73721075e-01  1.70031443e-01 -1.50883079e-01
     2.98834424e-02  6.32218048e-02 -2.72091608e-02  7.08490461e-02
    -1.49018469e-03  1.23097047e-01  4.86043729e-02  6.21629544e-02
     2.72323517e-03  1.17084257e-01  1.55276120e-01 -1.40000284e-01
    -3.58115658e-02 -5.01437898e-05  1.92784667e-02  8.67985114e-02
    -9.96577218e-02 -1.03336601e-02 -3.78549621e-02 -9.62671489e-02]]]


 [[[ 5.76240569e-02 -1.12746423e-02 -9.20499861e-02 -1.60222948e-01
    -2.08329827e-01  2.58923545e-02  1.27666248e-02  1.13649210e-02
    -5.29320352e-02 -5.14772683e-02 -1.20742895e-01 -6.90380111e-02
    -1.17324054e-01 -5.70805371e-02  2.12502051e-02 -6.34860173e-02
     4.98008057e-02 -5.49845323e-02  3.97403874e-02  8.60670209e-02
     1.24473818e-01 -8.15459490e-02 -2.00234875e-02 -3.62850763e-02
    -2.05677897e-02 -8.34136903e-02 -5.69007955e-02  3.22926641e-02
    -4.34107222e-02 -1.57787696e-01 -7.58155212e-02 -4.51622531e-02
    -4.04945239e-02 -2.40323059e-02 -1.12780519e-01 -8.49620551e-02
     2.95761004e-02  8.95111412e-02 -1.19204834e-01 -8.86562765e-02
    -1.01772018e-01 -3.26526904e-04 -5.10496646e-02 -2.14547310e-02
    -2.43258029e-02 -4.95576784e-02 -6.87515885e-02 -6.60210177e-02
    -6.43859431e-02 -3.13314907e-02 -7.93455318e-02 -1.47914672e-02
    -1.22518204e-01 -1.19960137e-01 -2.74762362e-02  1.19196989e-01
     1.21287435e-01  2.88432799e-02 -6.20419644e-02  7.79269934e-02
     4.91788872e-02 -1.80133339e-02  3.24416137e-03 -3.44723165e-02]]

  [[ 2.37182733e-02  7.76831061e-03 -3.74516360e-02  1.80231526e-01
    -3.42273414e-02  8.93355310e-02 -1.16955593e-01  1.05124786e-01
    -2.84983274e-02 -4.51744981e-02  1.20068282e-01  6.95678368e-02
    -8.23015943e-02 -7.78160021e-02 -2.64385026e-02  1.78527996e-01
    -1.28484979e-01  1.52481705e-01  5.65316454e-02  5.57777770e-02
    -1.07861973e-01  9.10124481e-02 -9.57212374e-02  3.43337795e-03
     5.55447154e-02 -1.96030885e-02 -2.23013032e-02 -3.79079729e-02
    -9.93849486e-02 -9.97914001e-02  9.12938546e-03  1.66469309e-02
    -1.23322994e-01 -3.94116901e-02  6.14035651e-02  8.64660367e-02
    -2.71576401e-02 -1.18350148e-01 -5.19731902e-02  1.09050065e-01
    -7.72655308e-02 -3.13840471e-02 -1.05933025e-02  1.59770548e-02
    -6.03960268e-02 -5.38155697e-02  5.27411811e-02 -8.31102058e-02
    -9.86652747e-02 -9.85198887e-04 -2.90695522e-02  5.77769130e-02
     1.03591047e-01  6.54217005e-02 -1.52020119e-02 -7.85043836e-02
    -8.67463350e-02 -1.47567362e-01  4.23744060e-02 -6.47796243e-02
    -1.69127285e-01 -1.18232578e-01 -1.19909391e-01 -1.41718864e-01]]

  [[-1.08524039e-01 -8.96701142e-02  1.57787502e-02 -4.90592234e-02
    -5.36109470e-02  1.30805805e-01  2.25798674e-02 -7.53045529e-02
     4.37486023e-02  9.74640548e-02  1.18781209e-01  1.20434202e-01
    -1.07610829e-01 -1.82878692e-02 -1.57508954e-01 -4.92960820e-03
    -1.09646104e-01 -1.05675541e-01  1.27435513e-02 -6.00135811e-02
    -7.24992203e-03  1.07977822e-01 -8.18207636e-02 -1.46894380e-01
    -5.52909449e-02  2.91520394e-02  7.42162243e-02  3.07522211e-02
     8.22485536e-02 -1.04268678e-01 -3.00743282e-02 -3.39614265e-02
    -1.25465333e-01 -9.78221521e-02  1.90920196e-02  1.82366073e-02
    -4.20701988e-02  7.89407939e-02  6.31238706e-03  4.55449112e-02
     1.13670945e-01 -8.88822675e-02 -1.13666058e-01  2.98241014e-03
     1.05186634e-01  4.18421589e-02  8.32754448e-02 -1.02841677e-02
     8.40522498e-02  1.47488907e-01  6.82240725e-02  4.81233820e-02
    -7.61608034e-02 -6.85925782e-03 -2.59493142e-02 -5.48827052e-02
    -6.36633486e-02 -1.41976690e-02  7.94641748e-02  4.43562977e-02
     8.73948112e-02 -5.15144058e-02 -8.99264887e-02  7.61853680e-02]]]]
res_net18_1/batch_normalization_20/gamma:0
(64,)
[1.0062022  1.0472159  0.99296033 1.1438861  0.9748537  0.98583996
 0.899484   0.9178338  0.9871351  1.0901845  1.0091233  1.0359004
 1.0049127  0.80831385 0.90271837 0.97482926 0.92344046 1.0576862
 0.7634159  1.0143622  1.1987895  1.0422739  0.9512627  0.95502436
 0.8659663  0.81632733 0.87653947 1.0112784  1.0307403  0.9590976
 0.9566482  0.91579366 0.83740056 0.93882996 0.91951877 0.85866916
 0.96454096 1.1950805  0.99012196 0.94055015 1.0543157  1.0109458
 1.0164607  1.1150566  0.7493865  1.0324454  0.7807128  0.7217702
 1.1308106  1.0302454  0.744325   0.9611576  1.106018   1.0733457
 0.9243759  1.0401877  0.8977013  0.8756767  0.8110189  1.0264436
 1.0287707  1.024842   1.0136234  1.0273921 ]
res_net18_1/batch_normalization_20/beta:0
(64,)
[ 0.01361479  0.2207027   0.03514447 -0.01894838  0.01808827  0.08043814
  0.03045361 -0.05451029  0.15842672  0.05765311  0.15667734  0.25505784
  0.03348715 -0.09543716  0.00352012  0.01411248  0.12973195 -0.11468528
 -0.13873139  0.04858136 -0.0403868   0.12638828  0.09326778  0.0113539
 -0.03466383 -0.00495463  0.13978238 -0.06351214 -0.02409126 -0.072841
 -0.01356797  0.0871859  -0.06164632  0.00623129  0.00737298 -0.03305228
  0.11275795 -0.10051584 -0.00045699  0.09314114  0.09508514 -0.02142596
 -0.01021534 -0.00789047 -0.13315636  0.00727459 -0.01094901 -0.2026743
 -0.03371491  0.13376555 -0.0786421   0.0184578   0.02585536 -0.04207849
  0.07766882  0.00585816  0.13719545 -0.09430923  0.00317248 -0.01768334
 -0.02739206 -0.00743682  0.09747683 -0.05453972]
resnet_block_8/conv2d_21/kernel:0
(3, 3, 64, 64)
[[[[-1.38325179e-02 -2.84689292e-02  1.30693898e-01 ...  1.01885051e-01
     4.66829650e-02  5.16177788e-02]
   [-1.40172184e-01 -2.85688210e-02  1.11263454e-01 ...  2.58110519e-02
     6.37950003e-02 -3.41671370e-02]
   [ 3.90516184e-02 -4.61439751e-02 -5.49441613e-02 ...  5.83455851e-03
    -9.56366435e-02 -4.57209982e-02]
   ...
   [ 6.71960562e-02 -7.15907216e-02 -1.27729913e-02 ...  8.86509567e-02
    -8.89717974e-03 -6.83527738e-02]
   [-7.43176341e-02 -8.92259255e-02  3.71642932e-02 ...  3.65839452e-02
     5.56880273e-02 -3.63795757e-02]
   [ 2.95698754e-02 -1.63890552e-02 -6.39340654e-02 ...  3.19821425e-02
    -7.76497498e-02  7.44278952e-02]]

  [[-5.28856628e-02  9.13103446e-02  1.48181275e-01 ... -4.03927192e-02
     9.34693962e-02  1.02211935e-02]
   [-7.05143064e-02  7.47742578e-02  1.49718240e-01 ...  2.99541242e-02
     6.50150552e-02 -2.21182965e-02]
   [ 6.89393329e-03 -1.05706565e-02  3.16556990e-02 ...  2.63080597e-02
     2.43466757e-02 -5.79795726e-02]
   ...
   [-6.47700429e-02 -4.54026498e-02  1.21097537e-02 ...  1.34536892e-01
     2.46796869e-02 -1.00618385e-01]
   [-9.39405635e-02 -1.08051918e-01  1.15783848e-01 ...  4.86503020e-02
     9.48884264e-02 -6.55649081e-02]
   [-6.29417077e-02 -1.47995772e-02  2.55614836e-02 ...  5.06754965e-02
    -4.95080873e-02  1.64716821e-02]]

  [[ 8.86777788e-02 -2.44265590e-02  1.04306061e-02 ... -6.37431219e-02
     7.46946335e-02  1.84338745e-02]
   [ 1.25212014e-01  5.32574654e-02  1.51441813e-01 ... -4.19532992e-02
     1.17289633e-01 -8.85216743e-02]
   [-1.25720769e-01 -8.90956819e-02  1.27977341e-01 ...  9.97095257e-02
     4.14043963e-02 -9.76102874e-02]
   ...
   [ 4.06796560e-02 -4.88591231e-02  1.37815326e-01 ...  1.59841835e-01
     8.38859975e-02 -5.22809960e-02]
   [ 3.94406281e-02  6.90001762e-03  1.23548031e-01 ...  4.70796004e-02
     1.36886120e-01 -4.13946956e-02]
   [-7.37827271e-02 -2.72352099e-02 -2.13548392e-02 ... -4.07967456e-02
    -5.25431447e-02  8.86754543e-02]]]


 [[[-9.61087346e-02 -8.74309801e-03  7.69061372e-02 ...  5.18136024e-02
     7.23360628e-02 -7.05404133e-02]
   [-7.48941377e-02 -1.00311980e-01  8.65583196e-02 ...  1.06596716e-01
     4.71992902e-02 -5.73685914e-02]
   [-2.38694772e-02  3.28885205e-02  1.76936705e-02 ...  1.49399163e-02
    -8.62181932e-02 -8.73282105e-02]
   ...
   [-2.08380930e-02 -3.94341387e-02 -4.95825671e-02 ...  3.02577242e-02
     3.61049175e-02 -1.45303771e-01]
   [-8.66881385e-02 -1.89257637e-01 -1.16440943e-02 ...  6.81213811e-02
    -1.63287297e-02 -5.90577647e-02]
   [-1.78114280e-01 -1.04537733e-01  1.29711144e-02 ... -1.32407947e-02
    -5.34207933e-02 -8.32725093e-02]]

  [[-5.35220094e-02  5.66929318e-02  1.35211021e-01 ...  6.84491033e-03
     7.51164556e-02  1.42368507e-02]
   [-1.13621347e-01  6.44759312e-02  8.94108862e-02 ...  7.47369276e-03
     9.32214111e-02 -5.14680445e-02]
   [-9.77253094e-02 -1.13977432e-01  4.44650687e-02 ...  4.74223904e-02
     1.34358313e-02 -1.18121862e-01]
   ...
   [-6.76047662e-03 -1.09541416e-01 -1.62019618e-02 ...  1.22323200e-01
     8.53411183e-02 -6.32541254e-02]
   [-7.43958652e-02 -7.69089907e-02  1.17579557e-01 ...  2.53361389e-02
     1.10813104e-01 -1.33339912e-01]
   [-7.69935101e-02 -2.94029783e-03 -2.25777291e-02 ...  7.67661184e-02
    -1.31715443e-02  2.76752263e-02]]

  [[-2.27056239e-02  7.05543458e-02  5.06545939e-02 ... -4.85119559e-02
    -2.18942463e-02 -3.42162885e-02]
   [-6.27347408e-03  1.32599343e-02  1.39934823e-01 ... -1.21182062e-01
     5.79174533e-02 -1.91640984e-02]
   [-2.46773567e-02 -5.85396998e-02  6.74418267e-03 ...  1.23156480e-01
     1.04834378e-01 -4.96880636e-02]
   ...
   [-8.19891691e-04 -3.57134342e-02  7.89463669e-02 ...  1.26951501e-01
     5.39097972e-02 -1.12745889e-01]
   [ 4.91888337e-02  4.39050719e-02  7.78554454e-02 ...  1.15163751e-01
     5.63589893e-02 -1.18793659e-01]
   [ 4.14755754e-02 -7.26296976e-02 -5.86157851e-02 ...  1.20515376e-02
     6.40822649e-02  4.07898519e-03]]]


 [[[-9.44073573e-02 -4.94994596e-03  7.54620433e-02 ... -2.90931892e-02
     3.17319743e-02 -4.33998369e-02]
   [-7.66794533e-02 -1.26777977e-01  8.31355304e-02 ...  3.56918350e-02
    -3.65905510e-03 -5.51612824e-02]
   [-1.55599779e-02 -4.14959081e-02 -7.01794475e-02 ... -4.61781137e-02
     1.32728601e-02 -1.12675592e-01]
   ...
   [ 8.75352547e-02 -9.75784957e-02  5.46845645e-02 ... -3.23127955e-02
    -4.90072779e-02 -5.85159585e-02]
   [ 2.79392600e-02 -9.11885351e-02  7.42542669e-02 ...  5.72946072e-02
     9.66373365e-03 -3.43698412e-02]
   [-1.46744281e-01 -9.05471519e-02 -1.06918372e-01 ... -5.69667593e-02
    -2.66190134e-02 -5.51196598e-02]]

  [[-5.04329838e-02  1.33364722e-02  8.10616612e-02 ... -1.90499108e-02
     2.55354121e-02 -1.19675137e-02]
   [-1.49622694e-01  5.43669574e-02  1.40416279e-01 ... -6.01167902e-02
     9.26183537e-02 -3.32890265e-02]
   [ 9.26227440e-05 -1.09351382e-01 -7.93267116e-02 ...  8.88052508e-02
    -2.59475149e-02 -4.76695225e-03]
   ...
   [-1.92058366e-02 -2.36853063e-02  1.31012816e-02 ...  2.22547259e-02
     2.35762028e-03 -1.23957984e-01]
   [-1.01708144e-01 -1.45203263e-01 -4.67775576e-03 ...  1.33192733e-01
     3.92570905e-02 -5.70141487e-02]
   [-8.92627463e-02 -4.82443757e-02 -3.81698497e-02 ...  9.66683403e-03
    -2.07841657e-02  5.88452518e-02]]

  [[-5.40772788e-02 -1.23390835e-02  6.86758235e-02 ... -1.71862338e-02
     3.20070274e-02 -3.73986666e-03]
   [ 3.74492146e-02  3.34710511e-03 -6.50698878e-03 ... -1.53971747e-01
     2.81524379e-02  4.11240160e-02]
   [-3.01286019e-02 -4.46369052e-02 -3.00011225e-02 ...  1.03981160e-01
     5.45858964e-02 -2.30992842e-03]
   ...
   [ 4.57476526e-02 -6.86116666e-02  6.75923228e-02 ...  1.13494486e-01
     2.30973922e-02 -7.41312802e-02]
   [ 1.55501347e-02 -4.57149930e-02  4.51008677e-02 ...  1.09644614e-01
     6.72740787e-02 -9.74452943e-02]
   [-5.95008163e-03 -1.79137569e-02 -1.18949302e-02 ...  2.60054488e-02
     5.92310950e-02 -1.01597933e-02]]]]
resnet_block_8/batch_normalization_21/gamma:0
(64,)
[1.0233548  0.9515537  1.0443294  0.9447629  0.97666043 1.0180047
 0.99170566 1.0407269  0.9804022  0.97844464 0.9703107  0.9809868
 1.044982   1.0348145  1.0026897  0.8581921  0.9514568  0.9224381
 0.94541454 0.938954   1.0407069  0.99526405 1.0375433  1.0074961
 0.97215813 1.0156188  0.96370363 1.0187103  1.0446047  1.0111547
 1.0308114  1.016239   0.96863395 1.0054986  0.9691817  1.0302051
 1.034591   0.82259655 1.0547991  1.0926168  1.0008293  0.93571794
 1.007992   0.97055656 0.9531353  0.980141   0.99865556 1.0247539
 0.9431485  0.9605414  0.9677043  1.0018294  0.9420391  0.9824659
 1.0877824  0.9350521  0.9531882  1.0244023  0.9936156  0.97389156
 1.0203018  0.95700943 0.94014996 1.0212451 ]
resnet_block_8/batch_normalization_21/beta:0
(64,)
[-0.12155247 -0.05511392 -0.14904647 -0.03404882  0.0523643  -0.09179929
 -0.16159175 -0.03286314 -0.04542957  0.04864925 -0.09460337 -0.07616705
  0.11730906 -0.07637801 -0.13137192 -0.11314408 -0.1316538  -0.1305261
 -0.09084786 -0.15947494  0.05376518 -0.11520867  0.03576997  0.0284812
 -0.05137734 -0.08662225  0.02694587  0.06478539 -0.08366401 -0.07786696
 -0.11083215 -0.03599876 -0.12198714  0.0186104  -0.01924668 -0.14125156
 -0.05479899 -0.11712743  0.0516338   0.06953558 -0.14200546 -0.05893432
 -0.0442723  -0.12717216 -0.12034073 -0.10610043 -0.17020784 -0.05469999
 -0.1262981  -0.09373285 -0.11334211 -0.11704855 -0.1065826  -0.05527548
 -0.06358197 -0.03032856  0.03130049 -0.06607706 -0.12708387 -0.07338894
 -0.09438462 -0.13048583 -0.02626836  0.04179762]
resnet_block_8/conv2d_22/kernel:0
(3, 3, 64, 64)
[[[[ 0.08230595  0.08337953 -0.08731189 ... -0.09053766  0.05268234
    -0.20324777]
   [ 0.07227234  0.02200594 -0.02126945 ... -0.07450828  0.07444247
    -0.02915801]
   [-0.00957443  0.01357976  0.00927499 ...  0.0820234   0.11177775
     0.02537087]
   ...
   [ 0.02409863 -0.01144626  0.13192147 ... -0.06941152 -0.11800843
     0.15235025]
   [ 0.02692388 -0.01345905  0.1076492  ... -0.00499151  0.04816153
     0.00916228]
   [-0.01987817  0.06339426  0.00071861 ... -0.0522117   0.07038432
     0.01084326]]

  [[ 0.02971544 -0.04009836 -0.00484429 ... -0.18825948 -0.01488346
    -0.06118904]
   [-0.01407059  0.09631812 -0.00087622 ... -0.08386    -0.05311511
    -0.00547909]
   [ 0.17889127  0.03354406  0.02172475 ... -0.04883219  0.19637218
     0.02207214]
   ...
   [ 0.06738937 -0.06489465  0.01710898 ...  0.00471544  0.05532004
     0.02250869]
   [ 0.06859326  0.09341854  0.01074018 ... -0.03834528  0.05687606
    -0.00300898]
   [-0.03314249  0.10585335 -0.01934692 ... -0.01781908  0.02192765
    -0.08166429]]

  [[-0.00431078 -0.02107404  0.03214288 ... -0.02962903 -0.11547884
    -0.06444727]
   [-0.06731308  0.05779739 -0.02289533 ...  0.00138374 -0.06207809
     0.06447411]
   [ 0.18194936  0.08543863 -0.04870628 ... -0.1262285   0.05232992
    -0.07310477]
   ...
   [ 0.03766189  0.09020852  0.07401074 ... -0.11208455  0.0359602
     0.04951583]
   [ 0.11676136 -0.02749014 -0.03114214 ... -0.09964517  0.02653383
    -0.10532486]
   [-0.02764568  0.05612439 -0.09447959 ... -0.06116419  0.01484723
    -0.09578186]]]


 [[[ 0.17519192  0.08224386 -0.10852389 ... -0.00648577  0.04506474
    -0.05738249]
   [ 0.07366606  0.07235894 -0.06148627 ...  0.00803773  0.03241254
     0.03079369]
   [-0.0880373  -0.01102485  0.03424487 ...  0.07400701  0.15048723
     0.13114159]
   ...
   [-0.07688901 -0.01301414  0.04475343 ... -0.0406161  -0.11005001
     0.00787766]
   [-0.03231441  0.0069102  -0.0053473  ...  0.0590933   0.12423446
     0.06901541]
   [ 0.00618006  0.10381763 -0.115046   ... -0.06544014  0.08010343
    -0.05636379]]

  [[ 0.08174913 -0.01346384 -0.06789414 ... -0.17156006 -0.03461015
    -0.07568513]
   [-0.00074395 -0.02767142  0.01819355 ... -0.01976503 -0.04766808
    -0.03419301]
   [ 0.11793056  0.01219266 -0.00366024 ... -0.04998738  0.11648276
     0.07430302]
   ...
   [-0.019031    0.00130308  0.09068214 ...  0.01657039 -0.01318238
     0.03882115]
   [ 0.02980531 -0.00378204 -0.04810549 ... -0.09453402  0.05336969
     0.02756305]
   [-0.07913313  0.01521207 -0.03458213 ... -0.05127909  0.00854026
    -0.0502794 ]]

  [[-0.03256348 -0.07850965  0.03512105 ...  0.00803068 -0.13638441
     0.01164563]
   [-0.05356443  0.03642432 -0.03084422 ... -0.03018116 -0.01997274
    -0.04846205]
   [ 0.18059905  0.07597239 -0.04805904 ... -0.14435525  0.04822581
     0.02186928]
   ...
   [ 0.05271115 -0.03206109  0.08481624 ... -0.09696294 -0.02345611
     0.06114468]
   [ 0.10990106  0.0134468  -0.02947626 ... -0.1143714  -0.02289319
    -0.07719146]
   [-0.1004894   0.00383949 -0.00598188 ... -0.0085922   0.00570205
    -0.03802311]]]


 [[[ 0.16085243  0.01885163  0.00168928 ... -0.05120026  0.01608101
     0.00455489]
   [ 0.01408597  0.2002123  -0.01567483 ...  0.02507326  0.09283256
    -0.03461783]
   [ 0.07336543  0.00450233  0.03836524 ...  0.05425664  0.04208671
     0.06495571]
   ...
   [-0.06544951  0.00346447  0.0988778  ...  0.00089532 -0.10686147
     0.02862259]
   [-0.06196291 -0.0416384   0.0421618  ...  0.06309649  0.09711335
     0.0757398 ]
   [-0.05162703  0.1026881  -0.02332489 ...  0.05668965  0.04857541
    -0.02956807]]

  [[ 0.07847077  0.0085381  -0.02113405 ... -0.0986245  -0.09037226
    -0.10234004]
   [ 0.0824428   0.08871921  0.03760621 ... -0.12865657 -0.05339798
    -0.01828692]
   [ 0.12403167  0.09457592  0.07676539 ... -0.09400228  0.03728183
    -0.01542319]
   ...
   [ 0.06853688  0.01596009  0.04252988 ... -0.03311266 -0.0317826
     0.00702063]
   [ 0.07283217  0.03150891 -0.06906982 ...  0.0252621   0.11874028
    -0.04030282]
   [-0.07536999  0.03710365 -0.07736914 ... -0.0826568   0.02789504
    -0.04633589]]

  [[-0.05206855 -0.11488467  0.00420595 ... -0.02714199 -0.09769218
    -0.08777091]
   [-0.02446502  0.04246141  0.05597769 ... -0.04569116 -0.11301821
    -0.00524575]
   [ 0.09582997  0.08259952  0.01861164 ... -0.11063813  0.00808493
    -0.05864957]
   ...
   [ 0.09531297  0.04441153  0.0133687  ... -0.08436683 -0.03433774
     0.07627138]
   [ 0.0247041   0.04148235  0.01809642 ... -0.13703124 -0.0222154
     0.00771578]
   [-0.01095927 -0.01505447 -0.0077659  ... -0.01240583  0.00600414
     0.00936728]]]]
resnet_block_8/batch_normalization_22/gamma:0
(64,)
[0.95907515 0.9826982  1.019689   1.0326552  0.9528762  0.970838
 0.96586066 0.983137   1.1315812  1.0988636  1.014164   0.9947009
 0.964139   1.0001041  0.99847966 1.0295365  1.0462837  1.0322914
 0.9828923  0.9331318  0.9211083  0.98487216 0.92574465 0.9974595
 1.098367   1.0151846  1.0923232  0.88888824 1.0553116  0.99067116
 1.0404655  0.9049486  0.9913209  0.99973816 1.0203046  0.9827761
 0.9981971  1.055684   1.0148135  0.9731987  1.0190305  1.0384158
 1.0285736  1.024373   0.9956977  1.0322648  1.065409   1.0055232
 1.0906612  0.9642433  1.0453075  1.0372388  0.9712619  0.96800435
 0.99128145 0.9463514  0.9470349  0.98255366 1.0415957  1.0695118
 0.99834764 1.0067824  0.98118424 0.97700536]
resnet_block_8/batch_normalization_22/beta:0
(64,)
[-0.03211957 -0.02374069 -0.02603866  0.00061544  0.0564207   0.03655513
  0.01346173 -0.0906093   0.02386569  0.09607492  0.02717147  0.07503261
  0.07350436 -0.03662831 -0.13331293  0.06408884  0.05613321 -0.0497411
 -0.0263282  -0.02920282 -0.01517034 -0.12805538 -0.04566196 -0.038397
  0.03337822 -0.07596634  0.05204415 -0.08391501 -0.02769611  0.02395832
 -0.03409993 -0.09337956 -0.06755874 -0.05011046  0.06529073 -0.11248016
  0.05128523  0.00985746 -0.00861098 -0.10113046 -0.01887935 -0.06243118
 -0.03767413 -0.0397783  -0.09117625 -0.02777088 -0.06642796 -0.15644947
  0.01033424  0.07064962  0.06186337  0.06376525 -0.06696549  0.0542772
 -0.02015937 -0.07206577 -0.13848157 -0.0846035  -0.07096371 -0.04721143
  0.10575339  0.14958008 -0.05070764 -0.03884014]
resnet_block_9/conv2d_23/kernel:0
(3, 3, 64, 64)
[[[[ 0.09131035  0.01143956 -0.12547837 ... -0.10952356  0.00078481
     0.02140263]
   [ 0.03880478 -0.05876201 -0.15906511 ... -0.07319392 -0.01310126
    -0.09695748]
   [ 0.04680664  0.0957545  -0.06806886 ... -0.0418981  -0.0711851
    -0.10987666]
   ...
   [ 0.06599283  0.00567903  0.04598022 ... -0.07586139  0.00252646
    -0.07492235]
   [ 0.04687116  0.00408274 -0.10894462 ... -0.10212323  0.04092737
    -0.09716156]
   [ 0.08725773  0.12528509  0.00799586 ... -0.11383432 -0.0658255
    -0.2024922 ]]

  [[ 0.01396782 -0.01349101 -0.05643772 ... -0.08261769  0.01083886
     0.06538829]
   [-0.01022408 -0.09098375 -0.07458264 ... -0.0702322  -0.06019261
    -0.02575776]
   [ 0.07987778 -0.01572865 -0.06595422 ... -0.08129768  0.04108767
    -0.00066547]
   ...
   [-0.03537882 -0.10896471  0.05513253 ...  0.0030496   0.0770134
    -0.07849425]
   [-0.00180714 -0.0273063   0.02738384 ... -0.00762446  0.00636216
     0.02715014]
   [ 0.07189309  0.00549779  0.01581941 ... -0.1270076   0.02944722
    -0.11725485]]

  [[ 0.0313326  -0.03177636  0.01600521 ... -0.02515967 -0.10649778
     0.11764064]
   [ 0.0249401  -0.06107067 -0.04479225 ...  0.00252439 -0.18742475
    -0.11602461]
   [-0.02510837  0.01186524 -0.01919924 ... -0.10773355  0.09781679
    -0.0083927 ]
   ...
   [-0.14692795 -0.11350884  0.00414268 ... -0.05213436 -0.04011435
    -0.02915322]
   [-0.04896519 -0.03854789  0.01401871 ...  0.08036401 -0.04418031
     0.06134943]
   [ 0.0054049  -0.05058889 -0.06858861 ... -0.01498029  0.07557137
     0.14627576]]]


 [[[ 0.07636116 -0.04560981 -0.07896023 ... -0.05254852 -0.08618897
     0.01094661]
   [-0.06469965 -0.06031138 -0.12941226 ... -0.12309787 -0.03689729
     0.00653182]
   [ 0.01614563  0.10337885 -0.04827896 ...  0.00565165  0.04256776
    -0.07912895]
   ...
   [ 0.08379058  0.07156218  0.05475774 ... -0.15563163 -0.06110927
    -0.17725396]
   [ 0.00923234  0.07824969 -0.07961459 ... -0.06976658  0.01620734
    -0.12230168]
   [ 0.07880507  0.07389832 -0.0548808  ... -0.08855773 -0.01714855
    -0.07141132]]

  [[-0.02592277  0.00515422 -0.0994274  ...  0.04080591 -0.11200961
     0.06287514]
   [-0.07533291 -0.10114283 -0.06845737 ... -0.06502588 -0.09429696
    -0.00492122]
   [ 0.11366428  0.03620338 -0.0662515  ... -0.11022843 -0.00629876
    -0.04951156]
   ...
   [-0.00482267 -0.05606624  0.0581232  ... -0.00819879  0.01560026
    -0.14199965]
   [ 0.00941285  0.05973045 -0.04741355 ... -0.02711876 -0.02045734
     0.00594023]
   [-0.03995804 -0.10034021  0.03635305 ... -0.13102868 -0.05217995
    -0.00035275]]

  [[-0.02506626  0.00022605 -0.06418572 ... -0.06148871 -0.09821849
     0.08201601]
   [ 0.04120678  0.01086086 -0.01726367 ... -0.01438745 -0.17591557
     0.00639888]
   [-0.03143755 -0.09609225  0.01193645 ... -0.03218426 -0.01357474
     0.0259937 ]
   ...
   [-0.129021   -0.13924325  0.04607525 ...  0.05163697  0.03758009
     0.00129545]
   [-0.06838895 -0.04911615  0.05538573 ...  0.03479249 -0.0924141
     0.00869654]
   [-0.04712096 -0.06610606  0.0170655  ...  0.03143835  0.09165066
    -0.03339346]]]


 [[[ 0.00644042 -0.03426706 -0.03212589 ... -0.05645196 -0.02677102
     0.02922232]
   [-0.00917953 -0.00811004 -0.06741916 ... -0.1061279   0.01617248
    -0.05884866]
   [ 0.03862472  0.00429926 -0.01835454 ... -0.11614484  0.04384151
    -0.08787628]
   ...
   [ 0.09987676 -0.0374034  -0.02195267 ... -0.13856994  0.06235202
    -0.11160912]
   [-0.00246804  0.07233358 -0.01403156 ... -0.10467076 -0.06537298
    -0.09341843]
   [ 0.03641914  0.023704   -0.00465417 ... -0.09668516 -0.01212203
    -0.07263488]]

  [[-0.02187831  0.01251136 -0.04397529 ...  0.0038987  -0.13434441
    -0.00671233]
   [-0.0526747  -0.09360015 -0.04736234 ... -0.01546728 -0.12590012
     0.05844027]
   [-0.00141031  0.03076122  0.01096745 ... -0.0595304  -0.06575466
    -0.01541804]
   ...
   [-0.0445164  -0.06920119 -0.00313591 ... -0.03933966 -0.02286058
    -0.10579445]
   [ 0.04286184  0.05887521 -0.01168189 ... -0.08588023 -0.0600482
    -0.08338802]
   [ 0.02905618 -0.123602    0.0129392  ... -0.05334332  0.0725621
    -0.03497769]]

  [[ 0.0257498   0.04227897 -0.03047699 ...  0.01694421 -0.08822578
    -0.00862105]
   [ 0.03702087 -0.06763186 -0.11870601 ... -0.07253509 -0.10210924
    -0.07470744]
   [-0.10815392 -0.08316667  0.03737793 ... -0.04648219  0.0322379
     0.05534273]
   ...
   [-0.07942554 -0.1178422   0.06650282 ...  0.04971977 -0.05421541
    -0.05665307]
   [ 0.00937181 -0.06282755  0.024679   ... -0.07233264 -0.05210079
    -0.02447838]
   [-0.08853807 -0.0879837   0.00976515 ... -0.01614089  0.08904792
     0.0283384 ]]]]
resnet_block_9/batch_normalization_23/gamma:0
(64,)
[0.92382914 1.0081204  1.005761   0.9887709  0.9139233  0.9589551
 1.0023352  0.9786756  0.82470775 1.0104715  0.98490924 0.97508025
 1.0460806  1.036342   0.94476026 1.0162498  1.0404431  1.0646209
 1.090695   0.93998295 1.0282356  0.9486642  1.0611396  1.0086225
 1.062027   0.9476472  0.84556586 0.98186666 1.100932   0.98797494
 1.1233035  0.9989629  1.0771468  1.0490662  1.0842336  0.9177766
 0.9887323  1.1146038  1.1408955  0.99424684 0.97343147 1.0059687
 0.94142723 1.1329677  1.0428362  0.99472666 0.97477037 0.8921817
 0.95138454 0.998678   1.0218389  0.9038342  0.9577907  0.9349992
 1.1297153  0.92667174 1.0942475  1.1173828  1.0784596  1.0101224
 1.0709292  0.9602964  0.96407396 0.9578053 ]
resnet_block_9/batch_normalization_23/beta:0
(64,)
[-0.0780424  -0.05919527 -0.07206088 -0.03113357 -0.02916719 -0.04189527
 -0.03783037 -0.11092601 -0.14516903 -0.01720958 -0.07570067 -0.04173454
 -0.00853894  0.01970426 -0.06309231  0.04221775  0.08854122 -0.00658134
  0.02130334 -0.0426128   0.04182537 -0.09322942 -0.01921577 -0.01009758
  0.00082286 -0.09102007 -0.12350468 -0.05042268 -0.01233479 -0.09759987
  0.01383637  0.00279174  0.04188044 -0.0282526  -0.05494361 -0.04190089
  0.00895446  0.01853968 -0.00323074 -0.01086381 -0.07073919  0.1009369
  0.00213513 -0.0249764  -0.02535292 -0.13149776 -0.00797607 -0.15118314
 -0.0261843  -0.05793409  0.03673597 -0.08985002 -0.08887332 -0.08721524
  0.10196777 -0.05739224  0.02528616  0.00568912  0.00225615 -0.07482954
 -0.01887444  0.00602102 -0.06211397  0.01335752]
resnet_block_9/conv2d_24/kernel:0
(3, 3, 64, 64)
[[[[-0.06428484 -0.03324794  0.03170586 ... -0.10576551 -0.13350657
    -0.01159776]
   [ 0.01377104  0.0189723   0.05753264 ... -0.12851551  0.03734667
    -0.00868665]
   [ 0.02035421 -0.02107788 -0.07790596 ... -0.03118633  0.00299911
    -0.03896264]
   ...
   [ 0.11356645 -0.04175088 -0.04464386 ...  0.05836899  0.14386046
    -0.03787642]
   [ 0.02548737  0.06443486 -0.00132067 ... -0.06543518  0.06660972
     0.04990571]
   [-0.00146712  0.06207905 -0.13544203 ...  0.06558678  0.10559845
     0.02656063]]

  [[-0.05466112 -0.08885621  0.05846372 ... -0.0221566  -0.13505608
     0.006577  ]
   [-0.04107239 -0.03713013  0.11374144 ... -0.04912667 -0.00489437
    -0.09264155]
   [ 0.07323419  0.06061608 -0.10638597 ...  0.00632203 -0.03839699
    -0.10908382]
   ...
   [ 0.12740503  0.01230971 -0.0092854  ... -0.06653529  0.00624178
    -0.07872857]
   [ 0.01081419  0.0551898  -0.03485784 ...  0.0370487   0.10708519
     0.07456595]
   [ 0.07342908  0.09627752 -0.00295668 ...  0.02038648  0.04055094
    -0.11677012]]

  [[ 0.03308836 -0.13467363 -0.09983057 ...  0.09879746  0.00052408
     0.11490797]
   [-0.07396425  0.00085627 -0.09027436 ...  0.03606382  0.00642156
     0.0823708 ]
   [ 0.08285688  0.02852948 -0.02864932 ... -0.01065285 -0.03651428
    -0.07941668]
   ...
   [-0.06917544  0.0447685   0.00582461 ... -0.07915033 -0.08730008
    -0.00748779]
   [ 0.07407169 -0.00146972 -0.07593047 ...  0.01940157  0.07004566
     0.02840593]
   [-0.01917117  0.00889229  0.04934382 ... -0.05396939 -0.07666727
    -0.06588274]]]


 [[[-0.03301017 -0.0149264  -0.00304778 ... -0.05803969 -0.1273624
    -0.03523245]
   [ 0.05969576  0.03384205  0.0172892  ... -0.06631759 -0.03778535
    -0.09113508]
   [-0.01382927  0.09064384 -0.09593754 ... -0.00756552 -0.01442659
    -0.04347036]
   ...
   [ 0.1337819   0.08429056 -0.12983136 ...  0.13441923  0.04397591
    -0.0952595 ]
   [-0.01571508 -0.03843464 -0.01505047 ...  0.04907441 -0.06154115
    -0.06276944]
   [ 0.02815969  0.0266596  -0.11409451 ...  0.09605494  0.1394803
     0.04416286]]

  [[-0.04006384  0.00480767  0.02851022 ... -0.03797    -0.1172402
     0.00274861]
   [-0.07920205 -0.06483768  0.03262175 ... -0.04805582 -0.04157821
    -0.04640285]
   [-0.02021031  0.01191967 -0.07276734 ... -0.04445592  0.00927429
    -0.04543284]
   ...
   [ 0.0350582   0.05724169  0.01917497 ...  0.01494537  0.00666336
    -0.10003836]
   [ 0.04217784 -0.00343811 -0.05075064 ...  0.04508036  0.01337428
     0.06216615]
   [ 0.0405436   0.08228005 -0.10567584 ... -0.02564187  0.07504007
     0.00322771]]

  [[-0.01568839 -0.16223375 -0.03750631 ...  0.06422669 -0.00828837
     0.07563441]
   [ 0.02913218 -0.01549705 -0.01455363 ...  0.07099348  0.02321343
    -0.01964125]
   [-0.04695631  0.1197931  -0.03072277 ...  0.03526174  0.02739422
    -0.04458063]
   ...
   [ 0.00422788  0.00172341  0.1060895  ... -0.09752954 -0.1270083
    -0.0883808 ]
   [ 0.04460016 -0.00451181 -0.09175745 ... -0.00602388  0.00057433
     0.03202384]
   [-0.04399511  0.01693282  0.0693405  ... -0.0016759  -0.06218509
    -0.02906325]]]


 [[[-0.03302786  0.06168268  0.01907998 ... -0.03460653 -0.06966174
     0.03125095]
   [-0.07025768  0.06738152  0.03893019 ... -0.1405611  -0.05717596
    -0.04658006]
   [-0.03236832  0.07995532 -0.1272742  ...  0.02582615 -0.01299452
    -0.03086615]
   ...
   [ 0.06005313  0.02325316  0.00336233 ...  0.02034797  0.03771974
     0.02985526]
   [-0.11219585  0.00339384 -0.08899479 ... -0.03489015 -0.00840225
    -0.03325509]
   [-0.01314077  0.08449822 -0.10714775 ...  0.03402932  0.07828052
    -0.01835252]]

  [[-0.00503369 -0.05022251 -0.05771936 ... -0.09308    -0.1386984
    -0.02853603]
   [-0.0676422   0.03276723  0.12096363 ... -0.02074886 -0.10113265
    -0.07747103]
   [ 0.01082487  0.04681462 -0.0099838  ... -0.02358481 -0.06408724
    -0.06707276]
   ...
   [ 0.10969941  0.01407792 -0.01682793 ...  0.02032449  0.08272602
    -0.04029806]
   [-0.04576433  0.04646878 -0.02163694 ...  0.04011979 -0.01226094
     0.0359263 ]
   [ 0.0448415   0.01302361 -0.04193962 ...  0.05160816  0.03486748
    -0.0639469 ]]

  [[ 0.02357107 -0.06093483 -0.03521961 ... -0.0247398  -0.14083366
     0.09003779]
   [ 0.05790048 -0.01708806 -0.08981752 ...  0.01812145 -0.14979862
    -0.05939914]
   [ 0.09698309  0.00527856 -0.0578108  ...  0.05732938 -0.06135103
    -0.00301767]
   ...
   [ 0.04552626  0.02198483  0.10699235 ...  0.054155   -0.02526317
    -0.0851502 ]
   [ 0.11164334  0.06774553 -0.07414184 ...  0.03126044  0.09085576
    -0.05917199]
   [-0.06526322  0.11043615 -0.00598927 ... -0.02042431  0.01875297
    -0.00681541]]]]
resnet_block_9/batch_normalization_24/gamma:0
(64,)
[1.1126932  0.8431298  0.9397072  0.7770824  0.85518056 0.98262537
 0.9286441  0.9061053  0.9717609  0.9356097  0.9282548  1.034562
 0.84840804 0.8615266  0.91906846 0.93263644 0.9211189  1.0614414
 1.0309808  0.95264125 0.9649367  0.8700483  0.96815395 0.891681
 1.0104584  0.9064536  1.0202029  0.8289058  0.941854   0.96660286
 0.9541268  0.80163765 0.8555893  0.920912   0.9696212  1.0600396
 0.8790998  1.0217113  0.79173386 0.8509269  0.89730567 0.97069067
 0.9380449  0.9610427  0.80825555 0.9693451  0.87699556 0.8555698
 0.9477187  0.9160547  0.9666561  1.0278468  0.8551935  0.8894303
 0.8391824  0.8757371  0.9633929  0.8833276  0.8341658  0.9681796
 0.94278854 0.89243096 0.99557793 0.91880924]
resnet_block_9/batch_normalization_24/beta:0
(64,)
[ 4.0202376e-02 -2.5973761e-02 -6.9251746e-02 -8.5211560e-02
  4.4006083e-02 -4.2563505e-02 -4.2183548e-03 -3.9447356e-02
 -2.2501469e-02 -8.4941033e-03  2.1366991e-02  1.2422299e-02
  3.5153206e-02 -6.9264665e-02 -1.0364702e-01  1.7141326e-01
 -9.3184881e-02 -7.2102390e-02  2.3159876e-02 -2.0154219e-02
 -3.1443954e-02 -7.7242158e-02 -6.6717595e-02  3.9202396e-02
  2.2236293e-02 -6.4029202e-02  5.6985915e-02 -8.9392021e-02
 -2.7276162e-02  1.2965605e-02 -6.9270030e-02 -5.5843670e-02
 -9.2690155e-02 -4.0205002e-02 -1.1984666e-02  7.8173876e-03
  2.3680100e-02 -4.4407781e-02 -6.5346777e-02 -1.0480154e-01
 -6.7776091e-05 -2.9396540e-02 -3.6175381e-02 -3.7903976e-02
 -6.5730907e-02 -1.1912351e-02 -6.4078481e-03 -1.1796069e-01
 -5.7730805e-02 -1.1362259e-02  6.5897979e-02  1.2899119e-01
  5.9045970e-02  8.9734979e-02 -8.7178417e-02 -3.4129191e-02
 -1.6362691e-01 -5.8513623e-02  7.4992359e-02 -2.6899336e-02
  6.0884502e-02  6.3073061e-02 -7.8896001e-02 -3.0263186e-02]
resnet_block_10/conv2d_25/kernel:0
(3, 3, 64, 128)
[[[[-6.77236244e-02 -1.35343730e-01 -8.84886310e-02 ...  7.05130817e-03
     4.00641598e-02 -2.14463919e-02]
   [-7.99817294e-02 -1.62906963e-02 -1.32598178e-02 ... -8.64124820e-02
     8.63850769e-03 -1.06314830e-01]
   [-2.54489928e-02 -5.53902378e-03 -8.44593719e-02 ... -9.71931778e-03
     2.89130565e-02 -2.48436574e-02]
   ...
   [ 1.03926584e-01  8.86542499e-02 -4.67632003e-02 ... -1.41577914e-01
    -4.88847569e-02  1.59092307e-01]
   [-1.20232468e-02 -4.82477397e-02  7.11175874e-02 ...  4.88499738e-02
    -3.68170664e-02 -7.51468586e-03]
   [ 3.67344320e-02  2.45738551e-02 -5.43822013e-02 ... -7.53495423e-03
     5.63939055e-03  4.47286442e-02]]

  [[-2.80330870e-02  4.32382859e-02 -7.61121288e-02 ... -3.13816890e-02
     1.19997770e-01 -4.66012657e-02]
   [ 4.57722601e-03  4.01119795e-03 -5.49384505e-02 ...  2.86625102e-02
     1.32266164e-03 -8.77295882e-02]
   [ 2.95112152e-02  7.77863637e-02 -3.89336608e-02 ...  2.96491161e-02
     2.34530121e-02  2.05641184e-02]
   ...
   [-6.93751201e-02 -1.19373180e-01 -1.17220171e-02 ... -2.51356773e-02
    -5.57798408e-02 -5.99030852e-02]
   [ 6.06097169e-02 -3.92368138e-02 -2.70497110e-02 ...  4.44123633e-02
     5.58116287e-03 -6.15829043e-02]
   [-8.45353827e-02 -6.79105446e-02  5.92483580e-02 ... -3.46334167e-02
    -1.37252241e-01 -6.81228787e-02]]

  [[ 1.30257398e-01  1.07219197e-01  1.25001460e-01 ... -2.11236507e-01
     1.13291852e-01 -2.61716545e-02]
   [ 5.19222282e-02 -1.56842507e-02 -1.05620138e-01 ... -6.97470531e-02
     2.06345040e-02 -5.64879104e-02]
   [-5.17020971e-02 -7.35219866e-02 -1.40869856e-01 ...  1.10635489e-01
    -8.86723772e-02  6.53150538e-03]
   ...
   [-1.36708781e-01 -1.05301529e-01 -2.01023999e-03 ...  2.50576586e-02
     1.38576105e-02 -1.35618061e-01]
   [ 6.75119311e-02 -2.13495642e-02  1.68150052e-01 ... -1.66030437e-01
     1.38027713e-01 -2.35946756e-02]
   [-1.39219733e-02 -1.58365201e-02  2.67426353e-02 ...  1.81562826e-02
    -8.25546980e-02 -4.52621207e-02]]]


 [[[-4.04239334e-02 -8.26093405e-02 -2.07050487e-01 ...  4.14635502e-02
     1.07460180e-02 -7.56720975e-02]
   [-7.60167688e-02 -8.56910795e-02 -5.31627201e-02 ... -3.12898532e-02
    -1.58396550e-02 -8.55469108e-02]
   [ 3.00084781e-02  1.13507444e-02 -4.16029319e-02 ... -7.69787356e-02
    -7.42336810e-02  1.80190001e-02]
   ...
   [ 1.14967199e-02  4.23760042e-02 -1.88098289e-02 ... -8.86376202e-02
    -1.15036711e-01  1.49164304e-01]
   [ 1.15722353e-02 -7.48613700e-02 -1.51592065e-02 ... -2.30243448e-02
    -1.29224986e-01 -2.90164649e-02]
   [ 4.55099605e-02  1.59094017e-02  2.41937512e-03 ... -8.54744576e-03
    -3.48105244e-02 -1.99079979e-02]]

  [[-6.64037187e-03  2.41507776e-02  3.42162848e-02 ...  1.04070101e-02
     3.20622623e-02  9.84578673e-03]
   [-4.10681814e-02 -5.22405617e-02 -2.67781951e-02 ...  3.81991342e-02
     8.44766721e-02 -1.49707338e-02]
   [-4.11073444e-03 -3.31974961e-02 -1.16038665e-01 ... -1.52048739e-02
    -2.05153171e-02 -7.55583867e-04]
   ...
   [-7.67443031e-02 -1.24957375e-01 -1.31297261e-01 ...  1.49853034e-02
     1.77097716e-03 -7.11220503e-02]
   [ 1.91311184e-02  5.66236489e-02 -7.30487853e-02 ...  1.48793664e-02
    -2.06565131e-02  1.96542535e-02]
   [-1.33836582e-01 -1.57261476e-01  4.85543758e-02 ...  4.68118005e-02
    -8.30468088e-02 -1.72606111e-01]]

  [[ 7.32382853e-03 -1.89162232e-02  1.19657844e-01 ... -1.78939745e-01
     8.78827125e-02 -2.42465455e-02]
   [-2.96733771e-02 -5.13801947e-02 -1.30953975e-02 ... -1.65815964e-01
    -2.28821374e-02  8.38971138e-03]
   [-3.80807300e-03  2.14457922e-02 -1.92458138e-01 ...  1.01220705e-01
    -9.57796648e-02 -1.27586797e-01]
   ...
   [-1.80514064e-02 -1.27564862e-01 -7.24811628e-02 ... -2.12527607e-02
     3.07956524e-02 -5.69949932e-02]
   [ 1.25009775e-01 -7.46629313e-02  1.82546169e-01 ... -1.59350723e-01
     7.51369968e-02 -1.40591050e-02]
   [ 1.91305056e-02 -6.55042976e-02  5.55807240e-02 ... -1.79541968e-02
    -9.42056403e-02 -2.85745412e-02]]]


 [[[-6.61893040e-02 -1.34822279e-01 -2.42174909e-01 ...  3.45058516e-02
     1.83460694e-02 -1.11060187e-01]
   [-6.07579499e-02 -5.39798886e-02 -5.33916131e-02 ...  6.38676062e-02
     5.41180000e-02 -1.04274154e-01]
   [-6.62746206e-02 -9.75579992e-02 -3.55828144e-02 ... -1.26320153e-01
     4.70142029e-02  1.57384463e-02]
   ...
   [ 1.74171589e-02  6.27761036e-02  1.79479439e-02 ...  6.29232451e-02
    -2.94850599e-02  6.36523888e-02]
   [-1.03550851e-01 -5.36189154e-02 -5.34752719e-02 ... -1.57557409e-02
    -1.01764658e-02 -8.71170312e-02]
   [-5.82391359e-02 -7.04940036e-02  1.50465261e-04 ... -5.33011891e-02
    -4.58955467e-02 -4.64616641e-02]]

  [[-5.40882573e-02 -1.37305751e-01  7.23761022e-02 ... -1.38803124e-01
     1.48758948e-01 -2.01538135e-03]
   [ 1.53442463e-02 -7.35009760e-02  2.85720482e-04 ... -4.66416627e-02
     1.07844658e-02 -7.81448111e-02]
   [-3.51098948e-04 -3.84685770e-02 -8.11426416e-02 ... -6.70802500e-03
    -5.63518563e-03 -4.87945303e-02]
   ...
   [-1.62427813e-01 -7.41933733e-02 -1.58705756e-01 ...  5.82972653e-02
    -5.52593209e-02 -9.22093391e-02]
   [-5.24959490e-02  1.66635830e-02 -1.04481969e-02 ... -8.44517499e-02
    -5.96715584e-02  8.29578489e-02]
   [-6.32499605e-02 -6.43773526e-02  2.29924265e-02 ... -1.39756370e-02
    -9.36321095e-02 -2.38006443e-01]]

  [[-7.71373212e-02  5.31404186e-03  1.61169633e-01 ... -2.28650540e-01
     9.17307585e-02 -9.57165584e-02]
   [-4.40730788e-02 -7.08940923e-02  1.09612495e-02 ... -3.61840203e-02
     1.09474681e-01 -1.31756485e-01]
   [-6.11559711e-02  4.38711111e-04 -7.46381506e-02 ...  5.79063557e-02
    -6.11161813e-02 -1.20737925e-01]
   ...
   [-8.96847993e-02 -2.19368696e-01 -6.69803098e-02 ... -8.11311156e-02
     4.25942764e-02 -6.78634271e-02]
   [ 2.98374072e-02 -1.48197293e-01  1.20647006e-01 ... -2.54412711e-01
     9.71109122e-02  1.47583196e-03]
   [-2.98991706e-02 -1.16445214e-01  3.03997658e-02 ... -1.09835051e-01
    -1.31475598e-01 -9.05728713e-02]]]]
resnet_block_10/batch_normalization_25/gamma:0
(128,)
[1.0838622  0.98359793 1.1267656  1.0653088  0.7974758  0.9635197
 1.0060734  1.0325974  0.9612091  0.98670596 1.0614288  1.0919818
 0.9388143  1.1724128  0.84156173 0.91413796 1.1238223  1.0093478
 0.9619234  0.9893713  0.9827982  1.0128589  1.1134262  0.82609254
 0.85771483 1.033383   0.850829   0.9308478  0.9440762  0.80266833
 1.0928864  1.0403937  1.125572   1.046824   1.0663637  1.0481386
 1.0399646  0.96069974 0.9996886  0.7708491  0.9446016  1.0530325
 0.79614973 1.1270515  0.8216723  1.0484571  0.9759385  0.9759728
 1.0343959  0.7724727  0.8346041  0.94406545 1.0120894  1.0175165
 0.83906347 1.0170324  1.0656365  0.9729433  1.0080627  1.0987053
 1.0062933  0.97688264 1.0487708  0.9179163  1.0115113  0.8273863
 1.0488175  1.0470177  1.0480411  0.92555046 0.9922036  0.7964
 1.1052005  0.9968879  0.85459644 1.2256161  1.0808904  1.095395
 1.0364058  0.97892576 0.84562886 0.8059142  1.018162   0.912555
 0.9765936  0.999564   1.169124   0.89499587 0.8483467  1.0230047
 1.0046657  0.9934951  1.0770414  1.0973945  1.1209599  1.0603881
 0.94898677 0.91213816 1.2690617  1.0258259  0.91435647 1.0300838
 1.128755   1.1186239  1.1249604  1.0570369  0.9660825  0.95309085
 1.0066226  0.9065452  0.79847187 0.97462636 0.96937877 0.91599166
 1.0617279  1.0000173  1.0926526  1.0149454  1.1719543  0.957229
 1.0021833  1.0586439  1.0403025  0.97614235 1.0409018  1.1651099
 1.0259453  1.1877832 ]
resnet_block_10/batch_normalization_25/beta:0
(128,)
[-0.03142097 -0.06368267 -0.08372454 -0.04531079 -0.1402169  -0.01516493
 -0.09320362 -0.04060741 -0.0643483  -0.04987744  0.01670233 -0.09032895
  0.00210308 -0.00300498 -0.13774504 -0.15445758 -0.01020277 -0.10742994
 -0.10929003 -0.03364748 -0.00909522  0.0014708  -0.09692    -0.14230555
 -0.14980884 -0.10985558 -0.12229428  0.02652624 -0.2423869  -0.165121
 -0.0966313  -0.08284786 -0.08585253 -0.00035881 -0.11090189 -0.05529188
  0.00419687 -0.07709195 -0.13818003 -0.15808083 -0.04262802 -0.08589635
 -0.10155065 -0.0508303  -0.13362694 -0.06194691 -0.11202057 -0.01777359
 -0.06297656 -0.12903796 -0.11141564 -0.11341778 -0.0732477  -0.11293918
 -0.11068922 -0.08557577 -0.10125123 -0.06667829 -0.05937036 -0.03061537
 -0.13642454 -0.02321079 -0.08855041 -0.19893003 -0.12691283 -0.11613438
 -0.04570082 -0.0980479  -0.03296604 -0.14432077 -0.08401696 -0.15348496
 -0.06460551 -0.04345765 -0.13276708  0.013767   -0.03210266 -0.08672074
 -0.07134786 -0.08451986 -0.09629372 -0.12878793 -0.08126149 -0.070342
 -0.17286599 -0.06808522 -0.0783532  -0.21247351 -0.09892285 -0.06393525
 -0.0795046  -0.1395962  -0.03439795 -0.05678091 -0.01065228  0.02830915
 -0.11058366 -0.1425314  -0.01601963 -0.03955509 -0.03481162 -0.07700344
 -0.08353115 -0.03337232 -0.08234726 -0.05545504 -0.07497756 -0.05953811
 -0.10690001 -0.10387657 -0.10559576  0.00519634 -0.16873081 -0.15326975
 -0.06947268 -0.016798   -0.09840039 -0.06976902 -0.00781705 -0.15441082
  0.01871577 -0.06168763 -0.12172119 -0.13260509 -0.09609834  0.01953313
 -0.06407578  0.01516267]
resnet_block_10/conv2d_26/kernel:0
(3, 3, 128, 128)
[[[[-0.04509909 -0.13469143  0.10644116 ...  0.04937383 -0.06161818
     0.01992811]
   [-0.00673005 -0.06135136  0.08849123 ...  0.0023828  -0.05602994
    -0.02257145]
   [-0.06112571 -0.1242901  -0.03681925 ... -0.01614834 -0.02576565
     0.08736104]
   ...
   [ 0.15378872  0.2086356  -0.02683064 ... -0.09959538 -0.13326408
    -0.0835656 ]
   [-0.16018808 -0.06115025 -0.04753901 ...  0.05644803 -0.037783
    -0.01479413]
   [-0.07734612 -0.09273784  0.02082533 ...  0.02121639 -0.07656797
     0.02140134]]

  [[ 0.03351065  0.09968238 -0.06352125 ... -0.14598277 -0.07688706
    -0.08643218]
   [ 0.10147619  0.0987334  -0.08127117 ...  0.01179051 -0.10606147
     0.06277233]
   [ 0.08658301  0.05529812  0.10306218 ...  0.15852912 -0.05070986
    -0.06441114]
   ...
   [-0.21924482 -0.13747174 -0.03052484 ...  0.03186797 -0.01034652
     0.00661382]
   [ 0.07740074 -0.01047214  0.06468693 ...  0.00300188 -0.10494179
     0.0737647 ]
   [ 0.09681755  0.0611573  -0.09182552 ... -0.02692782 -0.04443108
    -0.09812742]]

  [[-0.10591935 -0.10875843 -0.10331351 ... -0.01207036 -0.05986295
    -0.05928713]
   [-0.04244627 -0.04775991 -0.04367901 ... -0.01086958  0.00305622
    -0.07996622]
   [ 0.03597222  0.05742619  0.01891335 ... -0.05766072 -0.13938206
    -0.2869575 ]
   ...
   [ 0.0297786  -0.19073947  0.12577853 ...  0.05617391 -0.13774443
     0.02793327]
   [ 0.08474192  0.03971441 -0.00234527 ...  0.13946268 -0.05069048
    -0.14576031]
   [-0.02372636 -0.01349828 -0.13891001 ...  0.0219841  -0.04624093
    -0.01221416]]]


 [[[-0.00855651 -0.06953223  0.03673368 ...  0.13342345  0.03217858
    -0.04368225]
   [-0.00563021 -0.07143022  0.0392767  ...  0.04519568  0.05693548
     0.0203111 ]
   [-0.02181265  0.00593196  0.02029321 ... -0.0416619  -0.07827073
     0.04110968]
   ...
   [ 0.03865403  0.06541815  0.07674743 ... -0.11152703 -0.06413484
    -0.04703913]
   [-0.03875944  0.04678876 -0.05040815 ... -0.00933382 -0.10520039
     0.06156096]
   [ 0.00687847 -0.06679337  0.05203355 ...  0.05468135  0.10870855
    -0.00134501]]

  [[ 0.07215058 -0.00932602  0.0194837  ... -0.03024027 -0.09223267
    -0.12413159]
   [ 0.07733693  0.02901001  0.00813724 ... -0.04898037 -0.02888939
    -0.02821727]
   [-0.05155827 -0.07341606  0.0632978  ...  0.1028775   0.03289606
    -0.08870514]
   ...
   [-0.07023488 -0.05535361 -0.00852346 ...  0.0170194  -0.09356381
    -0.07293113]
   [ 0.01602274 -0.01910414  0.00125461 ... -0.02363998  0.02685434
    -0.07525143]
   [ 0.08461545  0.0431898   0.00833726 ... -0.02128764  0.05463661
    -0.16206095]]

  [[-0.03321144 -0.05188227 -0.07957368 ... -0.08156171 -0.01565499
     0.01558907]
   [ 0.02627959 -0.03621827  0.00807245 ... -0.05862693  0.00607771
     0.01803873]
   [ 0.10287119  0.10251048 -0.01581332 ...  0.02805373 -0.04627175
    -0.23432235]
   ...
   [-0.10689241 -0.16118796  0.04626862 ...  0.07226411  0.07488077
    -0.01828432]
   [ 0.11055584  0.07229262  0.08556842 ...  0.1236039   0.12226231
    -0.12296636]
   [-0.07186185  0.03014573 -0.06684047 ... -0.0660146  -0.07576343
    -0.0116539 ]]]


 [[[ 0.06790425 -0.0432912   0.00357283 ...  0.00612398  0.09845866
    -0.01647463]
   [ 0.15065467  0.0651367   0.07350215 ... -0.07307128  0.00326682
     0.03047031]
   [-0.06519853 -0.0915624  -0.12159344 ...  0.00763313 -0.2035132
    -0.00081812]
   ...
   [ 0.00173551  0.00129702  0.03095724 ...  0.02239188 -0.01766346
     0.00939274]
   [-0.02255644  0.05783789 -0.02011945 ... -0.03626554 -0.1248054
     0.00554051]
   [ 0.04952176 -0.08780183  0.0254369  ... -0.02406422  0.1511631
    -0.01391192]]

  [[-0.01607305 -0.044716    0.11538096 ...  0.07203028  0.06370746
    -0.09359303]
   [ 0.10328069  0.05104688  0.17281273 ...  0.03543945  0.0660314
    -0.04994426]
   [-0.13209651 -0.25047672  0.13038833 ... -0.04280221  0.18207549
    -0.07221626]
   ...
   [-0.10847455 -0.19585267 -0.08029126 ... -0.15898974 -0.33752796
     0.01066252]
   [-0.0565411  -0.077622   -0.02452519 ... -0.08985025  0.13321097
    -0.0952241 ]
   [ 0.00827419 -0.00052747  0.08887213 ...  0.0660579   0.01302504
    -0.15609778]]

  [[-0.06787303 -0.18109025 -0.09675038 ... -0.13345888  0.00043776
    -0.03654733]
   [-0.00144143 -0.01843411  0.03795607 ...  0.02220948 -0.05011161
    -0.05388295]
   [-0.00869141  0.02410173  0.00114323 ...  0.1087907   0.00871283
    -0.21465892]
   ...
   [-0.22837631 -0.20247008  0.03996061 ... -0.01304401  0.03593026
    -0.029443  ]
   [ 0.06955428 -0.00596726  0.11056937 ...  0.10612524  0.05091106
    -0.17373948]
   [-0.02620657 -0.05156001 -0.21735708 ... -0.11290279 -0.04886298
     0.05123092]]]]
resnet_block_10/batch_normalization_26/gamma:0
(128,)
[1.0408088  1.0106169  0.94635415 1.0349586  0.9089475  1.042292
 1.1241446  1.0285581  1.0139838  1.0198759  0.99755174 1.0864106
 1.0899874  1.0333811  0.92847365 1.0403497  0.927354   0.9997482
 0.9135168  0.99297434 0.9709542  1.0469795  1.1093268  0.97928023
 0.97740424 0.96222794 1.0004821  0.9911656  1.0719401  0.94171655
 0.9213895  1.0355318  0.9594754  0.9687781  0.91809994 1.0363728
 1.114734   1.0759478  1.0822033  1.0024077  1.0237253  1.0121175
 1.0301787  1.0048748  1.0125121  1.1192255  0.9726316  0.9775269
 0.9860097  0.9569988  1.0469375  1.0531135  1.0197062  0.94895214
 1.0283145  1.1071392  1.061589   1.0712329  0.98492604 0.96372765
 0.9385432  1.09728    1.0230601  0.9428782  0.9499024  1.0097417
 0.8625691  0.9063203  1.010354   1.1185328  0.976648   0.86972827
 1.2189755  1.0193087  1.136141   0.9635224  1.0386984  1.106617
 1.0032816  1.0246919  1.0061029  0.96592706 0.94551235 1.0341939
 1.0536016  1.0049247  0.9003344  0.94160205 0.9938418  0.84505373
 1.1005722  1.0558578  0.9340194  1.0979842  1.0425268  1.077377
 0.90692025 1.0489787  1.1269013  1.0072721  1.0503415  0.98847127
 0.9020171  1.107679   0.84198403 1.1033441  1.0319791  1.0809957
 0.9983672  1.2262332  1.0896991  0.99903315 1.0569669  0.9734601
 0.92467386 1.0457308  0.9391046  0.9824858  0.8973362  1.0057844
 0.8816243  0.9183909  1.0853515  1.0553052  0.9429852  1.0565755
 1.0127174  0.92552936]
resnet_block_10/batch_normalization_26/beta:0
(128,)
[-0.06193637  0.00799129 -0.1212668  -0.05913663 -0.06770068 -0.00956487
 -0.05799957 -0.04857215 -0.02991595 -0.1034722  -0.1459127  -0.13561535
 -0.01345257 -0.04792963 -0.07882172 -0.16131632 -0.07601269 -0.01399785
 -0.08407425 -0.12461956 -0.10617209 -0.08108339 -0.04521255 -0.12928803
  0.00077757  0.00423901 -0.08389327 -0.04060859  0.02347002 -0.08731976
 -0.06811648 -0.00419723 -0.08503733 -0.11340649 -0.0480699  -0.16086021
 -0.10199299 -0.17498003 -0.03699348 -0.04085479 -0.09081255 -0.09502212
 -0.03656808 -0.08902418 -0.11867994 -0.07751121 -0.06229296 -0.07636534
 -0.07475238 -0.0837939  -0.01428278 -0.08119847  0.01083769 -0.09552164
 -0.07161214 -0.05638264  0.03070195 -0.14528242 -0.10988525 -0.06162949
 -0.05935927 -0.16427004 -0.0641508  -0.07427884 -0.00465338 -0.01715909
 -0.0760986  -0.07353695 -0.01346423 -0.04184853 -0.05612731 -0.06939143
 -0.09625015 -0.02369975 -0.04408794 -0.02550399 -0.12323032 -0.01092152
 -0.03299994  0.04160845 -0.04968167 -0.07141192 -0.14000513 -0.06455504
 -0.07181013  0.02458259 -0.10359331 -0.05437386 -0.06133934 -0.10213039
 -0.06441526 -0.01914918 -0.16579583 -0.00466383 -0.02172925 -0.05202319
 -0.06021057 -0.03481576 -0.07509883 -0.00177353 -0.01937512  0.01520082
 -0.01221377 -0.03765444 -0.09867152 -0.08088002 -0.05517391 -0.07389088
  0.00664745  0.01981729 -0.09383994 -0.02127849  0.02371297 -0.00627143
 -0.14869331 -0.0012761  -0.13798071 -0.02567259 -0.03320213 -0.00313129
 -0.08924283 -0.08251335 -0.01183775 -0.06249779 -0.10309792 -0.06345762
 -0.05426589 -0.09284781]
resnet_block_10/conv2d_27/kernel:0
(1, 1, 64, 128)
[[[[-0.19814207  0.02824727 -0.118637   ... -0.17121002  0.1816816
    -0.05730826]
   [ 0.09183992 -0.02919651 -0.18645921 ... -0.15995954 -0.0822814
    -0.09626879]
   [-0.00424223  0.10754674  0.15386587 ...  0.03671847  0.12386659
    -0.10694214]
   ...
   [-0.09820236  0.17588997  0.07173789 ...  0.03633655  0.10980011
     0.08336066]
   [-0.23030257 -0.18423635  0.03772845 ... -0.09196146  0.02813112
    -0.15069617]
   [ 0.1453719  -0.08492967  0.09080493 ...  0.003301    0.07665865
     0.03143565]]]]
resnet_block_10/batch_normalization_27/gamma:0
(128,)
[0.99111277 0.95436776 0.9027445  0.93902314 0.9300411  1.0898238
 1.0894692  1.0039272  0.976933   0.94289184 0.986477   0.9863439
 1.1087818  1.0540782  1.0496813  0.90311223 0.8958024  1.1290138
 0.9551474  0.941224   1.0063195  0.97411925 0.9916378  0.93322664
 0.96640986 1.0084351  0.93545973 1.0175791  0.96214634 1.0069573
 0.9449699  1.0858706  1.019173   1.0003937  1.0061967  0.99998116
 0.9962231  0.8862985  1.2071197  1.0664723  0.93307227 0.9997026
 1.0173619  0.9647312  1.0737789  0.94493574 0.9811772  1.0585637
 1.0804943  1.0694331  0.9724469  0.9656582  1.0287579  1.0420877
 0.9261569  0.9609565  0.9263064  0.99990064 0.90920293 0.9787555
 0.9910819  0.91937184 1.0460641  1.0436225  1.1224974  0.96897656
 0.9818121  0.99195015 1.0476204  0.9104133  1.0058134  0.9606215
 1.0811411  0.96256065 1.0169567  1.112905   0.96473044 0.96933734
 0.99807453 1.0180297  0.9578705  1.0788298  0.90026885 0.9564173
 1.0102547  1.031126   0.9717334  0.92234164 1.0231526  0.91582596
 0.9410241  1.0782951  0.8851505  1.0639889  1.0126029  1.0177838
 0.9631797  1.057921   1.0291524  0.8981118  0.98416656 0.9414963
 1.0070343  0.9849847  0.89169496 0.89399284 0.9728009  0.97503924
 0.95417035 0.9387491  0.96210676 1.0649648  0.9027698  1.0557301
 1.0219043  0.97015345 0.9766784  0.9799644  0.97976506 1.028607
 0.97125655 0.9744319  1.0514956  0.9908847  1.0467429  0.95816875
 0.9444152  0.90613455]
resnet_block_10/batch_normalization_27/beta:0
(128,)
[-0.06193637  0.00799129 -0.1212668  -0.05913663 -0.06770068 -0.00956487
 -0.05799957 -0.04857215 -0.02991595 -0.1034722  -0.1459127  -0.13561535
 -0.01345257 -0.04792963 -0.07882172 -0.16131632 -0.07601269 -0.01399785
 -0.08407425 -0.12461956 -0.10617209 -0.08108339 -0.04521255 -0.12928803
  0.00077757  0.00423901 -0.08389327 -0.04060859  0.02347002 -0.08731976
 -0.06811648 -0.00419723 -0.08503733 -0.11340649 -0.0480699  -0.16086021
 -0.10199299 -0.17498003 -0.03699348 -0.04085479 -0.09081255 -0.09502212
 -0.03656808 -0.08902418 -0.11867994 -0.07751121 -0.06229296 -0.07636534
 -0.07475238 -0.0837939  -0.01428278 -0.08119847  0.01083769 -0.09552164
 -0.07161214 -0.05638264  0.03070195 -0.14528242 -0.10988525 -0.06162949
 -0.05935927 -0.16427004 -0.0641508  -0.07427884 -0.00465338 -0.01715909
 -0.0760986  -0.07353695 -0.01346423 -0.04184853 -0.05612731 -0.06939143
 -0.09625015 -0.02369975 -0.04408794 -0.02550399 -0.12323032 -0.01092152
 -0.03299994  0.04160845 -0.04968167 -0.07141192 -0.14000513 -0.06455504
 -0.07181013  0.02458259 -0.10359331 -0.05437386 -0.06133934 -0.10213039
 -0.06441526 -0.01914918 -0.16579583 -0.00466383 -0.02172925 -0.05202319
 -0.06021057 -0.03481576 -0.07509883 -0.00177353 -0.01937512  0.01520082
 -0.01221377 -0.03765444 -0.09867152 -0.08088002 -0.05517391 -0.07389088
  0.00664745  0.01981729 -0.09383994 -0.02127849  0.02371297 -0.00627143
 -0.14869331 -0.0012761  -0.13798071 -0.02567259 -0.03320213 -0.00313129
 -0.08924283 -0.08251335 -0.01183775 -0.06249779 -0.10309792 -0.06345762
 -0.05426589 -0.09284781]
resnet_block_11/conv2d_28/kernel:0
(3, 3, 128, 128)
[[[[ 8.97655543e-03 -2.84775309e-02 -7.40384310e-02 ... -2.21860260e-01
     2.76309531e-02 -8.06728564e-03]
   [ 4.78154942e-02 -1.90491769e-02 -1.86761945e-01 ... -3.06033403e-01
    -7.34542310e-02 -3.85969020e-02]
   [-4.50367294e-03 -1.55982137e-01  5.43084741e-03 ...  6.66752383e-02
    -8.22073594e-02 -8.87946039e-02]
   ...
   [-1.21664703e-02 -5.16204163e-02  3.35473828e-02 ...  1.48555085e-01
    -2.73365416e-02 -1.13218660e-02]
   [-3.18419561e-02 -4.24753502e-02 -4.68536764e-02 ... -6.56515658e-02
    -3.01264152e-02 -1.77004427e-01]
   [ 1.03205547e-01  2.31762696e-02  4.31039333e-02 ...  8.28510597e-02
    -1.10638157e-01  5.43792583e-02]]

  [[ 2.42487174e-02  3.06523386e-02  1.02288872e-01 ...  9.24765095e-02
     2.10407227e-02  4.18920675e-03]
   [ 1.96327679e-02 -9.15734470e-02  1.07909717e-01 ...  5.02618104e-02
    -4.94492650e-02  2.56449115e-02]
   [ 4.43440676e-02 -3.15043032e-02 -1.00237429e-01 ... -6.03785627e-02
    -5.86900823e-02 -4.85342667e-02]
   ...
   [ 9.67562273e-02 -7.25922659e-02 -2.08891053e-02 ... -1.57238469e-01
     3.31693329e-02 -1.84581026e-01]
   [-1.18864469e-01  6.93339929e-02 -1.06154189e-01 ... -1.54281586e-01
    -1.37210218e-02 -8.28973725e-02]
   [ 8.94857496e-02 -1.45417750e-01  1.15896612e-02 ...  5.49542531e-02
    -5.75831346e-02 -7.72972545e-03]]

  [[-8.89712758e-03  3.48383724e-03  2.38241240e-01 ...  1.72326222e-01
    -4.85792086e-02 -5.68571761e-02]
   [ 2.15370748e-02 -6.23757672e-03  1.15825064e-01 ...  1.71853118e-02
    -1.11305080e-01 -1.14996359e-02]
   [ 1.27619375e-02 -6.47361800e-02  4.03690673e-02 ...  5.65213002e-02
    -2.52549369e-02  1.05900727e-02]
   ...
   [ 6.28470108e-02 -4.78423424e-02  3.86892399e-03 ...  1.17520347e-01
     3.75028327e-02  2.41849069e-02]
   [-1.31802097e-01  8.94861668e-03  1.27930760e-01 ...  8.74056444e-02
     4.99222577e-02 -1.29236402e-02]
   [ 1.34435728e-01  5.24808129e-04 -1.23682827e-01 ... -4.96826880e-02
    -5.29324077e-02  5.10188565e-02]]]


 [[[-4.87725511e-02 -1.83537137e-03 -1.89579710e-01 ... -2.39543617e-01
    -5.82933286e-03  1.34872096e-02]
   [-8.58934876e-03 -3.62409428e-02 -1.91354483e-01 ... -2.35494912e-01
    -8.05362687e-03  4.38289158e-03]
   [-4.30749170e-03 -1.01810783e-01 -3.68657149e-02 ...  4.45565954e-02
    -7.73042962e-02 -9.55435187e-02]
   ...
   [-1.11879501e-02  3.98326106e-03  3.49375606e-02 ...  1.39594644e-01
     5.97187653e-02  3.42553854e-02]
   [-7.50842914e-02 -6.98785670e-03  4.76915464e-02 ... -5.52343950e-03
     1.66168809e-02 -1.33162528e-01]
   [ 5.90073988e-02 -2.21240930e-02  6.68523088e-03 ...  9.24171656e-02
    -2.65808944e-02  4.91016209e-02]]

  [[ 1.16060758e-02 -4.68722694e-02  3.74637209e-02 ...  4.71067689e-02
     3.50713357e-02 -1.26820791e-03]
   [ 7.93794636e-03 -5.37885651e-02  3.13910916e-02 ... -4.36222740e-03
     2.49198917e-02  4.78110835e-02]
   [ 1.94906946e-02 -5.15525714e-02 -3.48704718e-02 ...  6.16642972e-03
    -7.17122182e-02  1.28496103e-02]
   ...
   [-1.86643284e-02 -3.23359147e-02 -6.12868667e-02 ... -1.46270439e-01
     8.65662750e-03 -8.15727636e-02]
   [-5.10752248e-03  1.44634275e-02 -4.63156737e-02 ... -1.00000560e-01
    -3.32948789e-02 -1.03467658e-01]
   [ 8.02351385e-02 -1.52213275e-02  1.48369744e-01 ...  8.87594745e-02
    -1.18849695e-01 -8.20851997e-02]]

  [[-2.29666024e-04 -1.45532154e-02  1.19984955e-01 ... -4.25377525e-02
    -5.98939173e-02  5.91836832e-02]
   [ 6.02813438e-02 -4.13732342e-02  6.00396954e-02 ... -1.16854273e-01
    -2.93882261e-03  8.28789175e-02]
   [-3.48525159e-02 -8.29586387e-02  4.80839424e-02 ...  8.37975442e-02
    -1.60612632e-02 -4.54080552e-02]
   ...
   [-4.90621850e-03  3.08833327e-02  1.17289171e-01 ...  1.77253872e-01
     7.39021413e-03 -9.30748954e-02]
   [-6.93359375e-02  1.67338550e-02 -1.08193224e-02 ...  2.65705641e-02
     4.23408970e-02 -9.52222012e-03]
   [ 9.41349417e-02  1.11250561e-02 -1.22011386e-01 ...  8.87444243e-03
    -4.05859649e-02 -4.24823128e-02]]]


 [[[-4.81304675e-02 -1.02919668e-01 -3.94062661e-02 ... -4.91503477e-02
    -6.42252341e-02 -1.92645669e-01]
   [ 3.69259901e-02 -4.58499789e-02 -1.48025706e-01 ... -1.96679562e-01
    -1.53210759e-02 -2.91707758e-02]
   [-4.17895652e-02 -6.07762747e-02 -6.74834922e-02 ... -2.00323183e-02
    -1.41388640e-01  2.25736406e-02]
   ...
   [-8.89773220e-02 -1.67583339e-02 -3.75545137e-02 ... -8.49966258e-02
     4.33456935e-02  2.22861528e-01]
   [-4.58222777e-02  2.71671861e-02 -3.51727232e-02 ... -4.86080311e-02
     8.02100450e-03 -8.77044946e-02]
   [ 9.03148428e-02  5.31028397e-02 -4.01838161e-02 ... -8.02580863e-02
     2.54243016e-02  7.12474361e-02]]

  [[-2.32205968e-02 -6.50858432e-02  1.49138430e-02 ...  7.83708040e-03
     7.00134365e-03  5.98308109e-02]
   [ 6.38115257e-02  2.59786602e-02 -1.12495787e-01 ... -6.51281923e-02
    -2.42289472e-02  9.89430249e-02]
   [ 5.99079877e-02 -5.82123809e-02  5.28699234e-02 ... -8.64003319e-03
    -1.07960075e-01 -1.95151698e-02]
   ...
   [-5.22241509e-03 -1.21295070e-02 -4.28681225e-02 ...  1.49594080e-02
     7.14854077e-02 -5.45570888e-02]
   [ 1.67857073e-02  3.13915759e-02  1.01725884e-01 ...  7.73133431e-03
    -1.62016917e-02 -9.40782204e-02]
   [ 1.37514710e-01 -5.33217378e-02 -2.06528362e-02 ... -4.80553731e-02
    -8.40368494e-03  5.29929213e-02]]

  [[ 4.69893441e-02 -1.10570351e-02  9.64802206e-02 ...  1.95966586e-02
    -2.89419247e-03  1.27820849e-01]
   [ 7.66475275e-02 -1.71471350e-02 -1.69969425e-02 ... -1.61347017e-01
     1.94163322e-02  1.82087034e-01]
   [ 5.08368686e-02 -4.85130176e-02  2.75412202e-02 ...  1.91561580e-02
    -3.39957252e-02 -6.20029457e-02]
   ...
   [-8.90193805e-02  3.35195498e-03 -7.46069942e-03 ... -1.99343543e-02
     9.77464020e-02  1.06729604e-01]
   [-3.15480977e-02  8.07725731e-03  1.42882168e-02 ... -5.54762557e-02
     1.66944806e-02  1.38984725e-01]
   [ 8.23930651e-02  8.50008130e-02 -2.67872922e-02 ...  5.62561527e-02
     2.92927232e-02 -4.99667525e-02]]]]
resnet_block_11/batch_normalization_28/gamma:0
(128,)
[0.90610045 0.85198396 1.0650674  1.0603328  0.8872296  1.131516
 0.94253445 1.1391926  0.9633517  1.1703019  1.0115191  1.1023496
 1.0324532  1.132669   1.0359364  1.1305221  0.8382133  0.9294713
 1.0303731  1.0530916  0.8543614  0.89076185 1.0336181  1.0931025
 0.95110786 0.85143137 0.913672   1.1426978  1.006158   1.1493437
 1.0979564  0.96470636 0.8628824  1.2194577  1.1000566  1.0281329
 1.164766   1.0040722  1.1063915  0.96635866 1.0713595  1.1385862
 1.1658043  1.1206818  1.0698396  0.8966914  0.7939133  1.0994483
 1.0500171  0.7901674  1.0321462  1.0805705  0.8834756  1.0902114
 0.8525519  1.103071   1.0261577  1.1580813  0.7006137  1.1116145
 0.95667136 0.8788803  1.0124564  0.9126026  1.0907586  0.9627201
 1.176167   1.1457195  1.1725558  0.8981151  1.0705533  1.0941775
 0.93724096 0.9759008  0.8946956  1.1064239  0.8736998  0.95508766
 0.9559594  0.87365365 1.1022815  1.2747275  0.9314192  1.0586488
 1.190632   1.0126387  1.0001534  0.9752615  1.1645505  0.8624847
 1.0102658  0.9318607  1.0981047  1.066895   1.0482157  1.010354
 1.0306981  1.0704072  0.9323278  1.0019062  1.1279128  1.1480099
 0.919727   0.804129   1.1504171  1.0882282  1.2431294  0.96468425
 1.0914518  1.1335641  1.0998598  0.8330692  1.1399233  0.86511266
 1.1620167  1.1070065  1.0460604  0.9822771  1.0414058  0.7965535
 1.0018411  1.0271771  0.8807346  0.9397736  0.9299346  1.0689315
 0.92920905 0.9910654 ]
resnet_block_11/batch_normalization_28/beta:0
(128,)
[-0.11804912 -0.13192832 -0.0644083  -0.07578032 -0.16413745 -0.06328843
 -0.09052289 -0.0954798  -0.14602646 -0.04140394 -0.0005404   0.01081924
 -0.08921707  0.00455775 -0.02228546 -0.04640538 -0.09379525 -0.17287889
 -0.06012256 -0.09793518 -0.12044242 -0.09260133 -0.03265528 -0.08984045
 -0.07000485 -0.14554885 -0.1151395  -0.02131192 -0.10903771 -0.04555641
 -0.09227877 -0.10614418 -0.06222217 -0.03526233 -0.080855   -0.03887129
 -0.03842038 -0.0386477  -0.02664197 -0.09791427 -0.02280834 -0.03385356
  0.05431673 -0.09776801  0.00596837 -0.1533378  -0.24060862 -0.04474618
 -0.02379877 -0.1257125   0.01533895 -0.03444788 -0.13576293 -0.04762342
 -0.12191658 -0.00201246 -0.02120266 -0.06363674 -0.24322197 -0.09760582
 -0.07895199 -0.15277639 -0.03031997 -0.06554089 -0.05395181 -0.09904761
 -0.0329638  -0.02163217  0.00950389 -0.09783705 -0.04339909 -0.07636765
 -0.15119317 -0.12371158 -0.10320694 -0.03334723 -0.07947866 -0.12158379
 -0.06967481 -0.09057236 -0.0256077   0.01794666 -0.14108448 -0.07897647
  0.01261694 -0.04209948 -0.11927965 -0.12863337  0.01733037 -0.1126475
 -0.06243602 -0.07568817 -0.01295706 -0.03928927 -0.08353618 -0.11510846
 -0.07644027 -0.02873902 -0.09162155 -0.10617425 -0.08997972 -0.01502481
 -0.05455924 -0.11847973  0.00336947 -0.06457659 -0.05613971 -0.11933964
 -0.04458439 -0.13841607 -0.05371211 -0.14664428 -0.00435385 -0.14535202
 -0.01301695 -0.0242385  -0.06732535 -0.09648763 -0.05162689 -0.09854873
 -0.13891667 -0.05445106 -0.115575   -0.07521508 -0.10435259 -0.03133108
 -0.09261117 -0.14872481]
resnet_block_11/conv2d_29/kernel:0
(3, 3, 128, 128)
[[[[ 2.24263780e-02  2.60647144e-02  4.78576578e-04 ... -4.22654971e-02
     1.83372926e-02 -5.28025404e-02]
   [ 4.52034846e-02 -5.21000363e-02  5.37276231e-02 ... -1.01593407e-02
     8.79895017e-02 -1.01263441e-01]
   [-1.02823065e-03  7.25551769e-02 -8.48346949e-02 ... -4.50858884e-02
    -8.06675404e-02 -3.34381238e-02]
   ...
   [ 1.48982657e-02  2.09491193e-01 -1.33564606e-01 ...  8.78290832e-03
    -6.05804548e-02 -3.14179175e-02]
   [ 6.06937297e-02  1.07195713e-02 -9.40591656e-03 ... -1.11681418e-02
     1.21962294e-01 -5.01324497e-02]
   [ 1.59787312e-01  1.51214227e-01  5.13229296e-02 ...  2.87687425e-02
     2.26452395e-01 -1.29400298e-01]]

  [[-5.54582512e-04 -1.87079329e-02  1.96643709e-03 ... -1.00010589e-01
    -2.80045345e-02 -1.02894772e-02]
   [ 5.97672649e-02 -5.52975424e-02  1.61795330e-03 ... -1.54468473e-02
     3.06451619e-02  1.67366341e-02]
   [ 1.82718523e-02  6.33528968e-03  2.55069658e-02 ...  7.51625970e-02
    -3.76562364e-02 -7.82941207e-02]
   ...
   [-2.50847880e-02 -8.88416171e-02 -1.68016832e-02 ... -3.04175615e-02
    -7.22914413e-02 -7.20555857e-02]
   [ 4.14346904e-02 -6.29667938e-02 -2.05095597e-02 ... -4.43676636e-02
     1.00140713e-01  1.95867196e-03]
   [ 4.79020849e-02  6.29045651e-04  5.34731261e-02 ...  1.71726830e-02
     7.77243376e-02  2.00015977e-02]]

  [[-1.30390618e-02  3.86749059e-02 -2.72215325e-02 ... -1.10887475e-01
     6.24715723e-02 -4.13536169e-02]
   [-9.25485194e-02 -7.23283291e-02 -4.50994447e-03 ... -2.25864705e-02
     3.62107344e-02 -8.26078802e-02]
   [-4.81847599e-02 -7.01514110e-02  1.39354607e-02 ...  1.75324120e-02
    -1.19620159e-01  8.10793415e-02]
   ...
   [ 7.35092163e-02  3.57233807e-02 -9.09326412e-03 ...  1.63869299e-02
    -7.43732750e-02  7.61123374e-02]
   [-1.35378179e-03 -5.68995699e-02  1.95089020e-02 ... -1.01700529e-01
     3.51234004e-02 -3.74117196e-02]
   [ 6.83517903e-02  2.18160339e-02  1.11261405e-01 ...  8.19361731e-02
     8.52878839e-02  6.20004237e-02]]]


 [[[ 5.75050861e-02  1.77854951e-02  3.06415688e-02 ... -2.65960470e-02
    -2.03753561e-02 -5.96211553e-02]
   [ 3.56417708e-02 -3.39501873e-02 -3.50732021e-02 ...  3.56655642e-02
     9.02086198e-02 -2.16319840e-02]
   [-3.74948159e-02  7.17051700e-02 -4.28356268e-02 ... -1.07326262e-01
     5.18177496e-03 -9.51242149e-02]
   ...
   [-3.17168608e-03  1.00124344e-01 -4.87286113e-02 ... -9.30850878e-02
     8.62292480e-03 -1.01274468e-01]
   [-7.54455104e-03 -2.84487661e-02 -7.23744035e-02 ...  5.83554022e-02
     5.45239076e-02 -2.02969667e-02]
   [ 6.21718206e-02  6.82433993e-02  4.41437922e-02 ... -1.51006952e-01
     1.09093469e-02 -9.10750553e-02]]

  [[-1.18392205e-03  1.53332837e-02 -1.51264053e-02 ... -2.58620316e-03
    -5.19514047e-02 -2.69498359e-02]
   [ 1.94243658e-02 -1.02715850e-01  3.87471780e-04 ... -1.29088005e-02
     8.46169963e-02  3.55281793e-02]
   [ 9.77138616e-03  3.95198613e-02  5.58859929e-02 ... -2.51731426e-02
    -2.31696460e-02 -1.53547272e-01]
   ...
   [ 5.60467429e-02 -6.41046986e-02  7.96529464e-03 ... -2.53588594e-02
     3.12367566e-02 -2.52715200e-01]
   [ 3.56468521e-02 -7.46052153e-03 -8.56225565e-02 ... -4.87145185e-02
    -1.95053909e-02  4.04985771e-02]
   [-3.72171192e-03 -3.68738957e-02  2.66388711e-02 ...  1.76239777e-02
    -3.93004939e-02 -2.90642381e-02]]

  [[-1.70263473e-03  3.79290543e-02  1.74936540e-02 ... -5.60699366e-02
     5.15529625e-02  1.35667380e-02]
   [-7.55780488e-02  2.49620844e-02 -4.18174788e-02 ... -5.37481979e-02
     2.60922872e-02  4.76106443e-02]
   [ 3.45156007e-02 -1.01517208e-01 -6.50539622e-02 ... -5.95695339e-02
     3.49296331e-02  9.94226038e-02]
   ...
   [ 4.14265729e-02  2.01862678e-02 -6.56046122e-02 ... -4.23155837e-02
     3.77461798e-02  5.13957553e-02]
   [-4.47913595e-02 -3.35187577e-02 -1.93069130e-02 ... -1.54824466e-01
    -4.56828587e-02  2.57301759e-02]
   [ 4.28588949e-02  1.34437662e-02  3.20392638e-03 ...  2.70098429e-02
    -2.85565034e-02  1.64148323e-02]]]


 [[[ 1.40964631e-02  6.69760928e-02 -5.12932427e-03 ... -5.23546487e-02
    -1.07047498e-01 -4.81511354e-02]
   [ 4.87040058e-02 -7.99161009e-03 -1.28576346e-02 ...  3.46253142e-02
     1.02147877e-01 -1.73225778e-03]
   [ 2.91795749e-02 -2.35431194e-02  1.28740773e-01 ... -1.00252479e-01
     9.44078043e-02 -4.78478558e-02]
   ...
   [ 7.96119645e-02 -6.74454123e-03  6.66096807e-02 ... -5.53460866e-02
     8.41616765e-02 -1.18208222e-01]
   [ 6.17070356e-03 -7.67928585e-02 -1.86566412e-02 ... -2.15773005e-02
     2.53346544e-02  5.95858647e-03]
   [ 2.07123328e-02  3.84980738e-02  7.17257336e-02 ... -8.64197761e-02
    -8.28308240e-02 -7.90558681e-02]]

  [[-2.02865265e-02  3.16335447e-02 -6.67837560e-02 ... -4.11775298e-02
    -7.74511993e-02 -8.94042701e-02]
   [-6.43744543e-02 -7.37764016e-02 -9.38961804e-02 ... -3.14337462e-02
     2.86981389e-02  3.62770744e-02]
   [ 4.93506603e-02 -4.66275923e-02  2.94005312e-02 ... -8.87409672e-02
     7.94822052e-02 -6.25701100e-02]
   ...
   [ 3.68622248e-03  2.06770767e-02  7.03674704e-02 ... -9.22751054e-02
    -2.85043344e-02 -2.55547259e-02]
   [-1.11810349e-01 -5.80825955e-02 -5.37167229e-02 ... -6.43528253e-02
    -9.21927616e-02 -3.23051251e-02]
   [-8.73490348e-02  1.64500118e-04  3.40221673e-02 ... -1.32238520e-02
    -9.17619690e-02  3.11578084e-02]]

  [[-9.63914245e-02  9.24898759e-02 -7.82601461e-02 ... -9.21370387e-02
    -2.00044774e-02 -3.08549311e-02]
   [-1.15300290e-01  4.38077981e-03 -8.60230327e-02 ... -5.28531447e-02
    -7.57123753e-02  9.28158537e-02]
   [ 1.28852323e-01 -9.52733681e-02  5.24106808e-02 ... -5.19725196e-02
     1.78991139e-01 -5.69556653e-02]
   ...
   [-1.20543009e-02 -1.29883498e-01  4.51948494e-02 ... -2.65564695e-02
     1.86469957e-01  2.56154574e-02]
   [-1.23674005e-01 -3.77015732e-02 -5.63297682e-02 ... -9.24987793e-02
    -1.42511308e-01  1.64643675e-02]
   [ 9.00982097e-02  3.23528796e-02 -4.86124381e-02 ... -1.40958533e-01
    -1.12260818e-01  7.95961469e-02]]]]
resnet_block_11/batch_normalization_29/gamma:0
(128,)
[1.0760273  0.8435009  0.95812494 1.0486494  0.8754036  0.9221893
 1.1298028  1.0357487  1.0021355  1.0263178  0.90847456 1.0803139
 0.9672058  0.89717853 0.9103708  0.9184159  0.910639   1.131608
 0.8955482  0.92674136 0.915264   0.9739193  1.0952857  0.92063326
 0.92651534 1.0008105  0.972826   1.0032876  0.93675333 1.0807064
 0.94751334 0.7906652  1.0117804  0.9986465  0.86857474 0.98003715
 1.0082672  1.0575424  1.1186737  0.929247   0.95377237 0.9014276
 0.97531444 1.0312448  1.0515655  1.1488206  0.9242091  1.0026784
 0.9850935  1.0131603  0.9175248  1.0294963  0.9657828  1.0110557
 0.9042464  0.9271132  0.95762926 1.0626779  1.1164047  1.1002179
 0.959326   0.9540761  1.0050758  1.0150319  0.93469304 0.9725742
 0.9784289  0.9353899  0.97246724 0.8695052  0.86759365 0.8073133
 1.087636   1.0189434  1.1922083  1.0268251  0.9775442  0.9381301
 0.9720285  0.9303114  0.9774269  1.0132102  1.0576751  1.0860466
 0.9858435  1.0167097  0.89816654 0.9370798  0.95361006 0.9171745
 1.1847428  0.9536563  0.9016279  1.0669593  1.0891058  1.0679489
 0.9950854  1.0322506  1.2088418  0.9366652  1.05862    0.9088855
 0.96990865 1.1573577  0.9808092  1.0018944  0.9827045  1.1059922
 1.066428   1.0144664  0.9458038  1.0069578  0.925673   0.93177235
 1.0204828  1.0668408  1.0190802  0.9523488  0.7938768  1.0128815
 0.8966791  0.97502667 1.0844626  1.0891569  1.0633906  1.0446451
 1.1253198  0.94864225]
resnet_block_11/batch_normalization_29/beta:0
(128,)
[-0.14681897 -0.19075987 -0.1148845  -0.09921633 -0.17028874 -0.1906447
 -0.15873212 -0.01895132 -0.07749683 -0.04404381 -0.18183754 -0.08923289
 -0.09866288 -0.03491705 -0.13792987 -0.18691745 -0.08067575  0.0097608
 -0.07657729 -0.12919419 -0.0677764  -0.12627323 -0.04243729 -0.12885943
 -0.06735796 -0.02437333 -0.04411457 -0.02859333 -0.1104956  -0.06860646
 -0.09945499 -0.040577   -0.1100563  -0.06415843 -0.12254476 -0.08602079
 -0.13537906 -0.13738026  0.08475383 -0.09596448 -0.16347866 -0.14049108
 -0.03502391 -0.0653282  -0.05779551 -0.04525416 -0.13395543 -0.15908442
 -0.07730553 -0.14496636 -0.06598061 -0.08080211  0.00109334 -0.16719419
 -0.10836302 -0.03339254 -0.02129603 -0.13265184 -0.03282953 -0.13288969
 -0.11655509 -0.12889214 -0.09876021 -0.12211888 -0.06860276 -0.15664534
 -0.08845747 -0.00227829 -0.09159604 -0.11702703 -0.11592922 -0.08953646
 -0.17039983 -0.03022526 -0.14138484 -0.01216909 -0.1483497  -0.0950078
 -0.08700044 -0.05994705 -0.113263   -0.10294479 -0.08357689 -0.00752332
 -0.15641244 -0.08162754 -0.07769901 -0.05552508 -0.1251037  -0.20277415
  0.02054655  0.07906049 -0.1248427  -0.06702545 -0.10700284 -0.12644666
 -0.06206673 -0.09976887 -0.00726082 -0.10352622  0.01226736 -0.06398411
 -0.12470543 -0.14174533 -0.1615804  -0.14468732 -0.14816459 -0.00351238
 -0.20161162  0.03666673 -0.13905661 -0.1504593  -0.07489137 -0.08951052
 -0.1898037  -0.01404925 -0.05688407 -0.16195035 -0.13435063 -0.02705207
 -0.14803259 -0.03678443 -0.00802464 -0.13097253 -0.14075838 -0.10476581
 -0.06553175 -0.16101858]
resnet_block_12/conv2d_30/kernel:0
(3, 3, 128, 256)
[[[[-0.10726716 -0.07565472 -0.02769251 ...  0.00128055 -0.01489806
     0.03304622]
   [-0.06043463 -0.03343445 -0.01711053 ... -0.02739133  0.04565237
     0.01524079]
   [ 0.00225359 -0.02778237  0.01060349 ... -0.02289574  0.03124466
     0.09445335]
   ...
   [-0.0734398  -0.01927449 -0.00655094 ...  0.08047271  0.07738614
     0.01057553]
   [-0.07717624 -0.01303947 -0.04446002 ...  0.01329044  0.00815921
     0.00734064]
   [ 0.10123947  0.00411765 -0.03800801 ... -0.02543426 -0.12896131
     0.00329103]]

  [[-0.12075091 -0.05615436  0.07921554 ...  0.01279587  0.01867384
    -0.05996443]
   [-0.05423618  0.05039576  0.13693173 ... -0.05022624  0.01238306
     0.01545117]
   [-0.06147284 -0.07692686 -0.00458871 ...  0.02340289 -0.0310112
    -0.02072104]
   ...
   [-0.06759841 -0.07723146  0.12416948 ... -0.05285189 -0.09724749
    -0.09976568]
   [-0.05486238  0.0165716   0.08081652 ... -0.02798014 -0.05744865
    -0.05653418]
   [ 0.00798654 -0.02869358  0.06877779 ... -0.03425348  0.06023027
    -0.03356919]]

  [[-0.09963974 -0.1333415  -0.07109043 ...  0.05485115 -0.05630848
    -0.11279162]
   [-0.07589719 -0.12030365 -0.08906018 ...  0.0539781   0.03266872
     0.01327995]
   [-0.00137662  0.05170046 -0.02178718 ... -0.04744327  0.04028998
     0.0478928 ]
   ...
   [-0.10030145 -0.06662033  0.00621931 ...  0.01306823  0.00216128
    -0.13429049]
   [-0.04325716 -0.04130201  0.01706089 ...  0.0793355  -0.04399829
    -0.01642517]
   [ 0.05241338  0.03714235  0.04862349 ...  0.04066167 -0.08004224
     0.02699756]]]


 [[[ 0.05161047  0.12411777 -0.091126   ... -0.16807641  0.05533063
     0.07232568]
   [-0.01387818  0.02231487 -0.03280015 ... -0.14427447 -0.01623539
     0.010013  ]
   [-0.03027912  0.01941657 -0.01450404 ...  0.05323847  0.05109439
     0.01531778]
   ...
   [-0.04355252 -0.08151899 -0.04235373 ...  0.02425412  0.09693812
     0.02365101]
   [ 0.01912629  0.10996013  0.02737154 ... -0.1101416   0.06623579
     0.07451642]
   [ 0.03441625 -0.01644458  0.0620306  ...  0.10280098 -0.16291249
    -0.13935488]]

  [[ 0.01157151  0.00586554 -0.01007221 ... -0.0261514  -0.01140226
     0.04000415]
   [ 0.01252952 -0.03065969  0.04119599 ... -0.05526095  0.02934393
     0.00467463]
   [-0.01128395 -0.08098426  0.06090089 ...  0.04923305 -0.08093522
     0.03467098]
   ...
   [-0.14849466 -0.12469113  0.04751957 ...  0.15981127 -0.03152179
    -0.12902789]
   [-0.02471393  0.06044086  0.02468316 ... -0.19924454 -0.04477284
     0.0080182 ]
   [-0.08871996 -0.0814212   0.10337932 ...  0.05372509  0.01878974
     0.04609331]]

  [[-0.07202463 -0.02961794 -0.04861096 ... -0.0526652   0.01267361
    -0.01432267]
   [-0.04330079 -0.11762292 -0.06746946 ... -0.08051527  0.05113357
     0.05360264]
   [ 0.03742121  0.04968538 -0.03524013 ... -0.00633222 -0.01668995
     0.0271591 ]
   ...
   [-0.05538058 -0.04094551 -0.09677038 ... -0.13286936 -0.05419154
    -0.00920697]
   [ 0.07856783 -0.0122572   0.12614886 ... -0.05679798  0.00226723
     0.07682832]
   [ 0.10171426 -0.03672412 -0.03932515 ...  0.06645096 -0.04108262
    -0.04934744]]]


 [[[ 0.02795327  0.11773524 -0.00635742 ... -0.05316845  0.00626041
     0.04860456]
   [-0.07716092  0.03464724 -0.09113117 ... -0.07532397  0.02700921
     0.04466521]
   [ 0.09505563  0.03440821  0.04213788 ... -0.02434903  0.10274185
     0.09918173]
   ...
   [ 0.10527931  0.09640613  0.03048977 ... -0.07516597  0.1424843
     0.12241682]
   [ 0.09600038  0.09431304  0.01126521 ... -0.19786578  0.10009509
     0.10921372]
   [-0.05849143 -0.10033552  0.04785938 ...  0.10983893 -0.07993565
    -0.14799292]]

  [[ 0.04822363  0.09928659 -0.07072295 ... -0.06160118  0.01569279
     0.08501472]
   [-0.01666453  0.02581234 -0.03446348 ... -0.08885143  0.0118511
    -0.03374735]
   [ 0.0804395   0.08255143  0.08591475 ... -0.12619995 -0.01992247
    -0.05646249]
   ...
   [ 0.05420237 -0.01174437  0.00258004 ...  0.01340691 -0.03895179
    -0.04193982]
   [ 0.01365187 -0.01831923 -0.03701342 ... -0.12664843 -0.02216544
    -0.04282107]
   [ 0.01773654  0.01210924 -0.01972799 ... -0.0724979   0.04701252
     0.06680406]]

  [[-0.0441148  -0.02605515  0.02204872 ... -0.01284616 -0.03294605
    -0.05165087]
   [-0.00250778  0.06286857 -0.07561255 ... -0.04220799 -0.02639366
     0.01294788]
   [ 0.08518036  0.084184   -0.01720815 ... -0.04727888  0.04118971
     0.10774897]
   ...
   [ 0.15084156  0.19935396 -0.02130572 ... -0.12914684 -0.01898324
     0.09204617]
   [ 0.08839279  0.09993729  0.04343598 ... -0.24258702 -0.04464491
     0.0599766 ]
   [ 0.07449594 -0.01271873  0.00582237 ...  0.00993708 -0.01512977
     0.03053605]]]]
resnet_block_12/batch_normalization_30/gamma:0
(256,)
[1.2483577  1.0482177  1.025338   0.9612697  0.94021946 1.1088676
 1.0011175  1.0094403  1.0702982  1.1010728  0.9040999  1.1030042
 0.98762137 0.9653877  0.8901135  1.2027879  1.1181061  1.0759311
 1.0118592  0.9744711  1.1472102  1.0327542  1.1093639  1.0380784
 0.97834986 1.0858319  0.9927618  0.9866971  1.0681595  1.045331
 1.0481523  0.98602366 1.0100404  1.162802   0.9522562  0.8662913
 1.1422842  0.83983195 0.90723777 0.9327246  0.9564615  0.9659083
 0.8466396  0.9797802  0.9305378  1.0521625  0.9729067  0.9775228
 1.0791827  1.0489829  0.9868501  1.032963   0.92375165 1.0450604
 1.0823573  1.0860078  0.9354359  0.89795715 1.0043834  0.97929144
 1.0978739  0.92942095 0.8657543  1.1114427  1.02396    1.132082
 0.9272719  0.9676646  1.0847292  1.0021945  1.0448626  1.1659504
 0.9978216  1.084137   0.9282658  1.1569467  0.96078455 1.0045538
 1.0225879  0.99123853 1.0196509  1.1354245  1.1389177  0.97425663
 1.0095316  1.2056526  1.1149354  0.9749135  0.9651811  0.95846653
 0.94949996 0.934546   0.93308145 1.034021   0.9502469  0.979653
 0.9120051  0.9869624  1.1823103  1.0248629  0.9705069  0.9883417
 1.0134854  0.96212757 1.1098942  0.96773523 1.0920494  1.0936987
 1.1494211  0.94414324 0.9016783  1.1038121  1.083599   1.0463578
 1.1414014  1.0590763  0.93425673 1.0723822  0.90196055 0.9822625
 0.90647954 0.94781464 1.0053487  0.90935373 0.94585323 0.97390807
 1.0115056  1.0286903  0.9901842  1.009566   0.9790067  0.76986945
 1.065275   0.9601268  1.0245028  0.8891328  1.0129982  1.0940412
 0.9949309  0.9314298  1.0972474  0.98039305 1.0639731  1.0788915
 0.90566295 1.1892695  1.0628135  1.0772744  1.1962078  1.039693
 0.9535052  1.0191499  1.0508932  1.0813092  1.0492101  1.0452263
 1.1075267  0.9535471  1.1379397  0.9933512  1.2467192  0.9538463
 0.9045596  0.93822336 0.9766832  0.94431967 1.0136862  0.95203763
 0.93197405 0.96192145 0.96589893 1.0343001  0.9348037  0.95949644
 0.9437729  0.8742077  0.9667809  0.9296893  0.9858038  0.98578554
 1.0871388  1.0971519  1.0389982  1.0472332  1.011305   1.0785443
 1.0811433  0.99113667 0.8525079  0.94080997 0.93196803 0.98063296
 0.9849475  1.022297   0.90966064 0.9229818  1.1366713  1.0558789
 0.9040157  1.1679976  1.0224205  1.0552305  1.0128253  0.97717077
 1.1105659  1.1514683  0.9668331  0.96215177 0.9915459  1.0777313
 0.9357287  1.0384442  0.9151715  1.0700191  1.0062685  0.9830488
 0.9520447  0.9630835  1.022453   1.0379142  0.9417515  1.0628483
 0.857678   1.1217579  1.0581762  0.99789494 0.9259316  1.0389194
 1.1196804  0.9494938  0.9625167  1.0939044  0.92528695 0.9278054
 0.89097667 0.8861119  0.9726251  0.95580024 0.9669621  0.99958867
 1.0531888  1.0114391  0.9396159  0.90565157 0.89083314 0.9220358
 0.92599744 0.9899464  0.9746626  1.0085825  1.0665638  1.0568564
 0.89739066 1.0113751  1.005262   1.0116544 ]
resnet_block_12/batch_normalization_30/beta:0
(256,)
[ 1.35460701e-02 -6.90279827e-02 -2.43599638e-02 -1.36801422e-01
 -1.52091786e-01 -6.30241856e-02 -1.94532961e-01 -1.07736975e-01
 -1.11951232e-01  4.07199897e-02 -1.84078813e-01 -2.78076977e-02
 -3.63753587e-02 -1.47406131e-01 -1.52442068e-01 -7.11028948e-02
 -2.57868855e-03 -6.76758662e-02 -7.06997439e-02 -2.00379919e-02
  7.19318837e-02  7.05398060e-03 -1.20451652e-01 -8.43769033e-03
 -1.84770636e-02  7.90358026e-05 -2.24498454e-02 -2.61667967e-01
  1.74837764e-02 -9.20726955e-02 -2.97127897e-03 -6.38970286e-02
 -8.13739281e-03 -1.89596623e-01 -1.87296703e-01 -2.71660030e-01
 -4.18014415e-02 -1.74451083e-01 -1.64282739e-01 -2.82397419e-01
 -2.80003846e-01 -8.27829689e-02 -1.05509132e-01 -4.56412584e-02
 -8.84082839e-02 -2.55211815e-02 -2.52126545e-01 -2.21444085e-01
 -1.54644191e-01  5.72224334e-02 -8.23352560e-02 -1.84043348e-02
 -1.29370078e-01 -1.89920999e-02 -2.11582303e-01 -4.11686487e-02
 -2.14467999e-02 -4.81184982e-02 -6.87330365e-02  4.05518338e-02
 -1.08854072e-02 -1.63140923e-01 -2.21727222e-01 -1.45799696e-01
 -1.40424326e-01 -2.75713820e-02 -2.82059163e-01 -1.73739627e-01
  2.26076301e-02 -1.19494982e-01 -1.02911018e-01  2.65345606e-03
 -2.41406366e-01 -1.65466517e-01 -1.95529059e-01 -1.82739310e-02
 -2.82967448e-01 -6.54997770e-03 -1.14127651e-01  1.74142271e-02
 -2.28040919e-01 -5.05478419e-02 -1.49815008e-01 -2.56399900e-01
 -1.02826320e-01  4.49510925e-02 -8.07952359e-02 -1.38183326e-01
 -1.87872976e-01 -1.47457421e-01 -2.72808403e-01 -2.44436517e-01
 -1.38621032e-01 -1.07017327e-02 -7.58841857e-02 -1.36800483e-01
 -1.55692697e-01 -1.68089911e-01  3.93542126e-02 -8.35854262e-02
 -1.35827482e-01 -6.03831783e-02 -2.81078607e-01 -2.44606152e-01
 -5.51388450e-02 -6.18237816e-02 -2.02629324e-02 -1.78443179e-01
 -1.69147894e-01 -2.00876921e-01 -1.11702368e-01 -1.48106795e-02
 -5.88330254e-03 -4.24709544e-02 -1.06924124e-01 -1.41868204e-01
 -2.42550239e-01 -6.11366099e-03 -2.18652144e-01 -2.65974812e-02
 -2.28530094e-01 -1.74376994e-01 -6.86726496e-02 -3.25832397e-01
 -2.89401412e-01  4.28373134e-03 -1.54302776e-01 -3.99386398e-02
 -2.81321824e-01 -1.77670941e-01 -1.87250271e-01 -1.36795506e-01
 -4.94892411e-02 -1.41302794e-01 -2.46518552e-01 -1.45584747e-01
  3.35155502e-02 -2.45782688e-01 -2.82101154e-01 -1.15427427e-01
 -5.17382799e-03 -4.51061390e-02 -7.06881359e-02 -9.66977924e-02
 -1.84611395e-01 -6.62926286e-02 -3.23511660e-02 -3.45479585e-02
 -6.74646273e-02 -2.77298316e-02 -2.53267050e-01 -9.45557952e-02
  2.45673992e-02 -1.02247847e-02 -1.30106047e-01 -1.29653692e-01
 -7.42373914e-02 -9.47981775e-02 -6.83413520e-02 -4.87207361e-02
 -4.58056480e-02 -5.09278849e-02 -1.29463360e-01 -6.43875077e-02
 -2.87924945e-01 -1.68543085e-01 -1.48191452e-01 -2.96527058e-01
 -4.99928445e-02 -2.44075984e-01 -8.05002376e-02 -1.59691796e-02
 -1.44627616e-01 -2.45411798e-01 -4.00200151e-02 -2.02651605e-01
 -1.84964500e-02 -1.33199006e-01 -3.34086716e-02 -2.72332251e-01
  2.18291692e-02 -6.22129478e-02  6.67541027e-02 -7.01862946e-02
 -1.36218920e-01 -2.39064768e-02 -1.65839738e-05 -6.38350099e-02
 -2.06197008e-01 -1.17241547e-01 -1.20842375e-01 -7.97823966e-02
 -2.73090631e-01 -8.85655135e-02 -3.22446860e-02 -9.92299840e-02
 -7.82444403e-02 -1.86095759e-01 -2.30759278e-01  4.94095534e-02
 -6.74454123e-02 -1.03365205e-01 -1.31693080e-01 -1.22911625e-01
 -8.45672265e-02 -8.55682939e-02 -2.57529527e-01 -1.86330289e-01
 -1.22180745e-01  3.23662721e-02 -1.49661273e-01 -1.13651261e-01
 -1.68459386e-01 -1.59150556e-01 -1.10355318e-01 -7.70436451e-02
 -2.33281791e-01 -2.61407614e-01 -4.42122295e-03 -5.75776324e-02
 -6.07196167e-02  6.90753432e-03 -7.91697055e-02 -1.13489553e-01
 -9.50850770e-02 -1.45539328e-01 -1.24571636e-01 -7.54345581e-02
 -3.46218534e-02 -2.76257306e-01 -2.83541590e-01 -5.84807172e-02
 -3.43360603e-02 -1.72668800e-01 -2.53452480e-01 -8.88996944e-02
 -2.70996064e-01 -2.82999575e-01 -2.02546194e-01 -2.63431966e-02
 -7.66471848e-02 -5.90186343e-02 -2.03932613e-01 -1.57830060e-01
 -1.80997312e-01 -1.50785103e-01 -3.04218054e-01 -5.06794713e-02
 -1.89881064e-02 -2.51618624e-01 -4.47349921e-02 -1.17716692e-01
 -2.55462289e-01 -2.20942393e-01 -2.23311279e-02 -2.02389415e-02]
resnet_block_12/conv2d_31/kernel:0
(3, 3, 256, 256)
[[[[-4.69990000e-02 -1.31991059e-01  6.86821993e-03 ...  6.52978718e-02
     1.74325407e-02 -9.38735809e-03]
   [-3.26499902e-02 -5.34998775e-02 -1.83655452e-02 ...  1.10864729e-01
     2.00440697e-02 -1.07932631e-02]
   [ 2.11602002e-02  7.51690343e-02  2.11159643e-02 ... -1.75627202e-01
    -3.06301862e-02 -3.27040292e-02]
   ...
   [-9.29980054e-02 -9.14395750e-02  3.54680791e-02 ... -1.64922047e-02
     3.53345275e-02  8.70504901e-02]
   [ 1.27561435e-01  9.45644528e-02 -1.31511614e-01 ... -1.89837441e-02
    -6.72613010e-02 -3.77134345e-02]
   [ 5.24703972e-02  9.32259783e-02 -7.33009651e-02 ...  5.63461967e-02
     3.78215574e-02 -4.33502458e-02]]

  [[-9.31612700e-02 -1.30119056e-01  1.03654504e-01 ... -1.01330757e-01
     7.54392371e-02 -3.61552052e-02]
   [-7.80913979e-02 -1.55796790e-02  9.03243423e-02 ...  2.64010541e-02
     3.58154550e-02  7.10138492e-03]
   [-1.09961137e-01 -9.90174860e-02  3.08842529e-02 ...  9.07655526e-03
    -3.69374058e-03 -7.99818635e-02]
   ...
   [-8.14558286e-03 -4.35969755e-02 -3.90262455e-02 ... -1.14484709e-02
     2.96590589e-02  1.56789869e-02]
   [ 4.55811955e-02 -6.58124536e-02 -1.27208540e-02 ...  3.50668561e-03
     8.00414234e-02 -6.77618310e-02]
   [-2.24922411e-03  2.30595767e-02  1.23956889e-01 ...  1.56434365e-02
     1.44689694e-01 -1.10058390e-01]]

  [[-1.00286402e-01 -4.93999384e-02  1.03923090e-01 ... -7.00407252e-02
    -2.95517184e-02  2.15809420e-02]
   [-6.57091439e-02 -1.29618764e-01 -6.46681152e-03 ... -1.37638114e-02
    -1.63507331e-02  3.26362364e-02]
   [-9.82170328e-02  1.06195221e-02  2.21632142e-02 ... -7.87655041e-02
     3.68422978e-02 -5.91910584e-03]
   ...
   [-3.87140512e-02 -7.81227052e-02  4.53362949e-02 ... -6.39872451e-06
     5.21838963e-02  4.79870886e-02]
   [-1.04519010e-01 -3.23133357e-02  2.69542690e-02 ... -5.14146760e-02
     1.14858961e-02 -1.21813543e-01]
   [-7.23145381e-02 -4.61431146e-02  1.43434092e-01 ... -8.07765424e-02
     7.02209324e-02 -4.42477055e-02]]]


 [[[-1.28570244e-01 -3.74613479e-02  1.03690751e-01 ...  6.29475117e-02
     3.92151065e-03  1.52975932e-01]
   [-9.30484533e-02 -2.13242006e-02  1.05892576e-01 ...  1.13810925e-02
     5.92744313e-02  1.13137394e-01]
   [ 1.76638626e-02 -1.12058520e-02 -2.08463166e-02 ... -9.39825401e-02
    -2.31217593e-02 -2.08411187e-01]
   ...
   [ 5.62679768e-02 -1.25450268e-02 -8.60681087e-02 ... -2.93258280e-02
    -5.44723943e-02 -1.07570719e-02]
   [ 8.22089687e-02  2.58588064e-02 -6.31684661e-02 ...  8.05087388e-02
    -3.76486294e-02 -1.79137569e-02]
   [ 4.88749221e-02  1.40153570e-02 -1.53082022e-02 ...  9.37824175e-02
    -6.27033263e-02  4.37183529e-02]]

  [[-1.60382777e-01 -1.14434913e-01  5.21857366e-02 ... -9.19956565e-02
    -8.65434948e-03  1.53022408e-01]
   [-7.83631057e-02 -4.82436679e-02  3.08476985e-02 ...  4.66269143e-02
    -2.25800909e-02  8.82452577e-02]
   [-2.29841825e-02 -2.23593432e-02 -1.13766544e-01 ... -7.70875886e-02
     2.16401145e-02 -1.37177706e-01]
   ...
   [ 5.66782355e-02 -1.07825911e-02 -8.20900947e-02 ...  1.76983327e-02
    -3.19981202e-02 -8.18353146e-02]
   [-3.26726176e-02 -1.60196964e-02 -5.74086094e-03 ...  3.38907428e-02
     8.44613314e-02  5.54555934e-03]
   [-5.59046753e-02  2.83366465e-03  5.87589741e-02 ...  7.67817050e-02
     6.59184530e-02 -3.95095069e-03]]

  [[-2.08544970e-01 -8.33961815e-02  2.36090980e-02 ...  6.49720877e-02
    -5.20549864e-02  1.38088480e-01]
   [-1.45620406e-01 -1.97671968e-02  1.35886252e-01 ...  6.29024953e-02
     6.08472638e-02  8.71607587e-02]
   [ 6.85278978e-03  5.15876710e-02 -2.92347129e-02 ... -5.37055619e-02
     2.31491607e-02 -4.28129509e-02]
   ...
   [ 8.31089318e-02  6.05597608e-02 -1.48904368e-01 ...  5.30659035e-02
    -4.82198521e-02 -6.26554489e-02]
   [-1.17098875e-01 -6.87209144e-02 -1.45311868e-02 ... -1.16831157e-02
     1.25146896e-01 -3.28949559e-03]
   [-7.48873278e-02 -1.12383313e-01  5.22916652e-02 ...  3.35790664e-02
     9.02678743e-02 -1.73289105e-02]]]


 [[[-5.50225861e-02 -1.27659664e-01 -1.28734231e-01 ...  1.99523494e-01
    -1.55238062e-01  1.08500600e-01]
   [-2.39490513e-02  4.84560691e-02 -1.00514084e-01 ...  1.16145767e-01
    -1.01822875e-01  1.46427765e-01]
   [-1.33047337e-02 -3.71601097e-02  1.14246406e-01 ... -1.28684178e-01
     6.02889471e-02 -1.75481305e-01]
   ...
   [ 9.18535367e-02  1.65803805e-01  4.29479815e-02 ... -1.66052684e-01
     2.86371093e-02 -1.01660408e-01]
   [-1.40977073e-02  8.78973454e-02  5.43109924e-02 ...  1.20645881e-01
    -4.48467173e-02 -9.42245405e-03]
   [-5.59539162e-02  2.54455097e-02 -3.88557240e-02 ...  8.26571211e-02
    -8.84882063e-02  9.12584066e-02]]

  [[-7.72844329e-02 -8.03947076e-02 -1.80125698e-01 ...  1.43741205e-01
    -1.42612755e-01  1.00158438e-01]
   [-8.06931313e-03 -3.01435720e-02 -1.48018479e-01 ...  9.11156312e-02
    -9.88380015e-02  1.40085235e-01]
   [ 2.37935595e-02  4.89954464e-02  6.70365691e-02 ... -1.40325949e-01
     1.15112700e-01 -1.73903301e-01]
   ...
   [ 8.85282010e-02  1.09572252e-02  1.12119392e-01 ...  2.60761734e-02
     7.37300366e-02 -1.14007324e-01]
   [ 1.52767403e-02 -2.53474414e-02 -4.05678861e-02 ...  1.49113284e-02
    -2.77984031e-02  4.40812260e-02]
   [-4.19596024e-02 -4.67788242e-02 -1.03809379e-01 ...  3.85643132e-02
    -7.60358423e-02  9.69340801e-02]]

  [[-6.58264533e-02 -1.56853944e-01 -2.08500192e-01 ...  8.95273685e-02
    -1.73194095e-01  9.38727036e-02]
   [-8.97329580e-03 -1.29705928e-02 -1.83775887e-01 ...  1.62080854e-01
    -1.12066612e-01  6.48603812e-02]
   [ 1.09100537e-02 -3.36120906e-03  1.15646094e-01 ... -1.32734463e-01
     6.40213341e-02 -1.25391588e-01]
   ...
   [ 1.07374422e-01  7.58260638e-02  1.10625483e-01 ... -6.65433556e-02
     7.77655840e-02 -4.99707498e-02]
   [ 1.30951423e-02 -1.77675802e-02 -3.19492705e-02 ... -3.13010439e-02
     7.75743276e-02 -1.14283236e-02]
   [-3.70949022e-02 -3.99473123e-02 -8.69091079e-02 ...  4.99431342e-02
    -1.68114863e-02  5.94620258e-02]]]]
resnet_block_12/batch_normalization_31/gamma:0
(256,)
[1.0504671  1.1242021  1.0933201  0.83285433 0.9358459  0.9711478
 0.93299717 0.9098145  0.845845   0.9824524  1.0317732  0.9298961
 0.93233436 0.931785   1.0214378  1.0107942  1.0524229  0.98278415
 0.9748102  0.94884825 1.0182103  0.9738099  1.0172002  0.8989147
 0.9287852  0.9013615  0.86768097 1.0400062  1.0522388  1.0361631
 0.9526173  0.98651916 1.060769   1.0071284  0.9632879  0.9252471
 0.8864174  0.9399587  1.0043511  1.0359119  1.0462534  1.091158
 0.9340766  1.0223633  1.0212971  0.89663625 1.0475917  1.0989224
 0.96752906 1.0164117  0.8802104  1.0771446  0.9903828  0.9697443
 0.97654295 0.9647219  0.9378232  0.939864   0.9606529  1.0756984
 0.8591131  0.9000279  1.0073364  1.0725965  1.004686   0.9662949
 0.974404   1.1075357  1.0191298  1.0445538  1.1162444  1.117174
 0.98252505 0.99782753 0.9899791  0.90057075 0.866811   0.969606
 0.9843338  1.1593513  0.9050872  0.91107243 1.031735   0.89172
 1.0622834  1.0843285  1.0529826  0.90467846 0.93664944 1.0487319
 0.9936579  0.8272837  1.010718   0.98171806 1.049605   0.9835589
 0.98608816 1.041081   0.9892789  0.94315565 0.9258441  0.9622497
 0.8949595  1.0345544  1.0093265  0.92206675 1.1069522  1.0406272
 0.97403556 0.8947316  1.0271878  0.98964095 0.96931654 1.0650388
 0.95970327 1.0555184  1.049412   1.02452    0.95514905 0.9937764
 0.9845528  1.036547   0.80523425 0.9892549  0.853431   0.88349223
 1.0232189  0.9861512  1.02473    1.0241988  1.0121332  0.9866104
 1.1789248  0.98586994 0.8943422  1.0373025  0.98156965 1.0224211
 0.8778255  0.8955505  0.9769043  1.0152861  0.917514   0.96704626
 0.9455301  1.0006498  0.9639099  0.8984058  0.87078756 0.99709135
 1.0232825  1.0045859  0.862755   0.9168039  1.0602628  1.0133946
 0.86739284 1.0591033  1.0026691  1.0885766  0.80207986 1.0041655
 1.0238653  0.82487077 0.93104357 1.0320677  1.0408918  0.81052476
 1.1056954  0.92966217 1.035815   1.0239238  0.96374494 0.9886815
 1.0276955  0.957885   1.0354435  1.0803113  1.05279    1.1208879
 0.9753404  1.031665   1.1056017  0.9828524  1.0373656  0.8867394
 0.894855   1.0026693  0.91643554 0.99038213 1.0048691  0.89999795
 1.0256625  1.0360534  0.84809804 0.9859293  1.0818723  1.0315312
 0.99340284 0.9804011  0.8570428  1.0705535  1.040411   1.0442249
 1.024813   0.9914732  1.0484632  1.0404617  1.0550257  0.91668767
 1.0405886  0.81079376 0.99626315 0.889163   0.9714782  0.8858172
 1.1568604  0.9615291  1.1184582  0.9010657  1.0921124  1.0601734
 0.9842067  1.124018   1.0335436  1.1083504  1.0211601  0.954736
 0.95330006 0.9651435  1.0151589  0.9909791  0.7889638  1.0259393
 1.0374292  1.0012593  1.0463383  1.0750302  1.0383214  0.9830652
 0.9486121  1.0395763  0.97579795 1.095727   1.0522848  1.1147952
 1.0147678  1.0635049  0.9680959  1.011835   0.9328726  0.9429084
 1.1116973  0.9973509  0.95255244 0.93984586]
resnet_block_12/batch_normalization_31/beta:0
(256,)
[-0.07518031 -0.06221771 -0.18253888 -0.15194617 -0.36151946 -0.080559
 -0.2163088  -0.08300164 -0.14038785 -0.38998982 -0.15028423 -0.25921547
 -0.09697292 -0.14261302 -0.18436553 -0.15922701 -0.01522697 -0.06086882
 -0.06069868 -0.06110371 -0.02529883 -0.13564733 -0.40112996 -0.10456898
