gru_6/gru_cell_6/kernel:0
(1, 240)
[[-0.3850501  -0.6011773  -0.4558163  -0.48449633 -0.6097363  -0.20353012
  -0.50583386 -0.4316176  -0.5183726  -0.6976626  -0.425381   -0.38442183
  -0.48831055 -0.5164864  -0.09395567 -0.639744   -0.38560352 -0.7481268
  -0.46906704 -0.6969436  -0.09363174 -0.39064753 -0.5972357  -0.2544769
  -0.606789   -0.69929326  0.0219859  -0.31749833 -0.64060855 -0.46034235
  -0.4485993  -0.60962045 -0.6055549  -0.36975947 -0.60592586 -0.5224037
  -0.63003474 -0.6419611  -0.20088877 -0.5003164  -0.57336855 -0.6450231
   0.01848557 -0.59874576 -0.5167712  -0.49245352 -0.46304405 -0.57880163
  -0.50422937 -0.568039   -0.3996042  -0.6314034  -0.2890599  -0.41885924
  -0.51207864 -0.53955734 -0.5466249  -0.06144352 -0.6483464  -0.31717226
  -0.5646948  -0.6000759  -0.4967447  -0.3045874  -0.03861646 -0.22598273
  -0.6479041  -0.5292048  -0.27398807 -0.5500755  -0.6671036  -0.24690573
  -0.5186228  -0.42329645 -0.5113873  -0.38868994  0.00545436 -0.10969129
  -0.59195846 -0.7107793   0.21343343  0.07616831 -0.17039622  0.10617699
   0.06683085  0.06173864 -0.14004001 -0.04950154 -0.14647144 -0.07828864
  -0.12624326  0.06880928 -0.00939287 -0.03620691 -0.05270449 -0.05346126
   0.04641989  0.02145527  0.02933955  0.04873369  0.09269042  0.10690716
   0.14863415  0.11590438 -0.13582481  0.03238826 -0.06447558  0.06582981
  -0.13662477 -0.1504309  -0.11052004  0.00548931 -0.11183802  0.03556747
   0.02913072 -0.17336082  0.09098364 -0.0173238   0.07509457 -0.09468201
  -0.11824144  0.03378213  0.05233199 -0.03365843 -0.02529928 -0.16410336
   0.05976307 -0.05769943 -0.1638411  -0.16447833 -0.03200905  0.02798717
  -0.06478142 -0.11156724 -0.02319197 -0.1727403  -0.01269892 -0.0832234
  -0.060392   -0.09774386  0.14036077 -0.11149831  0.05690753 -0.05450851
  -0.01238666  0.03745564  0.04178393 -0.07615948 -0.08071802  0.10497678
   0.03852565  0.02796084 -0.15051249 -0.06994879  0.02476732  0.07621751
   0.04581453  0.07505145  0.01824348 -0.02180189  0.02142239 -0.09672132
   0.10040528 -0.13828209  0.15044971 -0.05593711 -0.07269654  0.08786719
  -0.10828782  0.14589399  0.04308651  0.14942488 -0.13069503  0.11420174
   0.02298119  0.12590021 -0.04025684 -0.12707876  0.11004377 -0.10163315
  -0.01724536 -0.12155452  0.0562042   0.02879355  0.08648834  0.10964422
   0.01956752  0.04449607  0.14738984 -0.11184175  0.12671281  0.09439529
  -0.06147138 -0.10356088 -0.12772235 -0.0968493  -0.15435292 -0.07198457
  -0.0211769  -0.10171051  0.147191   -0.05740329  0.02467952 -0.10525747
   0.09717394 -0.08487818  0.07817132 -0.09659118 -0.10373449  0.08315055
  -0.09552914 -0.09509229  0.11200207 -0.07224075  0.13583662 -0.11055671
  -0.13202727 -0.02918388 -0.10798224 -0.12141389  0.13386494  0.11207666
   0.10423696  0.02325426  0.02927035  0.06110718  0.1493324   0.13896434
  -0.07175545 -0.08364261 -0.11346732 -0.11956781  0.09001092  0.05426097
  -0.08573941  0.11791303 -0.02725908 -0.0268564  -0.07567764  0.08487658]]
gru_6/gru_cell_6/recurrent_kernel:0
(80, 240)
[[ 0.00113783  0.01680915 -0.14118265 ...  0.0306014   0.15165085
   0.03775407]
 [ 0.01928191  0.02244641 -0.05957329 ... -0.10010008  0.04089088
  -0.04006265]
 [-0.0777354  -0.13011672 -0.23417789 ...  0.08148906  0.05307521
  -0.04662118]
 ...
 [-0.01526812  0.02461847  0.09995947 ... -0.09168331  0.04289501
   0.06550488]
 [ 0.08051129 -0.07238695  0.06385551 ... -0.04378859  0.0018617
   0.0500466 ]
 [ 0.07676044 -0.09415925 -0.15412438 ...  0.08817247  0.04113365
  -0.00315616]]
gru_6/gru_cell_6/bias:0
(2, 240)
[[-3.35280448e-01 -8.53025615e-01 -6.68372333e-01 -6.49473310e-01
  -7.50657976e-01 -4.59959030e-01 -6.08200133e-01 -7.59021819e-01
  -6.20572746e-01 -8.04232895e-01 -4.65453267e-01 -6.62351787e-01
  -5.95306158e-01 -6.89163744e-01 -1.95083499e-01 -6.24693811e-01
  -4.17304546e-01 -7.78797269e-01 -7.10269392e-01 -9.18169141e-01
   5.97617850e-02 -6.94307446e-01 -6.08817875e-01 -5.14741421e-01
  -6.35492861e-01 -9.01110947e-01 -2.42661918e-03 -4.24863189e-01
  -6.87225699e-01 -6.29962027e-01 -7.21160352e-01 -7.93250084e-01
  -6.47450089e-01 -5.05839169e-01 -7.51974523e-01 -8.33198309e-01
  -6.93067491e-01 -7.23351657e-01 -3.82225573e-01 -6.25853419e-01
  -7.33030915e-01 -7.61194706e-01 -1.08240083e-01 -9.12637174e-01
  -6.44000947e-01 -5.73659360e-01 -6.05092406e-01 -9.66133177e-01
  -7.19087839e-01 -6.76636696e-01 -7.31218696e-01 -8.07179689e-01
  -3.89163136e-01 -5.11760414e-01 -5.65674841e-01 -9.07528102e-01
  -5.06085694e-01 -1.19632423e-01 -6.74122691e-01 -5.66493750e-01
  -5.37169814e-01 -7.01584697e-01 -6.49794161e-01 -2.93839931e-01
  -1.96598738e-01 -4.28035945e-01 -6.85036600e-01 -8.03164303e-01
  -5.01773119e-01 -7.69150436e-01 -6.95293486e-01 -4.74665999e-01
  -7.79659867e-01 -5.68328679e-01 -7.09834158e-01 -6.10848069e-01
  -9.56170075e-03 -1.92221105e-02 -7.00527251e-01 -7.70834804e-01
   3.98116112e-02 -4.40728571e-03 -1.70337129e-02  2.34457497e-02
   2.06316244e-02  6.66281022e-03 -1.47272740e-02  3.53856105e-03
   1.46007072e-03  4.02882043e-03 -2.80591268e-02  2.68955082e-02
   7.65874749e-03 -8.89526960e-03 -1.02958167e-02  3.06385402e-02
  -8.70671938e-04  2.42355317e-02  1.16122616e-02  3.95506620e-03
   1.94889531e-02  2.91161332e-03 -2.08217502e-02 -6.00828091e-03
  -7.08706863e-03  4.06690594e-03  2.32727751e-02 -3.52777317e-02
   1.09968660e-02 -5.52164838e-02  3.39813088e-03 -1.51886083e-02
  -1.53503101e-02 -1.02562010e-02  2.05867290e-02  1.51328044e-03
   3.42637971e-02 -7.72136357e-03 -7.30906380e-03 -2.10753083e-02
   4.21009101e-02 -2.32315324e-02 -1.21002542e-02  1.65592059e-02
  -1.73282139e-02 -4.49555134e-03 -1.08773855e-03 -2.14887923e-03
  -1.63268745e-02 -1.37069151e-02 -7.34901503e-02  5.58019802e-03
  -5.77132637e-03 -1.16199423e-02  9.78020951e-03  1.68938339e-02
   1.17278220e-02  1.40725067e-02 -1.24311931e-02  8.12932290e-03
  -2.35341466e-03 -1.03976559e-02  2.88592260e-02  1.83698460e-02
  -2.50924621e-02 -1.91653203e-02  1.48264086e-02  2.46844497e-02
  -1.26278196e-02 -1.72943491e-02  1.98333431e-03 -1.03489785e-02
  -6.64947415e-03 -2.19094269e-02 -3.06886360e-02 -3.26124467e-02
   1.49882194e-02  2.86452676e-04 -1.62694715e-02 -2.70115640e-02
  -7.52162607e-03  1.84847098e-02 -1.30451862e-02  1.98955704e-02
  -1.98950302e-02  4.40170150e-03  9.54511389e-03 -1.31187905e-02
   1.43608395e-02 -1.94045752e-02 -8.64729472e-03 -2.10535824e-02
   1.81639921e-02 -1.51077686e-02 -5.68485772e-03 -1.69367846e-02
   3.32423719e-03  1.88804604e-02 -1.73317734e-02  1.16452873e-02
   7.11609784e-04  1.67035330e-02 -8.53561051e-03 -7.26782251e-03
  -1.45050455e-02 -1.40993586e-02 -2.03200919e-03 -5.05212974e-03
  -1.84840951e-02  1.35842105e-02 -1.61197484e-02 -1.29591050e-02
   9.58135258e-03  1.38903745e-02  1.70514900e-02  1.33645050e-02
   2.13284045e-02  1.14243310e-02  6.74445648e-03  1.19722402e-02
  -2.02103425e-02  1.06587624e-02 -5.31185698e-03  1.43393194e-02
  -1.81796458e-02  1.32931964e-02 -1.57951731e-02  1.41837290e-02
   1.18954843e-02 -1.00273304e-02  1.37654059e-02  1.57026350e-02
  -1.45262973e-02  9.14470199e-03 -1.91663839e-02  1.75442118e-02
   1.92747395e-02  4.60688071e-03  1.51442336e-02  1.71843041e-02
  -2.11323313e-02 -1.88165400e-02 -1.38011351e-02 -3.93490680e-03
  -4.55330033e-03 -1.29039260e-02 -1.67977251e-02 -1.72936395e-02
   1.15272170e-02  1.10900505e-02  1.49805853e-02  1.62805934e-02
  -9.46888048e-03 -5.83298923e-03  1.04899602e-02 -1.65349562e-02
   1.87754538e-03  2.15414446e-03  1.07026612e-02 -1.10341860e-02]
 [-3.35280448e-01 -8.53025615e-01 -6.68372333e-01 -6.49473310e-01
  -7.50657976e-01 -4.59959030e-01 -6.08200133e-01 -7.59021819e-01
  -6.20572746e-01 -8.04232895e-01 -4.65453267e-01 -6.62351787e-01
  -5.95306158e-01 -6.89163744e-01 -1.95083499e-01 -6.24693811e-01
  -4.17304546e-01 -7.78797269e-01 -7.10269392e-01 -9.18169141e-01
   5.97617850e-02 -6.94307446e-01 -6.08817875e-01 -5.14741421e-01
  -6.35492861e-01 -9.01110947e-01 -2.42661918e-03 -4.24863189e-01
  -6.87225699e-01 -6.29962027e-01 -7.21160352e-01 -7.93250084e-01
  -6.47450089e-01 -5.05839169e-01 -7.51974523e-01 -8.33198309e-01
  -6.93067491e-01 -7.23351657e-01 -3.82225573e-01 -6.25853419e-01
  -7.33030915e-01 -7.61194706e-01 -1.08240083e-01 -9.12637174e-01
  -6.44000947e-01 -5.73659360e-01 -6.05092406e-01 -9.66133177e-01
  -7.19087839e-01 -6.76636696e-01 -7.31218696e-01 -8.07179689e-01
  -3.89163136e-01 -5.11760414e-01 -5.65674841e-01 -9.07528102e-01
  -5.06085694e-01 -1.19632423e-01 -6.74122691e-01 -5.66493750e-01
  -5.37169814e-01 -7.01584697e-01 -6.49794161e-01 -2.93839931e-01
  -1.96598738e-01 -4.28035945e-01 -6.85036600e-01 -8.03164303e-01
  -5.01773119e-01 -7.69150436e-01 -6.95293486e-01 -4.74665999e-01
  -7.79659867e-01 -5.68328679e-01 -7.09834158e-01 -6.10848069e-01
  -9.56170075e-03 -1.92221105e-02 -7.00527251e-01 -7.70834804e-01
   3.98116112e-02 -4.40728571e-03 -1.70337129e-02  2.34457497e-02
   2.06316244e-02  6.66281022e-03 -1.47272740e-02  3.53856105e-03
   1.46007072e-03  4.02882043e-03 -2.80591268e-02  2.68955082e-02
   7.65874749e-03 -8.89526960e-03 -1.02958167e-02  3.06385402e-02
  -8.70671938e-04  2.42355317e-02  1.16122616e-02  3.95506620e-03
   1.94889531e-02  2.91161332e-03 -2.08217502e-02 -6.00828091e-03
  -7.08706863e-03  4.06690594e-03  2.32727751e-02 -3.52777317e-02
   1.09968660e-02 -5.52164838e-02  3.39813088e-03 -1.51886083e-02
  -1.53503101e-02 -1.02562010e-02  2.05867290e-02  1.51328044e-03
   3.42637971e-02 -7.72136357e-03 -7.30906380e-03 -2.10753083e-02
   4.21009101e-02 -2.32315324e-02 -1.21002542e-02  1.65592059e-02
  -1.73282139e-02 -4.49555134e-03 -1.08773855e-03 -2.14887923e-03
  -1.63268745e-02 -1.37069151e-02 -7.34901503e-02  5.58019802e-03
  -5.77132637e-03 -1.16199423e-02  9.78020951e-03  1.68938339e-02
   1.17278220e-02  1.40725067e-02 -1.24311931e-02  8.12932290e-03
  -2.35341466e-03 -1.03976559e-02  2.88592260e-02  1.83698460e-02
  -2.50924621e-02 -1.91653203e-02  1.48264086e-02  2.46844497e-02
  -1.26278196e-02 -1.72943491e-02  1.98333431e-03 -1.03489785e-02
  -6.64947415e-03 -2.19094269e-02 -3.06886360e-02 -3.26124467e-02
   1.49882194e-02  2.86452676e-04 -1.62694715e-02 -2.70115640e-02
  -7.01206410e-03  1.65931098e-02 -1.32013233e-02  1.95549652e-02
  -1.91262700e-02  4.17803600e-03  9.84390546e-03 -1.26689263e-02
   1.46413697e-02 -1.88842360e-02 -8.90910067e-03 -2.06730012e-02
   1.76723804e-02 -1.46177113e-02 -6.27406128e-03 -1.69680715e-02
   3.46015347e-03  1.83498226e-02 -1.68273821e-02  1.06686177e-02
   1.18516560e-03  1.59950256e-02 -7.67490687e-03 -6.71074307e-03
  -1.42648676e-02 -1.32590411e-02 -3.01948725e-03 -4.42214916e-03
  -1.86844803e-02  1.44183235e-02 -1.59201790e-02 -1.16933240e-02
   1.04613528e-02  1.36802718e-02  1.65063497e-02  1.37639176e-02
   2.09112223e-02  1.10287182e-02  6.44278061e-03  1.20158996e-02
  -2.06470005e-02  9.87380464e-03 -5.38372109e-03  1.38595747e-02
  -1.72872115e-02  1.29104750e-02 -1.52490623e-02  1.37858437e-02
   1.22198230e-02 -1.02280639e-02  1.28879827e-02  1.46386614e-02
  -1.45169897e-02  1.07525820e-02 -1.90608390e-02  1.79311614e-02
   1.93535443e-02  4.25620424e-03  1.45100607e-02  1.72694288e-02
  -2.05306504e-02 -1.82566978e-02 -1.38698975e-02 -4.25600260e-03
  -4.62289108e-03 -1.27144838e-02 -1.63896475e-02 -1.74577348e-02
   1.17606856e-02  9.60199069e-03  1.42348446e-02  1.57704335e-02
  -9.74096078e-03 -6.04207860e-03  9.29675996e-03 -1.58131532e-02
   2.01122463e-03  2.01611547e-03  1.00543182e-02 -1.04845036e-02]]
gru_7/gru_cell_7/kernel:0
(80, 300)
[[-0.05715928  0.08665243 -0.00484696 ... -0.08967701 -0.02273007
   0.07437757]
 [-0.04996989 -0.00564802 -0.05915859 ...  0.03638862 -0.04192524
   0.03268008]
 [ 0.02755072  0.06324863 -0.08979211 ...  0.13622612  0.05716117
  -0.07407561]
 ...
 [-0.01228212  0.03248942  0.0664362  ...  0.09501453 -0.08678479
   0.04944043]
 [-0.11256916  0.08708794 -0.0426921  ...  0.03167275  0.01496588
   0.08107746]
 [-0.09626086 -0.10882635 -0.11135514 ...  0.141143   -0.06136992
  -0.05356111]]
gru_7/gru_cell_7/recurrent_kernel:0
(100, 300)
[[-0.01968529  0.11193493 -0.06171134 ...  0.07805172  0.12243021
   0.00477247]
 [-0.08014042 -0.1601193   0.05843313 ...  0.11845099  0.05265987
   0.06022283]
 [ 0.06486896  0.0471204  -0.01696698 ... -0.01811274 -0.05215156
  -0.07072962]
 ...
 [ 0.06353308 -0.0023611  -0.09988637 ... -0.07505308 -0.08232649
  -0.06736808]
 [ 0.01684571  0.06324534 -0.10685744 ...  0.01180124 -0.04669724
   0.05406   ]
 [ 0.06243498 -0.03402205 -0.00536895 ...  0.04958274 -0.02757447
  -0.06538933]]
gru_7/gru_cell_7/bias:0
(2, 300)
[[ 6.91682147e-03 -3.68732214e-02 -2.87633091e-01 -2.00251460e-01
  -1.22036383e-01 -2.79890716e-01 -1.50133014e-01 -1.80284724e-01
  -4.31746580e-02 -2.83051431e-01 -2.71335602e-01 -2.01564819e-01
  -8.77045840e-02  5.96308559e-02 -1.80773690e-01 -6.35383790e-03
  -6.09919429e-02 -1.34704143e-01 -1.04427114e-01 -3.08760218e-02
  -1.79072827e-01  1.82427820e-02 -7.35591799e-02 -1.52459426e-04
  -5.45971270e-04 -3.19880486e-01 -1.25557736e-01 -1.92766950e-01
  -1.43431380e-01 -5.01331408e-04 -3.26814801e-01 -6.10029176e-02
  -1.78589493e-01  4.70009679e-03 -3.16590071e-01 -1.33757442e-01
  -1.93977743e-01 -6.94800764e-02 -3.75786982e-02 -4.60710861e-02
  -2.97826886e-01 -2.18026981e-01 -1.90545991e-03 -3.40522140e-01
  -3.00696105e-01 -1.80387124e-01 -1.62697688e-01  1.11484034e-02
  -1.15931772e-01 -2.94878066e-01 -8.10972042e-03 -1.02866717e-01
  -2.89264560e-01 -2.30115637e-01 -3.52484167e-01 -1.31829038e-01
  -3.61864418e-01 -1.75877139e-01 -4.13298979e-02  4.00359146e-02
  -3.01588207e-01 -1.31452948e-01 -1.48342267e-01 -1.39023140e-01
  -1.73084050e-01 -3.04307461e-01 -4.85860929e-02 -1.67500317e-01
  -2.17245057e-01 -1.29722312e-01 -1.91436380e-01 -1.93737164e-01
  -2.15206340e-01 -1.07420743e-01 -1.91395774e-01 -1.19559675e-01
  -2.53288358e-01 -2.16698721e-01  1.80507242e-03 -3.81546877e-02
  -1.89492166e-01  4.48119408e-03 -1.70479640e-01 -3.18386078e-01
  -2.66035676e-01 -2.71200061e-01 -1.16183087e-01 -5.13922945e-02
  -2.50226170e-01 -1.80107504e-02 -1.14285097e-01 -1.93018451e-01
  -4.79564928e-02 -1.70302093e-01  5.64931072e-02 -1.78220406e-01
  -1.52989402e-01 -2.11374015e-01 -2.66200513e-01 -1.84468865e-01
  -5.67117881e-04 -2.97155939e-02 -1.79409049e-02 -2.74160746e-02
  -2.27341093e-02 -4.29252870e-02 -2.63274107e-02 -2.21456494e-02
  -2.28858646e-02 -2.73403842e-02 -2.66355891e-02 -1.64028369e-02
  -2.17613261e-02 -2.21409239e-02 -2.11082697e-02 -1.64254624e-02
  -1.51408073e-02 -2.10620388e-02 -6.51651844e-02 -1.21691367e-02
  -5.41682839e-02  3.42498301e-03 -1.54249640e-02 -2.40462758e-02
  -7.24692792e-02  1.37307635e-02 -1.52196214e-02 -2.28360221e-02
  -3.01071419e-03 -2.71984632e-03 -3.25463004e-02 -3.48040983e-02
  -1.51657695e-02 -4.61397655e-02 -1.98810790e-02 -2.15032268e-02
  -4.96458896e-02 -5.39802797e-02 -1.40602263e-02 -6.68706596e-02
  -4.06286269e-02 -5.19130100e-03 -5.16677834e-02 -4.07992564e-02
  -2.19245553e-02 -4.35060300e-02 -3.50749120e-02 -2.10794806e-02
  -2.90453508e-02 -3.96969765e-02 -6.27511069e-02 -3.49384621e-02
  -1.41330147e-02  5.42846322e-03 -6.74171234e-03 -4.91449498e-02
  -2.04410823e-03 -3.30800526e-02 -3.87372486e-02 -8.24036077e-04
  -4.18443903e-02 -1.11744069e-02 -1.45662259e-02 -6.41904995e-02
  -2.16692239e-02 -2.06000707e-03 -3.59219722e-02 -4.65296470e-02
  -1.14874942e-02 -1.03341453e-02 -3.56970094e-02 -8.00153241e-04
  -3.71951498e-02 -1.23416795e-03 -1.56004792e-02 -2.95278970e-02
  -2.82129906e-02 -4.70076390e-02  1.43558532e-02 -3.09947655e-02
  -2.35708859e-02 -1.87397543e-02 -2.70903148e-02 -3.75554059e-03
  -1.34806409e-02 -5.37872687e-03 -1.05520412e-02 -2.98929904e-02
  -1.59594025e-02 -8.36522784e-03 -6.37872086e-04 -1.84432548e-02
  -2.75199004e-02 -3.88305709e-02 -4.22246754e-02 -2.77162828e-02
  -2.46277638e-02 -1.97178703e-02 -3.74375843e-03 -1.18635232e-02
   1.07303716e-03  1.15909195e-03 -3.37092578e-03  3.65027599e-03
   3.47120484e-04 -1.70690753e-03 -1.52935483e-03 -2.16181576e-03
  -1.68395671e-03  1.27002771e-03 -4.04534955e-03  9.61169135e-04
   1.73526537e-03  6.38200378e-04  7.99242291e-04  1.77903697e-04
   8.40521534e-04  7.46125123e-04  5.17845037e-04 -7.77987589e-04
  -1.31016015e-03  2.04655156e-03  9.74495488e-04 -2.31003435e-03
   1.10436944e-04 -9.47988359e-04  2.86013703e-03 -9.80036333e-04
   3.20225838e-03  1.66528113e-03  1.31504005e-03 -4.60922066e-03
  -1.18382050e-05  1.14455156e-03  1.62904791e-04 -1.11643318e-03
  -2.55546824e-04  3.01248441e-03 -1.22671574e-03 -5.22715878e-03
  -1.73315150e-03  1.58392440e-03 -2.75902246e-04 -1.71999307e-03
   2.51683337e-03  1.37079554e-03  2.57764221e-03  2.53858347e-03
  -1.37815101e-03 -6.57954137e-04  6.71979552e-03 -1.69711464e-04
  -3.02605680e-04  5.16074616e-03 -3.24338413e-04 -2.64152390e-04
   3.10289353e-04  8.14104278e-04 -2.31772731e-03  6.19814266e-03
   3.40432220e-04  1.41885935e-03  1.26244547e-03 -1.29739172e-03
  -1.76233076e-03 -2.09296559e-04  1.36526173e-03 -4.23689000e-03
  -8.44953116e-04 -6.90830348e-05 -4.77124704e-04 -1.51819084e-03
  -2.26485310e-03  1.24507162e-04  6.67219050e-04  4.62621712e-04
   8.76926933e-04  3.79625289e-03 -1.38846785e-03 -5.60401287e-03
  -9.67109168e-04 -4.74663975e-05  6.80007273e-04  1.47826620e-03
   5.47291944e-04  1.79321412e-03 -2.09488999e-03  3.47860111e-03
   8.01470771e-04 -1.84687972e-03 -8.44197406e-04 -2.20226892e-03
   3.18722078e-03  3.74338753e-03 -3.59667302e-03  5.15372027e-04
   7.16835930e-05  9.18977719e-04 -2.87376088e-03  2.90805008e-04]
 [ 6.91682147e-03 -3.68732214e-02 -2.87633091e-01 -2.00251460e-01
  -1.22036383e-01 -2.79890716e-01 -1.50133014e-01 -1.80284724e-01
  -4.31746580e-02 -2.83051431e-01 -2.71335602e-01 -2.01564819e-01
  -8.77045840e-02  5.96308559e-02 -1.80773690e-01 -6.35383790e-03
  -6.09919429e-02 -1.34704143e-01 -1.04427114e-01 -3.08760218e-02
  -1.79072827e-01  1.82427820e-02 -7.35591799e-02 -1.52459426e-04
  -5.45971270e-04 -3.19880486e-01 -1.25557736e-01 -1.92766950e-01
  -1.43431380e-01 -5.01331408e-04 -3.26814801e-01 -6.10029176e-02
  -1.78589493e-01  4.70009679e-03 -3.16590071e-01 -1.33757442e-01
  -1.93977743e-01 -6.94800764e-02 -3.75786982e-02 -4.60710861e-02
  -2.97826886e-01 -2.18026981e-01 -1.90545991e-03 -3.40522140e-01
  -3.00696105e-01 -1.80387124e-01 -1.62697688e-01  1.11484034e-02
  -1.15931772e-01 -2.94878066e-01 -8.10972042e-03 -1.02866717e-01
  -2.89264560e-01 -2.30115637e-01 -3.52484167e-01 -1.31829038e-01
  -3.61864418e-01 -1.75877139e-01 -4.13298979e-02  4.00359146e-02
  -3.01588207e-01 -1.31452948e-01 -1.48342267e-01 -1.39023140e-01
  -1.73084050e-01 -3.04307461e-01 -4.85860929e-02 -1.67500317e-01
  -2.17245057e-01 -1.29722312e-01 -1.91436380e-01 -1.93737164e-01
  -2.15206340e-01 -1.07420743e-01 -1.91395774e-01 -1.19559675e-01
  -2.53288358e-01 -2.16698721e-01  1.80507242e-03 -3.81546877e-02
  -1.89492166e-01  4.48119408e-03 -1.70479640e-01 -3.18386078e-01
  -2.66035676e-01 -2.71200061e-01 -1.16183087e-01 -5.13922945e-02
  -2.50226170e-01 -1.80107504e-02 -1.14285097e-01 -1.93018451e-01
  -4.79564928e-02 -1.70302093e-01  5.64931072e-02 -1.78220406e-01
  -1.52989402e-01 -2.11374015e-01 -2.66200513e-01 -1.84468865e-01
  -5.67117881e-04 -2.97155939e-02 -1.79409049e-02 -2.74160746e-02
  -2.27341093e-02 -4.29252870e-02 -2.63274107e-02 -2.21456494e-02
  -2.28858646e-02 -2.73403842e-02 -2.66355891e-02 -1.64028369e-02
  -2.17613261e-02 -2.21409239e-02 -2.11082697e-02 -1.64254624e-02
  -1.51408073e-02 -2.10620388e-02 -6.51651844e-02 -1.21691367e-02
  -5.41682839e-02  3.42498301e-03 -1.54249640e-02 -2.40462758e-02
  -7.24692792e-02  1.37307635e-02 -1.52196214e-02 -2.28360221e-02
  -3.01071419e-03 -2.71984632e-03 -3.25463004e-02 -3.48040983e-02
  -1.51657695e-02 -4.61397655e-02 -1.98810790e-02 -2.15032268e-02
  -4.96458896e-02 -5.39802797e-02 -1.40602263e-02 -6.68706596e-02
  -4.06286269e-02 -5.19130100e-03 -5.16677834e-02 -4.07992564e-02
  -2.19245553e-02 -4.35060300e-02 -3.50749120e-02 -2.10794806e-02
  -2.90453508e-02 -3.96969765e-02 -6.27511069e-02 -3.49384621e-02
  -1.41330147e-02  5.42846322e-03 -6.74171234e-03 -4.91449498e-02
  -2.04410823e-03 -3.30800526e-02 -3.87372486e-02 -8.24036077e-04
  -4.18443903e-02 -1.11744069e-02 -1.45662259e-02 -6.41904995e-02
  -2.16692239e-02 -2.06000707e-03 -3.59219722e-02 -4.65296470e-02
  -1.14874942e-02 -1.03341453e-02 -3.56970094e-02 -8.00153241e-04
  -3.71951498e-02 -1.23416795e-03 -1.56004792e-02 -2.95278970e-02
  -2.82129906e-02 -4.70076390e-02  1.43558532e-02 -3.09947655e-02
  -2.35708859e-02 -1.87397543e-02 -2.70903148e-02 -3.75554059e-03
  -1.34806409e-02 -5.37872687e-03 -1.05520412e-02 -2.98929904e-02
  -1.59594025e-02 -8.36522784e-03 -6.37872086e-04 -1.84432548e-02
  -2.75199004e-02 -3.88305709e-02 -4.22246754e-02 -2.77162828e-02
  -2.46277638e-02 -1.97178703e-02 -3.74375843e-03 -1.18635232e-02
   1.23171392e-03  1.44673337e-03 -3.44118825e-03  3.28624365e-03
   3.86002765e-04 -1.18733407e-03 -1.46795530e-03 -1.82573264e-03
  -1.58176874e-03  1.60209544e-03 -4.31366079e-03  1.19844044e-03
   1.19470968e-03  8.72633536e-04  4.81932686e-04 -2.44662690e-04
   4.51429019e-04  2.56592786e-04  8.86037422e-04 -5.46146650e-04
  -1.33572414e-03  1.54878304e-03  1.07847620e-03 -2.20128614e-03
   6.46702596e-04 -6.97083247e-04  2.42281449e-03 -1.02429639e-03
   3.46255139e-03  2.12675589e-03  2.17062538e-03 -4.36423346e-03
   5.38086053e-04  1.05692586e-03  1.43528654e-04 -1.01120386e-03
  -1.33678317e-04  3.13860271e-03 -7.95370783e-04 -5.51023381e-03
  -1.27086672e-03  1.91804918e-03 -3.59997153e-04 -1.11040031e-03
   2.19195941e-03  1.22143887e-03  2.22643488e-03  2.28216127e-03
  -1.04534940e-03 -1.00352673e-03  6.29995530e-03 -3.14695179e-04
   2.84946407e-04  4.67929337e-03 -2.97391176e-04 -1.96674475e-04
   3.53587529e-05  6.00746134e-04 -1.99225312e-03  6.69051521e-03
   6.41993538e-05  1.11779768e-03  1.82191480e-03 -1.18024857e-03
  -2.03439104e-03 -6.29277492e-04  1.26894622e-03 -4.35980363e-03
  -7.82723306e-04 -1.61603821e-04 -7.66478537e-04 -1.28962821e-03
  -1.98812480e-03 -7.55705769e-05  3.05321417e-04  7.08340260e-04
   1.86980731e-04  3.21748341e-03 -1.46290741e-03 -5.35313552e-03
  -9.81745427e-04  4.91470331e-04  9.48187022e-04  8.86963098e-04
   4.37071547e-04  1.51447812e-03 -1.72946346e-03  3.36271618e-03
   1.00582431e-03 -1.75974995e-03 -9.68300155e-04 -1.85085635e-03
   3.07267904e-03  3.04387743e-03 -3.03878309e-03  3.31726682e-04
   2.46848533e-04  9.85504361e-04 -3.05399322e-03  7.68194732e-04]]
gru_8/gru_cell_8/kernel:0
(100, 240)
[[ 0.05151613  0.0090552   0.01514916 ... -0.04461625 -0.05794841
   0.03160261]
 [-0.1017145  -0.04401639  0.04346753 ...  0.01744639  0.04938763
  -0.02697968]
 [ 0.09079678 -0.07484388 -0.00391676 ...  0.00725958  0.05318238
   0.00809251]
 ...
 [ 0.0518271   0.0750085   0.0292704  ... -0.010559   -0.11723305
   0.05532646]
 [ 0.1051875  -0.02682564 -0.01428505 ... -0.14349252  0.044391
  -0.04103436]
 [-0.05403439  0.06480702  0.06592704 ... -0.01594945 -0.10772307
  -0.01686786]]
gru_8/gru_cell_8/recurrent_kernel:0
(80, 240)
[[ 0.20686673  0.04319311  0.01056837 ...  0.01986028  0.01274215
   0.05214731]
 [-0.154707   -0.14661545 -0.00768013 ...  0.01571405  0.03828814
  -0.00550909]
 [ 0.02562587  0.05221078  0.04495545 ...  0.1242649  -0.02977202
   0.00724221]
 ...
 [-0.04242484 -0.06701684  0.0024988  ... -0.07215036  0.1148148
  -0.07520607]
 [-0.06126514 -0.1045346  -0.08663213 ...  0.10917632  0.00597863
  -0.06990531]
 [ 0.01088534 -0.13076772 -0.18983659 ... -0.05740718 -0.04323922
  -0.11287452]]
gru_8/gru_cell_8/bias:0
(2, 240)
[[ 0.18155798  0.07608928  0.04820739  0.1064902   0.06961878  0.11030564
   0.07450476  0.01398606  0.05648689  0.03212321  0.10622928  0.08550064
   0.07261684  0.10702161  0.07065211  0.13219707  0.12510802  0.06635904
   0.03379678  0.0806989   0.14308071  0.03807693  0.10393004  0.10475373
   0.12400424  0.06198888  0.02027984  0.08193938  0.09838639 -0.00376088
   0.128853    0.06609736  0.05555793  0.08370327  0.11106902  0.0995869
   0.07190562  0.1172558   0.10678186  0.08941571  0.05646693  0.06468964
   0.09518881  0.04511891  0.1236454   0.07105286 -0.01610777  0.10304882
   0.08599271  0.09176716  0.03715767  0.05533821  0.1350394   0.03309853
   0.10287401  0.07182436  0.00072334  0.01947761  0.06168981  0.11777849
   0.05707817  0.09902117  0.10504755  0.13975859  0.06624066  0.17475997
   0.09285604  0.08995867  0.07605233  0.13192183  0.07097934  0.1178269
   0.0586061   0.0805841   0.14567885  0.05161789  0.16543831  0.06517255
   0.13428612  0.03531546 -0.05140022  0.01325134 -0.04638516 -0.00145134
  -0.02968029 -0.0305601  -0.04628037 -0.06042714 -0.00355863 -0.0654963
  -0.04580309 -0.07824235 -0.08274122 -0.01033375 -0.03198642 -0.03734906
  -0.04814986 -0.0209879  -0.05695486 -0.07646064 -0.03933617 -0.01392128
  -0.03438655 -0.0305965  -0.00976408 -0.04896756  0.01436613 -0.08527879
  -0.02761059  0.00697504 -0.04777681 -0.05758037 -0.09592172 -0.03372206
  -0.0451566  -0.07911928 -0.04793902 -0.03168812 -0.04412751 -0.05201569
  -0.02107287 -0.05495552 -0.0558724  -0.05824896 -0.02883792 -0.02333518
  -0.03522278 -0.03949199 -0.04249037 -0.05200121 -0.04252605 -0.03863112
  -0.04953245 -0.11353984 -0.01256188 -0.01872839 -0.03844182 -0.02507483
  -0.01062323 -0.0366105  -0.0668743  -0.08084853 -0.06995444 -0.01268374
  -0.04226907 -0.0056094  -0.06238802 -0.02481382 -0.03908005 -0.03176395
  -0.04478617 -0.00676835 -0.05801494 -0.04577696 -0.05674038 -0.04184492
  -0.03585882 -0.02510124 -0.02616893 -0.04433127  0.01546475  0.00030852
   0.00914591  0.00654039  0.00711976 -0.00340443  0.01055437 -0.00701738
   0.01044529  0.00423146  0.00887466  0.00744569 -0.00829097  0.00876574
   0.01068341 -0.01818434 -0.00543463  0.00947394 -0.0110468  -0.00329295
  -0.01001277  0.00302443  0.01056353  0.00635465  0.01031423  0.00736091
  -0.00857116  0.00901288 -0.01076874  0.01780718 -0.01247661  0.00764342
   0.01024545 -0.00710985 -0.00760957 -0.01422231 -0.01420496  0.00859215
  -0.00697457 -0.0158102   0.00956659  0.00862741 -0.00424814  0.0102476
  -0.0114184   0.01167524 -0.01023536 -0.01245401  0.0115536  -0.01358514
  -0.01255578 -0.01035701 -0.01600574 -0.01539181 -0.00333095 -0.01504958
  -0.01210935 -0.00653083 -0.01030417  0.00960993 -0.00848253 -0.01546256
   0.00991906 -0.00747293 -0.0178675  -0.00847005  0.00863617  0.01269379
  -0.00894818  0.01045056 -0.00723982 -0.00515701  0.01443343 -0.01040476
   0.00653922 -0.00762854 -0.00681537 -0.01340681 -0.01126289 -0.011789  ]
 [ 0.18155798  0.07608928  0.04820739  0.1064902   0.06961878  0.11030564
   0.07450476  0.01398606  0.05648689  0.03212321  0.10622928  0.08550064
   0.07261684  0.10702161  0.07065211  0.13219707  0.12510802  0.06635904
   0.03379678  0.0806989   0.14308071  0.03807693  0.10393004  0.10475373
   0.12400424  0.06198888  0.02027984  0.08193938  0.09838639 -0.00376088
   0.128853    0.06609736  0.05555793  0.08370327  0.11106902  0.0995869
   0.07190562  0.1172558   0.10678186  0.08941571  0.05646693  0.06468964
   0.09518881  0.04511891  0.1236454   0.07105286 -0.01610777  0.10304882
   0.08599271  0.09176716  0.03715767  0.05533821  0.1350394   0.03309853
   0.10287401  0.07182436  0.00072334  0.01947761  0.06168981  0.11777849
   0.05707817  0.09902117  0.10504755  0.13975859  0.06624066  0.17475997
   0.09285604  0.08995867  0.07605233  0.13192183  0.07097934  0.1178269
   0.0586061   0.0805841   0.14567885  0.05161789  0.16543831  0.06517255
   0.13428612  0.03531546 -0.05140022  0.01325134 -0.04638516 -0.00145134
  -0.02968029 -0.0305601  -0.04628037 -0.06042714 -0.00355863 -0.0654963
  -0.04580309 -0.07824235 -0.08274122 -0.01033375 -0.03198642 -0.03734906
  -0.04814986 -0.0209879  -0.05695486 -0.07646064 -0.03933617 -0.01392128
  -0.03438655 -0.0305965  -0.00976408 -0.04896756  0.01436613 -0.08527879
  -0.02761059  0.00697504 -0.04777681 -0.05758037 -0.09592172 -0.03372206
  -0.0451566  -0.07911928 -0.04793902 -0.03168812 -0.04412751 -0.05201569
  -0.02107287 -0.05495552 -0.0558724  -0.05824896 -0.02883792 -0.02333518
  -0.03522278 -0.03949199 -0.04249037 -0.05200121 -0.04252605 -0.03863112
  -0.04953245 -0.11353984 -0.01256188 -0.01872839 -0.03844182 -0.02507483
  -0.01062323 -0.0366105  -0.0668743  -0.08084853 -0.06995444 -0.01268374
  -0.04226907 -0.0056094  -0.06238802 -0.02481382 -0.03908005 -0.03176395
  -0.04478617 -0.00676835 -0.05801494 -0.04577696 -0.05674038 -0.04184492
  -0.03585882 -0.02510124 -0.02616893 -0.04433127  0.01277795  0.00026557
   0.00950788  0.00633203  0.00764953 -0.00325248  0.01006026 -0.00746373
   0.00943914  0.00324307  0.00920908  0.00686839 -0.00816204  0.00775018
   0.01030625 -0.01700343 -0.00550538  0.0087657  -0.01144332 -0.00280251
  -0.01073469  0.00265753  0.00996672  0.00611061  0.01087855  0.00778884
  -0.00814101  0.00881629 -0.00983628  0.01703581 -0.01175755  0.00613596
   0.01042181 -0.00714821 -0.00827826 -0.01376766 -0.01355215  0.00918401
  -0.00679927 -0.01522816  0.01003071  0.00850758 -0.00436916  0.00975631
  -0.01222722  0.01023257 -0.00969756 -0.01219814  0.01059116 -0.01367941
  -0.01151159 -0.00979668 -0.01439149 -0.01482723 -0.00273835 -0.01568056
  -0.01272317 -0.00680039 -0.00928214  0.01005632 -0.00837361 -0.01475704
   0.00944213 -0.00633483 -0.01791202 -0.00748365  0.00877644  0.01105707
  -0.00855043  0.01083463 -0.00781059 -0.0043311   0.0131374  -0.00925389
   0.00664415 -0.00813113 -0.00641581 -0.01420697 -0.01111068 -0.01083509]]
dense_2/kernel:0
(80, 1)
[[ 0.06535914]
 [-0.06407434]
 [ 0.16824949]
 [ 0.08351749]
 [ 0.1755866 ]
 [-0.21944764]
 [ 0.0627422 ]
 [-0.21450965]
 [ 0.08796213]
 [ 0.17239746]
 [ 0.13807087]
 [ 0.16466959]
 [-0.15094705]
 [ 0.07046542]
 [ 0.07538985]
 [-0.0568144 ]
 [-0.19171464]
 [ 0.13876365]
 [-0.17439316]
 [-0.19369766]
 [-0.16680709]
 [ 0.09787294]
 [ 0.07201397]
 [ 0.12908256]
 [ 0.1700035 ]
 [ 0.24553604]
 [-0.06263366]
 [ 0.13541357]
 [-0.07981215]
 [ 0.06353438]
 [-0.05629024]
 [ 0.08120615]
 [ 0.14976196]
 [-0.194514  ]
 [-0.17430268]
 [-0.08315831]
 [-0.08706824]
 [ 0.18637514]
 [-0.13593253]
 [-0.06579613]
 [ 0.21650925]
 [ 0.10814212]
 [-0.20883223]
 [ 0.09912598]
 [-0.19049312]
 [ 0.0793428 ]
 [-0.1342645 ]
 [-0.09258135]
 [ 0.0514243 ]
 [-0.0983664 ]
 [-0.08807921]
 [-0.1016468 ]
 [-0.05400124]
 [-0.08617294]
 [-0.14449354]
 [-0.10502654]
 [-0.12198378]
 [-0.20275715]
 [-0.09708364]
 [ 0.17564867]
 [-0.1780491 ]
 [-0.0825464 ]
 [ 0.12088247]
 [-0.05739637]
 [-0.07724156]
 [-0.06661045]
 [ 0.11924181]
 [ 0.08994573]
 [-0.1589135 ]
 [ 0.16053668]
 [-0.22417079]
 [-0.05286232]
 [ 0.0882031 ]
 [-0.12726922]
 [ 0.10838329]
 [-0.19790375]
 [-0.08049448]
 [-0.10275165]
 [-0.06712966]
 [-0.0627306 ]]
dense_2/bias:0
(1,)
[0.09524832]
