gru/gru_cell/kernel:0
(1, 240)
[[-6.25886917e-01 -8.64164710e-01 -4.48236734e-01 -1.56305775e-01
  -3.59782755e-01 -3.99295479e-01 -2.56794155e-01 -5.18814266e-01
  -2.67353386e-01 -5.23812413e-01 -6.33471191e-01 -4.84086037e-01
  -5.39719224e-01 -4.56343591e-01 -5.17547429e-01  1.59676939e-01
  -3.62851053e-01 -6.55986428e-01 -5.00236690e-01 -3.83188874e-02
  -1.59499928e-01 -6.36923850e-01 -4.42719281e-01 -4.32249516e-01
  -1.16268322e-01 -5.37418067e-01 -5.15955329e-01 -3.37768346e-01
  -5.88167369e-01  1.02202088e-01 -7.13853419e-01 -4.51703668e-01
  -1.49631292e-01 -6.84233010e-02 -2.21287325e-01 -6.58292055e-01
  -5.71949124e-01 -4.94480550e-01 -5.91964245e-01 -6.14375174e-01
  -2.67296940e-01 -2.23396793e-01 -7.17875600e-01 -3.71541493e-02
  -7.66842544e-01 -6.39246702e-01 -5.58893442e-01 -6.01217747e-01
  -2.89423913e-01 -4.31629717e-01 -3.86273414e-01 -5.05859077e-01
  -6.24326587e-01 -6.17828310e-01 -6.38517499e-01  9.07492340e-02
  -5.61196625e-01 -6.46527052e-01 -4.03151363e-01 -3.60281080e-01
  -5.44460475e-01 -3.43781024e-01 -4.32306051e-01 -1.50323734e-01
  -2.44075745e-01 -4.89010394e-01 -5.53910017e-01 -3.90648693e-01
  -3.50073576e-01 -4.44621623e-01 -5.48687220e-01 -4.83807296e-01
  -7.70356178e-01 -4.68659461e-01 -7.75593042e-01 -6.10902190e-01
  -5.23656189e-01 -5.74638128e-01 -4.29666281e-01 -3.42998147e-01
   1.40430182e-01 -1.61853924e-01  3.53456102e-02 -1.65432990e-01
   2.09458712e-02  2.67047435e-02  2.74780486e-02  6.19937368e-02
  -2.32024807e-02  6.21983781e-02 -1.36529252e-01  3.56779806e-02
   1.61542624e-01 -1.61329433e-01  7.93786496e-02 -2.94242185e-02
   3.86960730e-02 -1.31191954e-01 -3.76439607e-03 -2.05368161e-01
   1.06540687e-01  3.92217673e-02  4.91125882e-02  6.38360530e-02
  -6.53422996e-02 -1.97564900e-01 -1.81209087e-01 -1.09797284e-01
  -9.44431648e-02  1.52520150e-01 -1.58586845e-01 -1.46865711e-01
  -4.81571406e-02  1.23034671e-01  3.12784016e-02 -1.54050589e-01
  -1.41902819e-01  1.08953737e-01  1.01895988e-01 -5.83750457e-02
   1.17219165e-01 -9.32566077e-03 -5.48776612e-02 -3.43318693e-02
  -7.59450346e-02 -2.64438689e-02 -4.85411519e-03 -2.09633596e-02
  -1.11084759e-01  2.01354059e-03 -1.24998495e-03 -1.73377275e-01
   5.38313277e-02 -7.25353509e-02 -1.82804152e-01 -2.74842177e-02
  -3.23929377e-02  4.01423052e-02 -8.74732807e-02  1.21885560e-01
  -3.72934863e-02  1.23654731e-01  1.40028179e-01 -1.50252357e-01
  -1.19517348e-03 -5.79487607e-02 -1.50840566e-01  2.75697503e-02
   5.83333458e-05 -1.58094577e-02 -1.09434962e-01 -8.78625736e-02
   7.13014603e-02 -5.23608120e-04 -2.51076352e-02 -6.34173155e-02
   1.32087931e-01 -1.50733232e-01 -4.25674692e-02 -1.42183796e-01
   6.05923533e-02 -1.57894000e-01 -8.08393583e-02  1.10810967e-02
  -1.80072151e-02  9.29516852e-02 -5.92508055e-02  1.24134220e-01
   6.53027296e-02  1.30300879e-01 -8.23436305e-02 -6.13997243e-02
   5.32426685e-02  6.15256578e-02  1.19499661e-01  1.15595767e-02
  -2.37330683e-02 -1.52493268e-01 -6.68605343e-02 -1.48974564e-02
   4.13419446e-03 -1.34583205e-01  6.21058270e-02 -5.56158833e-02
  -2.67060968e-04 -8.22310448e-02 -1.25099689e-01  3.05566024e-02
   9.58192274e-02  1.37458043e-03  1.44679219e-01 -1.02673106e-01
   3.46067064e-02 -6.10658480e-03 -3.78154591e-02  1.42169401e-01
  -8.00441280e-02 -7.56254494e-02 -1.04953989e-01 -1.56010166e-01
  -1.39735922e-01  3.99901345e-02 -8.82904530e-02  3.23917978e-02
   1.25172302e-01  1.37846917e-01  1.14099488e-01 -1.40596956e-01
   5.13949394e-02 -9.97541174e-02 -6.18176982e-02 -1.12136580e-01
   1.47979558e-01 -1.00415803e-01 -1.04928613e-01 -3.15428972e-02
  -1.27789021e-01 -1.40493825e-01  9.41899493e-02 -9.10473019e-02
  -1.36344790e-01 -8.73257890e-02  1.41380042e-01  5.50362468e-02
   5.27886674e-02  1.42728969e-01 -1.71285525e-01 -1.12440951e-01
   8.63481984e-02 -5.61884157e-02 -1.23890810e-01 -5.97066358e-02
   1.27078310e-01 -7.28979856e-02 -8.76009017e-02  7.49647841e-02
   9.52316523e-02 -1.14224114e-01 -1.37246639e-01  4.60252501e-02]]
gru/gru_cell/recurrent_kernel:0
(80, 240)
[[-0.11516668 -0.02051585 -0.04243814 ...  0.06912562  0.0126372
  -0.04552339]
 [ 0.10439347  0.10753264  0.05116078 ... -0.00359418 -0.02130048
   0.06303613]
 [-0.00042176  0.12228506  0.01799993 ... -0.01568855  0.10583185
  -0.05660232]
 ...
 [-0.01850643  0.25138536  0.1260254  ...  0.08930003 -0.02702777
  -0.11794358]
 [-0.05807336  0.12780868  0.04514704 ... -0.03128115 -0.04782921
  -0.0130869 ]
 [-0.00504165 -0.11983865 -0.03173325 ...  0.02968859 -0.1026637
  -0.10447959]]
gru/gru_cell/bias:0
(2, 240)
[[-6.43238723e-01 -9.37245727e-01 -5.00437856e-01 -8.59129578e-02
  -3.21281999e-01 -5.28434873e-01 -4.11086172e-01 -6.48805082e-01
  -5.08257985e-01 -6.23773038e-01 -9.08795595e-01 -6.60370886e-01
  -5.72176278e-01 -6.00745022e-01 -5.08242786e-01  8.15726221e-02
  -3.26667786e-01 -7.82730401e-01 -8.06678653e-01 -6.12471625e-02
  -7.63659505e-03 -6.76986635e-01 -6.52247965e-01 -6.14498913e-01
  -7.38286152e-02 -8.09955060e-01 -5.80052197e-01 -4.47358578e-01
  -7.68420100e-01  7.16069266e-02 -8.81860435e-01 -5.62981844e-01
  -3.25583965e-01 -2.17419893e-01 -8.19757953e-02 -8.53379726e-01
  -8.58145416e-01 -6.61267996e-01 -6.01457238e-01 -6.70788527e-01
  -2.25793913e-01 -3.50391328e-01 -8.67439866e-01 -1.72152817e-01
  -8.62904251e-01 -6.15032315e-01 -6.68463349e-01 -6.44759297e-01
  -3.95753682e-01 -5.46378911e-01 -6.96576476e-01 -7.41105139e-01
  -6.13146007e-01 -8.26233625e-01 -7.70502090e-01  2.62273908e-01
  -7.83506632e-01 -6.20081007e-01 -4.29496795e-01 -5.49324036e-01
  -6.46104276e-01 -4.81893510e-01 -7.32591748e-01 -3.09991896e-01
  -5.35176635e-01 -8.07151079e-01 -7.70773351e-01 -4.18205082e-01
  -6.88937128e-01 -6.53286457e-01 -8.75061452e-01 -7.21395016e-01
  -9.00991738e-01 -6.38512790e-01 -9.21488166e-01 -7.72270143e-01
  -5.75118124e-01 -7.01143861e-01 -6.17171049e-01 -4.20216262e-01
  -9.63118952e-03  2.90202927e-02  1.42386239e-02 -1.61586963e-02
  -2.42082635e-03 -2.37195995e-02 -1.16593381e-02 -1.14111612e-02
  -1.19344853e-02  1.27900485e-02 -4.18849289e-03 -2.81216167e-02
  -8.84163007e-03 -2.55568232e-02 -2.50200159e-03  7.59400893e-03
  -6.19756151e-03  2.79606581e-02 -1.23278378e-02 -7.15546906e-02
  -1.08692916e-02  1.03109563e-02 -3.93123440e-02 -4.00153771e-02
  -1.17217074e-03 -3.79778608e-03 -1.46263056e-02 -1.82547083e-03
  -1.15331309e-02  3.89948636e-02  2.56799087e-02 -1.19472891e-02
  -2.44936123e-02  1.08306855e-03  9.47715156e-03  2.69131213e-02
  -7.63992500e-03 -2.37792209e-02 -1.26951595e-03  1.64614357e-02
  -1.33955199e-03 -7.73130590e-03 -4.80850227e-03 -2.28957850e-02
   1.15108993e-02  2.86352821e-02 -8.71139206e-03  3.59759443e-02
  -4.93027084e-03 -2.11751019e-03 -2.08970252e-02  9.26826894e-03
   2.95518786e-02  9.76267562e-04  1.42198186e-02  7.82152917e-03
  -5.07068937e-04  1.36729786e-02 -5.99573040e-03 -2.69812951e-03
   2.83178985e-02 -4.53714700e-03  3.56430747e-02 -7.21003637e-02
  -1.26815468e-01  2.31689960e-02  4.01923433e-02 -6.46026339e-03
  -3.80664542e-02 -3.03903148e-02 -3.62282153e-03 -4.04308811e-02
   1.11839781e-02 -7.79917650e-03 -7.82204326e-03  8.99149943e-03
   1.03552202e-02  2.07818802e-02  2.64895391e-02 -9.73749831e-02
  -1.19355153e-02  2.29932740e-02  1.06443446e-02 -1.25420257e-03
   3.06582265e-03 -1.02489144e-02  9.67517216e-03 -1.68092959e-02
  -1.02386009e-02 -1.76795088e-02  1.25611918e-02  8.73536710e-03
  -1.02729788e-02 -1.06664700e-02 -1.64400619e-02  2.56765285e-03
   2.15083128e-03  2.28801016e-02  1.09568126e-02  4.61070798e-03
   2.92290351e-03  1.73319001e-02 -6.17173174e-03  1.08933691e-02
  -4.07953002e-03  1.04340902e-02  1.50807528e-02 -5.45165129e-03
  -1.00013157e-02 -3.46325076e-04 -1.73229761e-02  1.57692172e-02
  -8.85166880e-03  4.31545824e-03  3.36648850e-03 -2.02483628e-02
   1.08101415e-02  1.10539841e-02  1.58926137e-02  2.22657658e-02
   1.72702372e-02 -4.72732633e-03  1.29390843e-02 -4.38800221e-03
  -1.98464524e-02 -1.85166560e-02 -1.96613837e-02  1.88298300e-02
  -9.80167091e-03  1.30529888e-02  9.83966142e-03  1.66331623e-02
  -2.00639386e-02  1.31517509e-02  1.63581613e-02  4.67205280e-03
   1.73260532e-02  1.87195856e-02 -1.37742301e-02  1.41750826e-02
   2.13244464e-02  1.19251069e-02 -1.76709518e-02 -6.99999603e-03
  -4.09202324e-03 -1.78045724e-02  2.34008636e-02  1.49647202e-02
  -1.47732459e-02  7.42942654e-03  1.48994066e-02  8.18694104e-03
  -1.35125751e-02  9.03778058e-03  1.18025215e-02 -1.37943970e-02
  -1.28866285e-02  1.54569009e-02  1.73463784e-02 -4.20461362e-03]
 [-6.43238723e-01 -9.37245727e-01 -5.00437856e-01 -8.59129578e-02
  -3.21281999e-01 -5.28434873e-01 -4.11086172e-01 -6.48805082e-01
  -5.08257985e-01 -6.23773038e-01 -9.08795595e-01 -6.60370886e-01
  -5.72176278e-01 -6.00745022e-01 -5.08242786e-01  8.15726221e-02
  -3.26667786e-01 -7.82730401e-01 -8.06678653e-01 -6.12471625e-02
  -7.63659505e-03 -6.76986635e-01 -6.52247965e-01 -6.14498913e-01
  -7.38286152e-02 -8.09955060e-01 -5.80052197e-01 -4.47358578e-01
  -7.68420100e-01  7.16069266e-02 -8.81860435e-01 -5.62981844e-01
  -3.25583965e-01 -2.17419893e-01 -8.19757953e-02 -8.53379726e-01
  -8.58145416e-01 -6.61267996e-01 -6.01457238e-01 -6.70788527e-01
  -2.25793913e-01 -3.50391328e-01 -8.67439866e-01 -1.72152817e-01
  -8.62904251e-01 -6.15032315e-01 -6.68463349e-01 -6.44759297e-01
  -3.95753682e-01 -5.46378911e-01 -6.96576476e-01 -7.41105139e-01
  -6.13146007e-01 -8.26233625e-01 -7.70502090e-01  2.62273908e-01
  -7.83506632e-01 -6.20081007e-01 -4.29496795e-01 -5.49324036e-01
  -6.46104276e-01 -4.81893510e-01 -7.32591748e-01 -3.09991896e-01
  -5.35176635e-01 -8.07151079e-01 -7.70773351e-01 -4.18205082e-01
  -6.88937128e-01 -6.53286457e-01 -8.75061452e-01 -7.21395016e-01
  -9.00991738e-01 -6.38512790e-01 -9.21488166e-01 -7.72270143e-01
  -5.75118124e-01 -7.01143861e-01 -6.17171049e-01 -4.20216262e-01
  -9.63118952e-03  2.90202927e-02  1.42386239e-02 -1.61586963e-02
  -2.42082635e-03 -2.37195995e-02 -1.16593381e-02 -1.14111612e-02
  -1.19344853e-02  1.27900485e-02 -4.18849289e-03 -2.81216167e-02
  -8.84163007e-03 -2.55568232e-02 -2.50200159e-03  7.59400893e-03
  -6.19756151e-03  2.79606581e-02 -1.23278378e-02 -7.15546906e-02
  -1.08692916e-02  1.03109563e-02 -3.93123440e-02 -4.00153771e-02
  -1.17217074e-03 -3.79778608e-03 -1.46263056e-02 -1.82547083e-03
  -1.15331309e-02  3.89948636e-02  2.56799087e-02 -1.19472891e-02
  -2.44936123e-02  1.08306855e-03  9.47715156e-03  2.69131213e-02
  -7.63992500e-03 -2.37792209e-02 -1.26951595e-03  1.64614357e-02
  -1.33955199e-03 -7.73130590e-03 -4.80850227e-03 -2.28957850e-02
   1.15108993e-02  2.86352821e-02 -8.71139206e-03  3.59759443e-02
  -4.93027084e-03 -2.11751019e-03 -2.08970252e-02  9.26826894e-03
   2.95518786e-02  9.76267562e-04  1.42198186e-02  7.82152917e-03
  -5.07068937e-04  1.36729786e-02 -5.99573040e-03 -2.69812951e-03
   2.83178985e-02 -4.53714700e-03  3.56430747e-02 -7.21003637e-02
  -1.26815468e-01  2.31689960e-02  4.01923433e-02 -6.46026339e-03
  -3.80664542e-02 -3.03903148e-02 -3.62282153e-03 -4.04308811e-02
   1.11839781e-02 -7.79917650e-03 -7.82204326e-03  8.99149943e-03
   1.03552202e-02  2.07818802e-02  2.64895391e-02 -9.73749831e-02
  -1.08954785e-02  2.31855381e-02  1.05281407e-02 -1.33227638e-03
   3.24860960e-03 -9.97980591e-03  1.05811842e-02 -1.59592275e-02
  -1.03296908e-02 -1.72995944e-02  1.26749985e-02  8.17549042e-03
  -9.97307338e-03 -1.10081639e-02 -1.61499865e-02  2.92415218e-03
   2.08724104e-03  2.27227807e-02  1.04692504e-02  5.39426319e-03
   3.05987522e-03  1.70267038e-02 -6.27368176e-03  1.01556387e-02
  -5.03491098e-03  1.11166099e-02  1.54731506e-02 -6.13701250e-03
  -9.91100352e-03 -1.09411986e-03 -1.76351909e-02  1.56579539e-02
  -9.33067407e-03  4.09206236e-03  3.30087892e-03 -2.06093788e-02
   1.10479472e-02  1.00644389e-02  1.54707534e-02  2.16613691e-02
   1.68955512e-02 -5.21363970e-03  1.26672871e-02 -4.57800273e-03
  -1.91518813e-02 -1.82227679e-02 -1.90739762e-02  1.87150519e-02
  -9.67084616e-03  1.27566047e-02  9.28548258e-03  1.64242797e-02
  -1.95641275e-02  1.30184041e-02  1.62048656e-02  4.94956737e-03
   1.66397057e-02  1.83660798e-02 -1.35574909e-02  1.36084082e-02
   2.11945120e-02  1.16508938e-02 -1.75205879e-02 -6.63913833e-03
  -3.53484252e-03 -1.73162986e-02  2.35234536e-02  1.47803798e-02
  -1.35500617e-02  6.93614315e-03  1.46844145e-02  8.02911632e-03
  -1.26168150e-02  8.71672202e-03  1.12905055e-02 -1.34045836e-02
  -1.26129417e-02  1.54720321e-02  1.72566380e-02 -4.56997007e-03]]
gru_1/gru_cell_1/kernel:0
(80, 300)
[[-0.09712114 -0.10271695 -0.12755139 ...  0.06300857 -0.07971951
  -0.00566765]
 [-0.09059615  0.15222763  0.02074575 ...  0.0467036  -0.06466855
  -0.01022926]
 [-0.10089887 -0.01350081 -0.08311316 ... -0.0774985  -0.16766565
   0.08733837]
 ...
 [ 0.00993772  0.14586349  0.10320362 ...  0.10726332  0.00456319
   0.04865577]
 [ 0.14791824 -0.04933269  0.08169333 ...  0.02953987  0.03003042
  -0.11127619]
 [-0.00381457  0.10947542  0.05604002 ...  0.06578751  0.02955824
  -0.0527957 ]]
gru_1/gru_cell_1/recurrent_kernel:0
(100, 300)
[[-0.06052712  0.02437889 -0.02722424 ...  0.01424311 -0.05279262
  -0.07502533]
 [-0.06974395  0.00955888  0.07956662 ...  0.08626384  0.0239106
  -0.1420254 ]
 [ 0.0390595   0.07187284  0.1454603  ...  0.02329329 -0.06381853
   0.03432472]
 ...
 [-0.04455189 -0.02431632 -0.04484877 ... -0.08976336 -0.03816566
  -0.07356089]
 [-0.03452    -0.02913467 -0.07048503 ...  0.01650331 -0.02375834
   0.05790013]
 [ 0.03329113  0.04300016  0.07341047 ...  0.0085347   0.11215804
  -0.18379077]]
gru_1/gru_cell_1/bias:0
(2, 300)
[[-3.87758203e-02 -4.51472811e-02 -2.12568671e-01 -1.57985881e-01
   1.72092393e-02 -2.16384947e-01 -3.62723246e-02 -1.08534366e-01
  -1.83650583e-01 -2.26186231e-01 -2.97483444e-01 -1.92609236e-01
  -1.31165281e-01 -2.34567761e-01 -1.50103152e-01 -4.01053391e-02
  -2.22364649e-01 -1.50937095e-01 -2.02816799e-01 -8.11943859e-02
  -1.52131721e-01 -1.90529093e-01 -2.09629714e-01 -1.87874272e-01
  -1.30496658e-02 -2.61227518e-01  2.17445754e-02  1.19722746e-02
   7.27427611e-03 -1.68227717e-01  3.83290350e-02 -2.63041496e-01
   5.14788665e-02 -1.80882663e-01 -2.07605138e-01  3.97884361e-02
  -1.91017717e-01  7.01784156e-04  4.26420942e-02 -7.54241645e-02
  -1.05191760e-01 -2.48590454e-01 -2.46819049e-01 -6.24118336e-02
  -3.70709114e-02 -8.70997682e-02 -6.40899092e-02 -1.66804314e-01
  -3.22702825e-01 -2.78874815e-01 -5.98368943e-02 -1.65623590e-01
  -2.56018996e-01  1.72844585e-02 -2.40229726e-01 -1.44778952e-01
  -9.32612047e-02 -1.44104019e-01 -1.33204073e-01 -2.70050406e-01
  -3.31637442e-01 -1.25390783e-01  5.78403249e-02 -1.50992991e-02
  -1.87635377e-01 -3.33354473e-01 -9.72679034e-02 -3.02875221e-01
  -7.13506714e-02 -1.82866558e-01 -1.21291816e-01 -2.30990425e-01
  -2.89382398e-01 -2.03434199e-01 -1.87188029e-01 -2.01908335e-01
  -1.15167096e-01 -1.57058805e-01 -8.46111998e-02 -7.85459578e-02
  -3.89012545e-02 -6.47787005e-02 -2.38747653e-02 -2.23937437e-01
  -2.59443939e-01 -8.42344016e-02 -1.04026556e-01 -4.98771016e-03
  -2.26857767e-01 -1.44675434e-01 -7.68815875e-02 -1.33576393e-02
   9.49168764e-03 -1.32441089e-01 -2.39042789e-01 -5.58523163e-02
  -1.13171056e-01 -2.24835902e-01 -3.88496965e-01  1.52519671e-02
  -2.19074562e-02 -3.04173492e-02 -2.98592411e-02 -1.90330017e-02
  -1.65741146e-02 -1.65408421e-02 -2.60843318e-02 -6.42601848e-02
  -9.27411206e-03 -2.76466608e-02 -1.02533102e-02 -7.08500370e-02
  -9.16748215e-03 -4.25709151e-02 -3.70610729e-02 -1.08141430e-01
   4.96347807e-03 -1.99764743e-02 -2.63352003e-02 -4.06375192e-02
  -1.37876440e-02 -2.21078396e-02 -3.30395363e-02 -4.49697711e-02
  -1.08840555e-01 -1.07953791e-02  1.68799199e-02  7.25784292e-03
  -4.38297465e-02 -7.93950856e-02 -1.59274321e-02 -1.34140728e-02
   8.27878062e-03 -3.54104443e-03 -1.51445298e-02 -3.95961069e-02
  -5.98836653e-02 -2.26916559e-02 -2.89523248e-02  2.48854933e-03
  -1.47538558e-02 -9.23196971e-03  1.31292148e-02 -7.48722926e-02
  -5.68189695e-02 -3.12670209e-02 -9.21752490e-03 -5.01528718e-02
  -3.67057398e-02 -2.92450897e-02 -6.76766858e-02 -2.99591441e-02
   7.76984589e-03  3.91474506e-03 -2.69412212e-02 -3.24959867e-02
  -9.46753938e-03 -3.19335349e-02 -4.28882539e-02 -1.32879904e-02
  -1.44523252e-02 -3.41534689e-02 -2.31609624e-02 -5.27195632e-02
  -9.68001783e-03  1.55659569e-02 -2.51347199e-02 -3.27124707e-02
  -5.57599999e-02 -6.50289096e-03 -5.51939197e-02 -1.89854149e-02
  -3.31183448e-02 -1.33607872e-02  8.66517797e-03 -9.28238314e-03
  -7.01626018e-02 -4.72785793e-02 -1.37168495e-02 -1.04093459e-02
  -2.21589543e-02 -2.89108846e-02 -4.87417318e-02  7.41358800e-03
  -7.99746625e-03 -4.72592488e-02 -2.78299092e-03 -6.35247827e-02
  -1.79728586e-02 -8.13616142e-02 -5.40598184e-02 -2.97237970e-02
  -2.68077874e-03 -2.39712000e-02 -3.31693068e-02 -4.01788764e-02
  -1.02839386e-02 -4.92334850e-02 -2.50822399e-02 -4.61079367e-02
  -3.18552414e-03  2.80588213e-03  3.14443430e-04  3.67282704e-03
  -5.66500006e-04 -7.43895769e-04  3.43548134e-03 -6.21356361e-04
  -2.80234730e-04 -2.54652044e-03 -2.11693347e-03  1.79543719e-03
  -4.18437819e-04  7.66796700e-04  3.57856648e-03  5.01800969e-04
  -1.33392867e-03  3.91786359e-03  9.72030801e-04  1.18728122e-03
   1.60792470e-03  2.13618763e-03 -2.98095914e-03  2.74907611e-03
  -8.80461710e-04  5.21391281e-04 -2.22930149e-03  1.93806377e-03
   7.88743887e-03  1.98503979e-03  5.38860389e-04  3.22046550e-03
  -1.19167264e-03 -2.88791675e-03 -1.27125252e-03  6.25411235e-03
   1.86368451e-03  1.49712269e-03 -2.00475566e-03 -1.49726518e-03
   1.56963919e-03 -5.66336967e-04  1.50552951e-03 -2.44627707e-03
   4.08152910e-03  3.39929340e-03 -1.63909968e-03 -5.95109246e-04
  -4.06851352e-04 -1.84009247e-03  1.64706912e-03  6.14472665e-04
  -2.87837512e-03 -2.57561938e-03 -2.77301087e-03 -7.36186557e-05
   4.17382631e-04  2.43037241e-03 -2.76176375e-03 -3.51403374e-03
   1.07225857e-03  1.94829277e-04  2.08947342e-03 -1.92305888e-03
   3.72388167e-03 -9.90056200e-04 -5.68702875e-04 -1.32622267e-03
  -2.20898329e-03  1.13815255e-03 -5.46935888e-04 -3.13269184e-03
  -3.91118665e-04  2.50373530e-04  9.83924721e-04 -2.44419160e-03
  -1.34768884e-03  4.15042229e-03  2.22567236e-04  2.25326722e-03
  -2.23656837e-03  4.68217942e-04  9.53496085e-04 -5.36778942e-04
  -3.18988692e-03  2.72006704e-03 -3.93190712e-04  2.05954304e-03
   1.61884015e-03 -8.43386748e-04  3.80836078e-03 -7.92157545e-04
   4.46367594e-05  2.89722020e-03  2.52196193e-03 -3.00742663e-03
  -2.08068159e-04 -7.67789432e-04  1.05747538e-04  1.09979868e-04]
 [-3.87758203e-02 -4.51472811e-02 -2.12568671e-01 -1.57985881e-01
   1.72092393e-02 -2.16384947e-01 -3.62723246e-02 -1.08534366e-01
  -1.83650583e-01 -2.26186231e-01 -2.97483444e-01 -1.92609236e-01
  -1.31165281e-01 -2.34567761e-01 -1.50103152e-01 -4.01053391e-02
  -2.22364649e-01 -1.50937095e-01 -2.02816799e-01 -8.11943859e-02
  -1.52131721e-01 -1.90529093e-01 -2.09629714e-01 -1.87874272e-01
  -1.30496658e-02 -2.61227518e-01  2.17445754e-02  1.19722746e-02
   7.27427611e-03 -1.68227717e-01  3.83290350e-02 -2.63041496e-01
   5.14788665e-02 -1.80882663e-01 -2.07605138e-01  3.97884361e-02
  -1.91017717e-01  7.01784156e-04  4.26420942e-02 -7.54241645e-02
  -1.05191760e-01 -2.48590454e-01 -2.46819049e-01 -6.24118336e-02
  -3.70709114e-02 -8.70997682e-02 -6.40899092e-02 -1.66804314e-01
  -3.22702825e-01 -2.78874815e-01 -5.98368943e-02 -1.65623590e-01
  -2.56018996e-01  1.72844585e-02 -2.40229726e-01 -1.44778952e-01
  -9.32612047e-02 -1.44104019e-01 -1.33204073e-01 -2.70050406e-01
  -3.31637442e-01 -1.25390783e-01  5.78403249e-02 -1.50992991e-02
  -1.87635377e-01 -3.33354473e-01 -9.72679034e-02 -3.02875221e-01
  -7.13506714e-02 -1.82866558e-01 -1.21291816e-01 -2.30990425e-01
  -2.89382398e-01 -2.03434199e-01 -1.87188029e-01 -2.01908335e-01
  -1.15167096e-01 -1.57058805e-01 -8.46111998e-02 -7.85459578e-02
  -3.89012545e-02 -6.47787005e-02 -2.38747653e-02 -2.23937437e-01
  -2.59443939e-01 -8.42344016e-02 -1.04026556e-01 -4.98771016e-03
  -2.26857767e-01 -1.44675434e-01 -7.68815875e-02 -1.33576393e-02
   9.49168764e-03 -1.32441089e-01 -2.39042789e-01 -5.58523163e-02
  -1.13171056e-01 -2.24835902e-01 -3.88496965e-01  1.52519671e-02
  -2.19074562e-02 -3.04173492e-02 -2.98592411e-02 -1.90330017e-02
  -1.65741146e-02 -1.65408421e-02 -2.60843318e-02 -6.42601848e-02
  -9.27411206e-03 -2.76466608e-02 -1.02533102e-02 -7.08500370e-02
  -9.16748215e-03 -4.25709151e-02 -3.70610729e-02 -1.08141430e-01
   4.96347807e-03 -1.99764743e-02 -2.63352003e-02 -4.06375192e-02
  -1.37876440e-02 -2.21078396e-02 -3.30395363e-02 -4.49697711e-02
  -1.08840555e-01 -1.07953791e-02  1.68799199e-02  7.25784292e-03
  -4.38297465e-02 -7.93950856e-02 -1.59274321e-02 -1.34140728e-02
   8.27878062e-03 -3.54104443e-03 -1.51445298e-02 -3.95961069e-02
  -5.98836653e-02 -2.26916559e-02 -2.89523248e-02  2.48854933e-03
  -1.47538558e-02 -9.23196971e-03  1.31292148e-02 -7.48722926e-02
  -5.68189695e-02 -3.12670209e-02 -9.21752490e-03 -5.01528718e-02
  -3.67057398e-02 -2.92450897e-02 -6.76766858e-02 -2.99591441e-02
   7.76984589e-03  3.91474506e-03 -2.69412212e-02 -3.24959867e-02
  -9.46753938e-03 -3.19335349e-02 -4.28882539e-02 -1.32879904e-02
  -1.44523252e-02 -3.41534689e-02 -2.31609624e-02 -5.27195632e-02
  -9.68001783e-03  1.55659569e-02 -2.51347199e-02 -3.27124707e-02
  -5.57599999e-02 -6.50289096e-03 -5.51939197e-02 -1.89854149e-02
  -3.31183448e-02 -1.33607872e-02  8.66517797e-03 -9.28238314e-03
  -7.01626018e-02 -4.72785793e-02 -1.37168495e-02 -1.04093459e-02
  -2.21589543e-02 -2.89108846e-02 -4.87417318e-02  7.41358800e-03
  -7.99746625e-03 -4.72592488e-02 -2.78299092e-03 -6.35247827e-02
  -1.79728586e-02 -8.13616142e-02 -5.40598184e-02 -2.97237970e-02
  -2.68077874e-03 -2.39712000e-02 -3.31693068e-02 -4.01788764e-02
  -1.02839386e-02 -4.92334850e-02 -2.50822399e-02 -4.61079367e-02
  -3.41680599e-03  3.43334302e-03  3.54127813e-04  3.28532374e-03
  -3.50164075e-04 -4.65493096e-04  3.64272529e-03 -6.02156622e-04
   2.13868741e-04 -1.96184381e-03 -2.56680674e-03  1.83357357e-03
  -1.37635143e-04  9.67766042e-04  3.66819487e-03 -1.43782934e-04
  -7.03821308e-04  3.63003649e-03  1.44136211e-05  1.50223041e-03
   1.76352344e-03  2.44809967e-03 -2.41960003e-03  2.50139739e-03
  -6.19406463e-04  5.37411834e-04 -2.43594986e-03  2.11260561e-03
   7.41475634e-03  1.86076271e-03  8.16716638e-05  2.77656689e-03
  -1.05425518e-03 -2.54010316e-03 -1.21771521e-03  6.11477811e-03
   1.65668514e-03  1.05792750e-03 -2.26376439e-03 -1.51076424e-03
   1.26645039e-03  1.16655887e-04  8.40009481e-04 -2.37982790e-03
   4.37158346e-03  3.53578641e-03 -1.90699135e-03 -6.52276562e-04
  -3.44566768e-04 -9.85636725e-04  1.79490296e-03  4.25344799e-04
  -2.63690948e-03 -2.82672956e-03 -2.62670196e-03 -4.44783072e-04
   1.13358547e-03  1.80959317e-03 -3.00695887e-03 -3.11734807e-03
   1.34890724e-03  2.30558799e-04  2.31742579e-03 -2.97958334e-03
   3.82932229e-03 -1.47148140e-03 -5.41082991e-04 -2.09372351e-03
  -2.27070553e-03  9.45434149e-04 -5.45028364e-04 -2.58330326e-03
  -4.77621739e-04  7.69629725e-04  7.07080704e-04 -2.07298039e-03
  -1.09749031e-03  4.18020692e-03  5.60207918e-05  2.21782480e-03
  -2.27366807e-03  3.45500273e-04  9.71100759e-04 -3.55027587e-05
  -3.14791966e-03  2.72868760e-03  1.04949017e-04  2.22930196e-03
   1.28009694e-03 -8.70953198e-04  3.64490692e-03 -1.21362624e-03
   3.56637232e-04  2.63637817e-03  2.87225004e-03 -2.63789599e-03
  -4.11728310e-04 -6.73985342e-04  1.73904846e-04  5.45815157e-04]]
gru_2/gru_cell_2/kernel:0
(100, 240)
[[-0.10619068 -0.09922385  0.01685686 ...  0.04764979 -0.11146781
   0.06657735]
 [-0.15446067 -0.0234814   0.01175898 ... -0.0017239   0.06538347
   0.02263214]
 [-0.07778451 -0.00921682  0.02099812 ...  0.07451847  0.12920992
  -0.0963726 ]
 ...
 [ 0.09660998 -0.01742029  0.04018993 ... -0.04660919 -0.01551592
   0.08489057]
 [-0.00920849  0.06478921  0.00646112 ... -0.09773989 -0.11791699
   0.10413485]
 [ 0.01310498  0.10963689  0.03366591 ... -0.11825903  0.06878064
   0.02181599]]
gru_2/gru_cell_2/recurrent_kernel:0
(80, 240)
[[ 2.8966857e-02  6.4803846e-02 -7.0849568e-02 ... -3.5198212e-03
  -1.1082950e-01 -2.8604718e-02]
 [-1.1525732e-01 -9.7639523e-02 -2.7323870e-02 ... -9.5480112e-03
  -4.9790479e-02  1.6807351e-02]
 [ 4.4250363e-03  1.9443501e-03 -9.2684507e-02 ...  6.9586456e-02
  -1.1357028e-02  6.3702047e-02]
 ...
 [ 1.1775493e-01 -7.5297584e-03 -1.5419237e-02 ...  5.8285978e-02
  -5.2543869e-03  3.5922162e-02]
 [-2.2030614e-02  7.4847743e-02  2.9657864e-05 ...  1.8600591e-02
   8.5278317e-02 -2.9360704e-02]
 [ 3.7086923e-02  3.0201874e-03 -5.7724468e-02 ... -4.1141924e-02
   9.0076692e-02 -4.2598899e-02]]
gru_2/gru_cell_2/bias:0
(2, 240)
[[ 0.07981573  0.1206311   0.05529154  0.10231356  0.07749009  0.04790236
   0.06628069  0.10876095  0.10677199  0.03378932  0.08602925  0.06876554
   0.09199686  0.05022724  0.02532332  0.15476431  0.06082683  0.01660416
   0.09370773  0.07212592  0.07891309  0.06469367  0.10987286  0.139282
   0.00675396  0.06688535  0.10616425  0.08276844  0.06030541  0.04811859
   0.03646533  0.13941424  0.1290226   0.04425995  0.1433989   0.08712715
   0.14925474  0.04011496  0.11169     0.10117947  0.07311586  0.07398376
   0.06330107  0.04394757  0.10621392 -0.02229232  0.07419103  0.07392778
   0.09203173  0.12036437  0.0824477   0.09918237  0.10197985  0.15313582
   0.04554597  0.05823213  0.05033072  0.17868952  0.00450912  0.12776865
   0.06194432  0.04332395  0.06210291  0.08168636  0.05038025  0.09471726
   0.03599381  0.07585856  0.03667155  0.03184733  0.06853916  0.0226279
   0.10957318  0.1372284   0.07391921  0.06678267  0.11304192  0.03595708
   0.05933031  0.06983256 -0.02764987 -0.00779065 -0.02003173 -0.01704265
  -0.04807637 -0.02182557 -0.05118631 -0.04187325 -0.05602647 -0.05485209
  -0.03228861 -0.03243354 -0.02898279 -0.06367298 -0.07070574 -0.04947868
  -0.01069134 -0.03730084 -0.02987834 -0.05330263 -0.0748115  -0.00030939
  -0.04576354 -0.03834227 -0.05429757 -0.11542004 -0.03459464 -0.03752812
  -0.04184122 -0.01474361 -0.01373267 -0.01695467 -0.02138641 -0.02169454
  -0.07091124 -0.04412357 -0.02933506 -0.01434029 -0.01689714 -0.07248979
  -0.00519697 -0.03719861 -0.07643154 -0.03883625 -0.05414224 -0.04118869
  -0.06609932 -0.070033   -0.04794614 -0.01235284 -0.02526995 -0.06392206
  -0.05949382 -0.02124616 -0.00921408 -0.04455401 -0.0795508  -0.06009689
  -0.04858485 -0.06015592 -0.0427095  -0.01777254 -0.03514475 -0.07052477
  -0.03934244 -0.03012553 -0.00997049 -0.08225078 -0.0148774  -0.01308183
  -0.02532872 -0.03534895 -0.03671817 -0.01036503 -0.07487199 -0.03616472
  -0.02430296 -0.07590427 -0.04379174 -0.05391237 -0.00935417 -0.00422513
  -0.0130856   0.00933034 -0.00924747  0.00457286 -0.00851472 -0.01147145
   0.00485374 -0.00692546 -0.00634608  0.00403045 -0.01098222 -0.01042687
  -0.01359812  0.01403553 -0.00920346 -0.00742937  0.00406426  0.00681063
   0.00438407  0.00635642  0.01226843 -0.00888387 -0.00701425  0.00626228
   0.01272016 -0.01250915 -0.01054961 -0.01186024 -0.00610051 -0.01144979
  -0.00684748 -0.0081488  -0.01083722 -0.00436282  0.01125767 -0.00413185
   0.01152668  0.00833007 -0.01266109  0.00846166  0.00424809  0.00735951
   0.00689525  0.00660418  0.00548487 -0.01701079 -0.00829007 -0.01307058
   0.01257987  0.00342919 -0.00799996 -0.01477009  0.01120757  0.01247568
  -0.00499527  0.01740474 -0.01146287  0.00612043  0.00563106  0.01108773
   0.01340755 -0.00795578  0.00845277 -0.0118888   0.00198527  0.00932784
   0.01189145  0.01112094 -0.00498972  0.00565187 -0.01392094  0.0169654
   0.00831865  0.0069449   0.00774486  0.01310299 -0.00697573 -0.00432319]
 [ 0.07981573  0.1206311   0.05529154  0.10231356  0.07749009  0.04790236
   0.06628069  0.10876095  0.10677199  0.03378932  0.08602925  0.06876554
   0.09199686  0.05022724  0.02532332  0.15476431  0.06082683  0.01660416
   0.09370773  0.07212592  0.07891309  0.06469367  0.10987286  0.139282
   0.00675396  0.06688535  0.10616425  0.08276844  0.06030541  0.04811859
   0.03646533  0.13941424  0.1290226   0.04425995  0.1433989   0.08712715
   0.14925474  0.04011496  0.11169     0.10117947  0.07311586  0.07398376
   0.06330107  0.04394757  0.10621392 -0.02229232  0.07419103  0.07392778
   0.09203173  0.12036437  0.0824477   0.09918237  0.10197985  0.15313582
   0.04554597  0.05823213  0.05033072  0.17868952  0.00450912  0.12776865
   0.06194432  0.04332395  0.06210291  0.08168636  0.05038025  0.09471726
   0.03599381  0.07585856  0.03667155  0.03184733  0.06853916  0.0226279
   0.10957318  0.1372284   0.07391921  0.06678267  0.11304192  0.03595708
   0.05933031  0.06983256 -0.02764987 -0.00779065 -0.02003173 -0.01704265
  -0.04807637 -0.02182557 -0.05118631 -0.04187325 -0.05602647 -0.05485209
  -0.03228861 -0.03243354 -0.02898279 -0.06367298 -0.07070574 -0.04947868
  -0.01069134 -0.03730084 -0.02987834 -0.05330263 -0.0748115  -0.00030939
  -0.04576354 -0.03834227 -0.05429757 -0.11542004 -0.03459464 -0.03752812
  -0.04184122 -0.01474361 -0.01373267 -0.01695467 -0.02138641 -0.02169454
  -0.07091124 -0.04412357 -0.02933506 -0.01434029 -0.01689714 -0.07248979
  -0.00519697 -0.03719861 -0.07643154 -0.03883625 -0.05414224 -0.04118869
  -0.06609932 -0.070033   -0.04794614 -0.01235284 -0.02526995 -0.06392206
  -0.05949382 -0.02124616 -0.00921408 -0.04455401 -0.0795508  -0.06009689
  -0.04858485 -0.06015592 -0.0427095  -0.01777254 -0.03514475 -0.07052477
  -0.03934244 -0.03012553 -0.00997049 -0.08225078 -0.0148774  -0.01308183
  -0.02532872 -0.03534895 -0.03671817 -0.01036503 -0.07487199 -0.03616472
  -0.02430296 -0.07590427 -0.04379174 -0.05391237 -0.00955175 -0.00376087
  -0.01216182  0.00786775 -0.00867654  0.00377019 -0.00862269 -0.01168513
   0.00479241 -0.00771545 -0.00620327  0.00405414 -0.0113882  -0.00986452
  -0.01112009  0.01303747 -0.00881352 -0.00623713  0.00338577  0.00642515
   0.00232098  0.00495625  0.01288352 -0.00942476 -0.00768125  0.00635971
   0.01384303 -0.01184472 -0.01114762 -0.01089041 -0.00549514 -0.01141964
  -0.00645756 -0.00750295 -0.01111539 -0.00448723  0.01000835 -0.00346644
   0.01211588  0.00851315 -0.01099522  0.00754281  0.00475574  0.00754745
   0.00744896  0.00596656  0.00594688 -0.01633843 -0.00866319 -0.01211191
   0.01119846  0.00374694 -0.00783061 -0.01430519  0.01011998  0.01248962
  -0.00465262  0.01646096 -0.01004853  0.00556704  0.00512871  0.00933625
   0.01265864 -0.00827407  0.00867792 -0.01232364  0.00172965  0.00939433
   0.01119735  0.01056416 -0.00493974  0.00545706 -0.01344427  0.01548052
   0.00817006  0.00702979  0.00716124  0.01245007 -0.00768825 -0.0041111 ]]
dense/kernel:0
(80, 1)
[[-0.22403224]
 [-0.06720605]
 [-0.07926983]
 [ 0.06393983]
 [-0.0977531 ]
 [ 0.08290555]
 [-0.09316528]
 [-0.12460297]
 [ 0.20920748]
 [-0.1765348 ]
 [-0.16622837]
 [ 0.1873393 ]
 [-0.22368112]
 [-0.10050387]
 [-0.06887535]
 [ 0.08845944]
 [-0.10386812]
 [-0.16395108]
 [ 0.20081659]
 [ 0.18331814]
 [ 0.14322053]
 [ 0.05697685]
 [ 0.11389562]
 [-0.13467693]
 [-0.17519414]
 [ 0.22988726]
 [ 0.20993643]
 [-0.09088776]
 [-0.15379265]
 [-0.07983036]
 [-0.06402723]
 [-0.1786589 ]
 [-0.22847599]
 [-0.07614575]
 [-0.10990511]
 [-0.19137277]
 [ 0.0664591 ]
 [-0.12617882]
 [ 0.22163236]
 [ 0.12437474]
 [-0.05788443]
 [ 0.10793463]
 [ 0.21905604]
 [ 0.18271314]
 [ 0.22162236]
 [ 0.18534985]
 [ 0.21319444]
 [-0.06480799]
 [-0.12084752]
 [-0.05809382]
 [ 0.06208048]
 [ 0.19960742]
 [-0.14110264]
 [-0.05759742]
 [ 0.05859027]
 [ 0.11077996]
 [-0.1837031 ]
 [ 0.06208772]
 [-0.16072753]
 [ 0.16700844]
 [ 0.16200493]
 [ 0.06395365]
 [ 0.09063976]
 [-0.1484718 ]
 [ 0.20220584]
 [-0.17807858]
 [ 0.10579503]
 [ 0.17385902]
 [ 0.08244281]
 [ 0.06904471]
 [-0.17821239]
 [ 0.1576322 ]
 [-0.08960998]
 [ 0.06375638]
 [ 0.15142679]
 [ 0.15937202]
 [ 0.0856726 ]
 [ 0.09689055]
 [-0.22079279]
 [-0.13183057]]
dense/bias:0
(1,)
[0.09710582]
